3.739494830369949341e-02
3.646717965602874756e-02
8.890826255083084106e-03
8.825277909636497498e-03
6.529413629323244095e-03
-2.711300738155841827e-02
2.503985911607742310e-02
1.343116257339715958e-02
7.899320684373378754e-03
3.321384638547897339e-02
6.334439851343631744e-03
7.005624473094940186e-02
-3.612349927425384521e-02
5.460979789495468140e-02
2.741256728768348694e-02
-1.913175359368324280e-02
7.061602920293807983e-02
-1.341235917061567307e-02
-4.434518268681131303e-05
4.090676829218864441e-02
9.365768637508153915e-04
6.310894340276718140e-02
7.047933060675859451e-03
1.357395760715007782e-02
-2.434309339150786400e-03
4.022737592458724976e-02
8.319805376231670380e-03
6.956204771995544434e-02
-4.854882135987281799e-03
2.895746193826198578e-02
7.534785661846399307e-03
-7.561587728559970856e-03
1.377315074205398560e-02
8.313217014074325562e-02
6.177079677581787109e-02
5.087014660239219666e-02
4.275700077414512634e-02
-1.372610917314887047e-03
3.573134168982505798e-02
5.945972725749015808e-02
5.442554596811532974e-03
1.078651985153555870e-04
3.798517212271690369e-02
5.437408015131950378e-02
5.051854625344276428e-02
2.408783510327339172e-02
-3.733170218765735626e-03
3.948653489351272583e-02
2.842751517891883850e-02
3.115099295973777771e-02
-1.950829464476555586e-04
-4.045777954161167145e-03
5.955407768487930298e-02
-3.557659313082695007e-02
5.084399878978729248e-02
5.335688591003417969e-02
4.437707830220460892e-03
6.578470114618539810e-03
2.486245706677436829e-02
-4.893421754240989685e-02
-2.297717583132907748e-04
-1.337982248514890671e-02
-1.270726881921291351e-02
-1.882302341982722282e-03
5.101286619901657104e-02
3.937954083085060120e-02
1.962981931865215302e-02
6.049540638923645020e-02
-1.999205723404884338e-02
2.785928780212998390e-03
2.277592383325099945e-02
-1.742752827703952789e-02
5.985108390450477600e-02
6.122883409261703491e-02
5.078025534749031067e-02
2.436718344688415527e-02
-4.039891529828310013e-03
-7.273146416991949081e-03
-1.722908765077590942e-02
4.147830605506896973e-02
7.107460498809814453e-02
-2.174244448542594910e-02
3.461165726184844971e-02
-1.968866959214210510e-02
-2.988864853978157043e-02
-7.314154412597417831e-03
1.555174496024847031e-02
5.127416551113128662e-02
3.581052273511886597e-02
1.425005961209535599e-02
2.050281688570976257e-02
5.731122568249702454e-02
5.986667424440383911e-02
6.610895507037639618e-03
4.554321989417076111e-02
-1.213745027780532837e-02
8.009367436170578003e-02
4.129734262824058533e-02
7.133433222770690918e-02
-1.141757238656282425e-03
7.650324143469333649e-03
-8.761730045080184937e-03
7.170385867357254028e-02
3.979468718171119690e-02
1.033322047442197800e-02
1.924507319927215576e-02
8.130586147308349609e-02
4.481652751564979553e-02
4.067177325487136841e-02
3.243504464626312256e-02
3.664974588900804520e-03
4.754781723022460938e-02
6.688757240772247314e-02
-1.598247326910495758e-02
5.412056297063827515e-02
2.456097863614559174e-02
-2.410926483571529388e-02
1.944460533559322357e-02
1.472228951752185822e-02
7.091578096151351929e-02
3.403646871447563171e-03
5.164827778935432434e-02
-1.658838824369013309e-03
3.403680026531219482e-02
6.729317456483840942e-02
2.420661970973014832e-02
-9.574909927323460579e-04
-1.111384294927120209e-02
