9.005641937255859375e-02
-1.053030639886856079e-01
-2.339028120040893555e-01
-2.834495306015014648e-01
-2.160556614398956299e-01
4.910807609558105469e-01
4.643071889877319336e-01
4.564794600009918213e-01
-2.658464312553405762e-01
3.792380094528198242e-01
-3.832202851772308350e-01
2.558291852474212646e-01
1.449563056230545044e-01
4.680592939257621765e-02
-1.444241702556610107e-01
-1.815194487571716309e-01
4.997573494911193848e-01
4.570131599903106689e-01
4.761297702789306641e-01
2.140436321496963501e-01
1.007564291357994080e-01
-1.180513575673103333e-01
1.111779361963272095e-01
-2.452135980129241943e-01
6.603696197271347046e-02
-4.089045524597167969e-01
1.486726701259613037e-01
5.048941969871520996e-01
3.280505836009979248e-01
-1.486691832542419434e-01
5.405501127243041992e-01
2.818670868873596191e-01
4.655922949314117432e-02
5.013434886932373047e-01
1.073481142520904541e-02
-3.321284055709838867e-01
-2.738689780235290527e-01
7.134869694709777832e-02
2.320961505174636841e-01
1.204381287097930908e-01
4.682637453079223633e-01
2.554252371191978455e-02
1.251638680696487427e-02
3.364157080650329590e-01
-1.510442495346069336e-01
-4.058322906494140625e-01
-1.231040284037590027e-01
-1.893844604492187500e-01
-1.906229704618453979e-01
5.505302548408508301e-01
-2.224264889955520630e-01
2.359813749790191650e-01
-1.950110942125320435e-01
-3.300591409206390381e-01
2.560488581657409668e-01
3.094354569911956787e-01
-4.749584570527076721e-02
-2.945406734943389893e-01
-3.229785263538360596e-01
-2.310220152139663696e-01
-1.584122478961944580e-01
-4.244493544101715088e-01
-8.159566670656204224e-02
9.562198072671890259e-02
-1.670772135257720947e-01
2.299082875251770020e-01
3.248222470283508301e-01
5.753476545214653015e-02
3.814182281494140625e-01
-3.482750654220581055e-01
-1.465864926576614380e-01
5.750046372413635254e-01
-2.322073876857757568e-01
5.439513921737670898e-01
1.119007021188735962e-01
-3.077717125415802002e-01
1.919812858104705811e-01
-2.817710395902395248e-03
-3.704150319099426270e-01
1.201315075159072876e-01
-3.775399327278137207e-01
-3.536194264888763428e-01
-4.090492129325866699e-01
-2.365252673625946045e-01
4.250885248184204102e-01
-3.641110062599182129e-01
-1.464302688837051392e-01
3.092184104025363922e-02
-2.587153315544128418e-01
-1.518553495407104492e-01
1.416238546371459961e-01
-3.696137070655822754e-01
1.722098290920257568e-01
-1.293088197708129883e-01
1.632045954465866089e-01
1.164049580693244934e-01
4.951446354389190674e-01
-2.588688433170318604e-01
3.078236877918243408e-01
3.395079374313354492e-01
4.725948274135589600e-01
3.372780280187726021e-03
-2.026853561401367188e-01
-1.163127347826957703e-01
-2.054432332515716553e-01
3.194657713174819946e-02
3.413450419902801514e-01
-4.148784875869750977e-01
-9.149953722953796387e-02
9.097024798393249512e-02
4.413492083549499512e-01
-1.210550442337989807e-01
-1.311553567647933960e-01
2.836097776889801025e-01
4.394043385982513428e-01
-2.504354417324066162e-01
-1.513078957796096802e-01
5.527172684669494629e-01
-2.502638101577758789e-01
-1.568679697811603546e-02
-2.086892724037170410e-01
3.855300545692443848e-01
-2.697555720806121826e-01
-8.707688003778457642e-02
-9.733040817081928253e-03
5.609738230705261230e-01
-3.897257447242736816e-01
1.521518379449844360e-01
-2.659350931644439697e-01
-6.816764175891876221e-02
8.738934993743896484e-02
-3.601681590080261230e-01
-3.809372782707214355e-01
-1.099053421057760715e-03
-3.649583458900451660e-01
1.136722713708877563e-01
1.529208719730377197e-01
-3.875002562999725342e-01
-2.650684677064418793e-02
-8.336429297924041748e-02
2.102480977773666382e-01
6.897312402725219727e-02
-1.063594818115234375e-01
-1.627293415367603302e-02
2.228519879281520844e-02
4.786839783191680908e-01
-2.730572819709777832e-01
1.970723271369934082e-01
2.366055250167846680e-01
-8.862195909023284912e-02
-1.045809760689735413e-01
-1.640313267707824707e-01
-1.672732681035995483e-01
-2.931946516036987305e-01
1.692603826522827148e-01
8.541060984134674072e-02
2.041599303483963013e-01
1.775449812412261963e-01
5.539935231208801270e-01
1.471593528985977173e-01
1.888269037008285522e-01
-1.085784137248992920e-01
8.099003136157989502e-02
-2.164528518915176392e-01
5.259633660316467285e-01
-9.651017934083938599e-02
4.813992381095886230e-01
5.583673715591430664e-01
5.295393466949462891e-01
1.403592675924301147e-01
3.481513261795043945e-01
2.324808388948440552e-01
5.456221103668212891e-01
3.048709034919738770e-01
1.933624148368835449e-01
-1.090986430644989014e-01
1.476294696331024170e-01
3.414287269115447998e-01
5.585238337516784668e-01
-2.558737099170684814e-01
7.724755257368087769e-02
1.324243098497390747e-01
3.217800557613372803e-01
1.617468148469924927e-02
6.370577216148376465e-02
-2.419403046369552612e-01
4.334108233451843262e-01
-2.512083351612091064e-01
-2.760055065155029297e-01
2.504442930221557617e-01
3.042189478874206543e-01
4.566329121589660645e-01
1.381161659955978394e-01
3.982153832912445068e-01
-2.623191773891448975e-01
3.459591865539550781e-01
4.776059985160827637e-01
4.175991117954254150e-01
-5.958241596817970276e-02
-3.456979393959045410e-01
2.982831299304962158e-01
-9.563510119915008545e-02
1.752362251281738281e-01
-1.568781435489654541e-01
3.025087714195251465e-01
-3.913913071155548096e-01
-1.139867156744003296e-01
-3.146517872810363770e-01
3.610206544399261475e-01
-7.922247797250747681e-02
8.269029855728149414e-02
-3.805095553398132324e-01
-3.564552366733551025e-01
-2.383531033992767334e-01
-7.977063208818435669e-02
4.817869961261749268e-01
4.621540606021881104e-01
2.387299435213208199e-03
3.423578143119812012e-01
2.075789421796798706e-01
3.173407912254333496e-01
-7.654968649148941040e-02
4.974487125873565674e-01
3.012622892856597900e-01
9.014555811882019043e-02
2.042889744043350220e-01
9.785536676645278931e-02
3.965585529804229736e-01
-3.998922109603881836e-01
4.145272076129913330e-01
3.206466436386108398e-01
4.169664978981018066e-01
8.608841896057128906e-02
3.866667151451110840e-01
-4.309293627738952637e-01
4.020290970802307129e-01
-1.758146882057189941e-01
-3.525484800338745117e-01
-1.839135438203811646e-01
4.058975577354431152e-01
2.630434036254882812e-01
-3.105283975601196289e-01
-1.887775063514709473e-01
3.276727199554443359e-01
-2.520542740821838379e-01
-3.131175637245178223e-01
-3.414406478404998779e-01
2.471889853477478027e-01
5.716740339994430542e-02
-4.773567244410514832e-02
4.067118838429450989e-02
5.698074698448181152e-01
5.422431230545043945e-02
3.798123300075531006e-01
5.587640404701232910e-01
3.792227208614349365e-01
4.445084035396575928e-01
-1.415062695741653442e-01
2.816467583179473877e-01
1.020664274692535400e-01
1.599033325910568237e-01
8.152553439140319824e-02
-9.488700889050960541e-03
3.749707937240600586e-01
3.553805947303771973e-01
2.359451353549957275e-01
-2.336945831775665283e-01
1.200810521841049194e-01
4.515676200389862061e-01
-1.043508872389793396e-01
-1.368533819913864136e-01
-1.608148068189620972e-01
3.750778436660766602e-01
3.595420718193054199e-01
-3.463748469948768616e-02
-1.602581739425659180e-01
3.996644914150238037e-01
-1.073036715388298035e-02
1.606306284666061401e-01
-8.250153064727783203e-02
5.905414745211601257e-02
-2.650564014911651611e-01
-1.733592003583908081e-01
-1.421199738979339600e-01
2.241668552160263062e-01
-4.421053826808929443e-02
-3.449729681015014648e-01
7.314235717058181763e-02
-3.950152397155761719e-01
4.546939134597778320e-01
-1.910634487867355347e-01
-4.522416740655899048e-02
3.862377703189849854e-01
5.160940885543823242e-01
5.032386779785156250e-01
-1.384155005216598511e-01
3.046283125877380371e-01
3.290241658687591553e-01
-1.254662126302719116e-01
-2.733248174190521240e-01
-3.255200088024139404e-01
-5.234992876648902893e-02
2.459927797317504883e-01
-2.924291491508483887e-01
1.420262455940246582e-01
5.298033356666564941e-01
-1.558921039104461670e-01
-4.479537159204483032e-02
2.142096906900405884e-01
2.882971763610839844e-01
3.265554830431938171e-02
3.483452200889587402e-01
-3.512905538082122803e-01
-2.599387466907501221e-01
5.001270771026611328e-01
4.735035449266433716e-02
-2.587957493960857391e-02
-3.816039562225341797e-01
4.148679971694946289e-01
4.937376081943511963e-02
5.584192872047424316e-01
-4.199959635734558105e-01
-2.326696813106536865e-01
1.071168333292007446e-01
-1.828185617923736572e-01
-3.559539020061492920e-01
2.257284894585609436e-02
-2.145645916461944580e-01
-3.898983299732208252e-01
1.779946498572826385e-02
-1.063766106963157654e-01
-4.066398143768310547e-01
-2.746636271476745605e-01
-3.318026065826416016e-01
5.183853507041931152e-01
3.356517255306243896e-01
-3.880083560943603516e-01
1.422630399465560913e-01
2.688673734664916992e-01
-3.987771272659301758e-01
-3.936685621738433838e-02
1.777159869670867920e-01
2.949707210063934326e-01
4.236852228641510010e-01
-1.536274254322052002e-01
2.894222736358642578e-01
-3.719089627265930176e-01
4.526636898517608643e-01
3.848220705986022949e-01
-1.980567127466201782e-01
-8.889742195606231689e-03
4.760311543941497803e-01
3.601796627044677734e-01
2.427651546895503998e-02
-1.243115589022636414e-01
-6.446043401956558228e-02
-1.569833308458328247e-01
-1.674003005027770996e-01
-2.017586529254913330e-01
6.223644129931926727e-03
-3.676699995994567871e-01
5.758044719696044922e-01
-2.314335107803344727e-01
4.519916176795959473e-01
1.959195137023925781e-01
2.900078594684600830e-01
4.037438929080963135e-01
-1.167417876422405243e-02
4.158876240253448486e-01
1.750686019659042358e-02
3.784279525279998779e-01
-3.548236787319183350e-01
5.415436625480651855e-01
-7.315714657306671143e-02
4.705402553081512451e-01
1.063315197825431824e-01
1.855104267597198486e-01
1.586768180131912231e-01
-8.031700551509857178e-02
3.176807165145874023e-01
1.107139661908149719e-01
-2.234196811914443970e-01
-3.184631168842315674e-01
-6.365272402763366699e-02
3.212918043136596680e-01
1.526021212339401245e-01
-1.605702638626098633e-01
-3.558130562305450439e-01
7.218877226114273071e-02
1.123440861701965332e-01
1.966122686862945557e-01
-3.003617227077484131e-01
-1.643826961517333984e-01
5.500560402870178223e-01
5.512016415596008301e-01
6.675627827644348145e-02
5.192676186561584473e-01
-2.434372752904891968e-01
1.724184677004814148e-02
4.161403179168701172e-01
-3.149317204952239990e-01
3.887559473514556885e-01
8.941373974084854126e-02
1.610411703586578369e-01
5.796325206756591797e-02
3.158207535743713379e-01
-2.507548034191131592e-01
-1.663044542074203491e-01
-4.227488636970520020e-01
4.798887372016906738e-01
3.687833994626998901e-02
5.723871290683746338e-02
3.472294211387634277e-01
-1.825394779443740845e-01
2.026649713516235352e-01
-1.368038207292556763e-01
-1.960647404193878174e-01
4.565576910972595215e-01
1.953926831483840942e-01
-2.268589586019515991e-01
-4.149915277957916260e-01
1.887623816728591919e-01
3.024908304214477539e-01
-1.656340360641479492e-01
3.037164211273193359e-01
4.043194949626922607e-01
-6.993429362773895264e-02
1.545010805130004883e-01
-3.413106501102447510e-01
-3.362947702407836914e-01
-1.581512391567230225e-01
-3.379793465137481689e-02
-3.826826214790344238e-01
3.734034299850463867e-01
3.855225443840026855e-01
2.887010276317596436e-01
-5.576451122760772705e-02
-8.069577813148498535e-02
-6.607891619205474854e-02
4.951794147491455078e-01
1.607954353094100952e-01
-2.653892040252685547e-01
1.514837443828582764e-01
-3.775326311588287354e-01
2.449761480093002319e-01
3.896831301972270012e-03
4.372531175613403320e-01
2.911949753761291504e-01
2.545530498027801514e-01
-3.574146330356597900e-01
-1.531284451484680176e-01
-4.087466895580291748e-01
1.081833317875862122e-01
3.341538310050964355e-01
2.089620828628540039e-01
-1.499590277671813965e-01
2.838434278964996338e-01
3.412399291992187500e-01
-1.279260516166687012e-01
-1.195004209876060486e-01
4.489853680133819580e-01
-3.332972526550292969e-01
3.201549351215362549e-01
3.607717454433441162e-01
-2.948800921440124512e-01
-3.427918255329132080e-01
2.486818730831146240e-01
3.727198541164398193e-01
1.412675231695175171e-01
-2.335693389177322388e-01
-2.608562707901000977e-01
5.044688582420349121e-01
5.482789874076843262e-01
2.544085979461669922e-01
-2.087036222219467163e-01
5.003906488418579102e-01
3.631886541843414307e-01
-2.024127691984176636e-01
3.082577884197235107e-01
-3.459695279598236084e-01
9.310466796159744263e-02
4.359696805477142334e-01
-2.560622394084930420e-01
-1.396686285734176636e-01
-1.488910168409347534e-01
2.783410847187042236e-01
-1.002214476466178894e-01
-1.732799112796783447e-01
-3.776659965515136719e-01
-1.023072749376296997e-01
-4.256702363491058350e-01
-2.129808068275451660e-01
2.595538794994354248e-01
2.423418685793876648e-02
-7.227264344692230225e-02
-3.254796862602233887e-01
3.509770035743713379e-01
2.829095423221588135e-01
3.832805156707763672e-01
-4.122205078601837158e-02
-2.749419212341308594e-01
1.923709660768508911e-01
5.464285016059875488e-01
1.874410659074783325e-01
-1.174771413207054138e-01
7.738719135522842407e-02
-3.013581037521362305e-01
6.065018475055694580e-02
-2.196426689624786377e-01
-2.598749101161956787e-01
-8.592490851879119873e-02
1.454963982105255127e-01
