3.573986142873764038e-02
-3.781317966058850288e-03
-3.772737085819244385e-02
-6.648559868335723877e-02
-3.584061935544013977e-02
6.308458000421524048e-02
-2.524538710713386536e-02
2.242812700569629669e-02
-1.848983950912952423e-02
4.728562012314796448e-02
-5.562826991081237793e-02
4.535525571554899216e-03
5.297479405999183655e-02
-8.970699855126440525e-04
3.085601516067981720e-02
6.370305269956588745e-02
1.096473261713981628e-01
1.078733615577220917e-02
-7.369002327322959900e-03
6.554320454597473145e-02
5.449757725000381470e-02
5.802933126688003540e-02
1.849559135735034943e-02
9.946965426206588745e-02
-1.451080478727817535e-02
-5.511188879609107971e-02
1.153025552630424500e-01
-5.628968030214309692e-02
-3.780218958854675293e-02
5.931376293301582336e-02
1.648094691336154938e-02
-1.505322288721799850e-03
9.145001322031021118e-02
3.339300304651260376e-02
-4.785070195794105530e-02
2.859609946608543396e-02
1.753516308963298798e-02
-2.754044719040393829e-03
3.302719816565513611e-02
1.023768037557601929e-01
1.930237188935279846e-02
-2.308776229619979858e-02
6.058797985315322876e-02
-8.138322085142135620e-02
1.048094481229782104e-01
-2.000284194946289062e-02
6.156917661428451538e-02
4.377555847167968750e-02
-6.076133809983730316e-03
3.164812922477722168e-02
-5.141833424568176270e-02
-7.001850008964538574e-02
3.162476792931556702e-02
1.255193632096052170e-02
2.547211572527885437e-02
1.504604332149028778e-02
4.062705114483833313e-02
-3.367090597748756409e-02
-3.554993867874145508e-02
-9.059017151594161987e-02
3.469141945242881775e-02
-6.083859875798225403e-02
-6.747931241989135742e-02
-2.349999547004699707e-02
