-8.427599072456359863e-02 1.054323092103004456e-01 -7.391177117824554443e-02 8.556003868579864502e-02 -4.171939194202423096e-02 -1.076043248176574707e-01 6.156082451343536377e-02 -2.813330478966236115e-02 6.212072446942329407e-02 7.846520841121673584e-02 -6.406226754188537598e-02 -1.081276983022689819e-01 5.329713225364685059e-02 9.375672042369842529e-02 -7.361470907926559448e-02 1.258950978517532349e-01 -1.303079072386026382e-02 -1.105721592903137207e-01 -5.452299863100051880e-02 1.082716584205627441e-01 -4.852267727255821228e-02 -1.746101677417755127e-02 1.417511235922574997e-02 -1.048121601343154907e-02 -1.198010519146919250e-01 7.081375271081924438e-02 1.435105204582214355e-01 1.041332036256790161e-01 -5.497503280639648438e-02 -8.079889416694641113e-02 7.069574296474456787e-02 -4.295423999428749084e-02 -1.325652599334716797e-01 -1.034524589776992798e-01 -4.761749133467674255e-02 -3.510906174778938293e-02 -9.435442090034484863e-02 -9.985643625259399414e-02 -2.139702672138810158e-03 7.255586981773376465e-02 -5.563594028353691101e-02 6.226291507482528687e-02 2.072228491306304932e-02 -5.342498794198036194e-02 1.025220900774002075e-01 2.684464491903781891e-02 6.082520633935928345e-02 -8.502583205699920654e-02 7.623667269945144653e-02 7.534853368997573853e-02 1.040574461221694946e-01 2.052162587642669678e-02 1.259937137365341187e-01 3.552303835749626160e-02 -4.435839131474494934e-02 -2.702333964407444000e-02 1.828188449144363403e-02 5.206513032317161560e-02 -8.952634409070014954e-03 -5.461549386382102966e-03 -7.555159181356430054e-02 1.211230978369712830e-01 -7.058350834995508194e-03 1.146999448537826538e-01 5.087218061089515686e-02 -7.645777426660060883e-03 1.094577461481094360e-01 -3.681477159261703491e-02 7.943768054246902466e-03 8.735428564250469208e-03 -6.665192544460296631e-02 2.174443099647760391e-03 2.409744635224342346e-02 1.172299534082412720e-01 -4.966085311025381088e-03 9.972698241472244263e-02 -9.320192039012908936e-02 -1.018268242478370667e-01 -3.214383497834205627e-02 8.336043357849121094e-02 -8.288908004760742188e-02 -2.727748081088066101e-02 5.003673583269119263e-02 6.542222201824188232e-02 2.402856759727001190e-02 -1.216540560126304626e-01 2.333045937120914459e-02 -3.069481439888477325e-02 -3.996961191296577454e-02 -1.913693919777870178e-02 1.396231800317764282e-01 3.687021881341934204e-02 8.728498965501785278e-02 1.253348290920257568e-01 1.240972653031349182e-01 4.492517188191413879e-02 -8.840324357151985168e-03 -9.710764884948730469e-02 1.416187882423400879e-01 2.846344932913780212e-02 -2.200161665678024292e-02 -2.325808070600032806e-02 -7.014434784650802612e-02 6.820199638605117798e-02 -8.778470754623413086e-02 -6.793827563524246216e-02 -1.319992914795875549e-02 5.971702933311462402e-02 -3.435924276709556580e-02 -1.369568407535552979e-01 1.457753311842679977e-02 7.908654958009719849e-02 7.012423127889633179e-02 4.918861761689186096e-02 9.073146432638168335e-02 -6.457287818193435669e-02 -6.043943017721176147e-02 -2.863670699298381805e-02 -4.360283538699150085e-02 9.348151832818984985e-02 1.274559944868087769e-01 -4.092667996883392334e-02 -9.437780827283859253e-02 -1.182038895785808563e-02 -3.096172213554382324e-02 1.270574033260345459e-01 -6.246794015169143677e-02 4.102485999464988708e-02
-9.529813379049301147e-02 -1.944008865393698215e-03 -5.790180712938308716e-02 -6.841533631086349487e-02 1.466958969831466675e-01 -3.743712976574897766e-02 -3.707484528422355652e-02 -1.343485782854259014e-03 -6.633289903402328491e-02 -3.364526107907295227e-02 1.846523955464363098e-02 -7.816798053681850433e-03 -6.203586235642433167e-02 -1.805351488292217255e-02 1.654137484729290009e-02 8.952434360980987549e-02 6.121867895126342773e-02 1.202095579355955124e-02 -7.198312133550643921e-02 -5.399658530950546265e-02 -6.096922233700752258e-02 -1.174145862460136414e-01 6.344057619571685791e-02 -2.355289272964000702e-02 5.562793463468551636e-02 5.031847581267356873e-02 -5.426237359642982483e-02 -5.792067572474479675e-02 2.768406458199024200e-02 2.940857782959938049e-02 -9.554290026426315308e-02 -3.282029181718826294e-02 -2.290470339357852936e-02 2.714693732559680939e-02 -1.420867592096328735e-01 -5.072409287095069885e-02 -4.899956285953521729e-02 -5.473745614290237427e-02 9.988032281398773193e-03 1.447093784809112549e-01 -2.573465369641780853e-02 3.904006257653236389e-02 -3.404843434691429138e-02 -5.156117305159568787e-02 -4.874284937977790833e-02 -6.872030347585678101e-02 9.741751849651336670e-02 -3.184308111667633057e-02 -6.608849763870239258e-02 -1.112972851842641830e-02 -4.977076128125190735e-02 7.211724668741226196e-02 1.364095211029052734e-01 -5.012999847531318665e-02 -3.994823247194290161e-02 -4.893516376614570618e-02 -6.121923401951789856e-02 -1.194786280393600464e-01 -1.041206046938896179e-01 -1.088673062622547150e-02 -3.306573722511529922e-03 -7.098539918661117554e-02 -5.192190036177635193e-02 6.489499658346176147e-02 3.848542645573616028e-02 4.826169088482856750e-02 -3.261288627982139587e-02 1.409080065786838531e-02 -1.257323194295167923e-02 -5.759314075112342834e-02 -5.062416568398475647e-02 3.963899984955787659e-02 -3.581667691469192505e-02 -1.442288011312484741e-01 -2.022083662450313568e-02 4.685347154736518860e-02 -8.104149997234344482e-02 -4.393529519438743591e-02 -3.452573344111442566e-02 -1.142666935920715332e-01 4.570420458912849426e-02 -3.591647744178771973e-02 1.840444095432758331e-02 -8.662056177854537964e-03 -8.685603737831115723e-02 -1.085216477513313293e-01 3.572291135787963867e-02 1.220029443502426147e-01 -1.314898282289505005e-01 1.915342919528484344e-02 -5.730368569493293762e-02 5.957777425646781921e-02 -1.677933335304260254e-02 2.285666018724441528e-02 1.167879402637481689e-01 7.973900437355041504e-02 -8.837400376796722412e-02 3.150253370404243469e-02 -1.069074124097824097e-01 4.023432359099388123e-02 3.566239401698112488e-02 4.220462217926979065e-02 7.152539491653442383e-02 7.706098258495330811e-02 -7.430207333527505398e-04 7.930329442024230957e-02 9.798011928796768188e-02 9.568238258361816406e-02 4.195605218410491943e-02 -2.829071879386901855e-02 5.677794292569160461e-02 6.318054161965847015e-03 4.825852345675230026e-03 -1.027903854846954346e-01 -6.088947411626577377e-03 1.122125983238220215e-01 1.527372980490326881e-03 -1.047366708517074585e-01 -1.222604960203170776e-01 2.713158167898654938e-02 4.952330142259597778e-02 -4.741639364510774612e-03 -8.555949479341506958e-02 -9.135229140520095825e-02 3.393233567476272583e-02 -3.446647524833679199e-02 -2.958797663450241089e-02 -4.144037514925003052e-02
-2.909960411489009857e-02 -8.114650100469589233e-02 -2.733704447746276855e-02 3.479421883821487427e-02 7.424846291542053223e-02 6.463278084993362427e-02 -7.112401723861694336e-02 6.023073941469192505e-02 -3.273618966341018677e-02 5.085748434066772461e-02 -1.856062561273574829e-02 1.742662489414215088e-02 -3.542095795273780823e-02 3.409091010689735413e-02 1.191484928131103516e-01 6.805950403213500977e-02 5.716511607170104980e-02 5.058095976710319519e-02 -6.993290036916732788e-02 -5.387661978602409363e-02 -5.200854316353797913e-02 -3.951112926006317139e-02 -6.753572821617126465e-02 -6.572595983743667603e-02 2.232058206573128700e-03 -1.186357345432043076e-02 -6.133352965116500854e-02 9.046591818332672119e-02 -9.017141163349151611e-02 -8.768752962350845337e-02 -7.393198460340499878e-02 -3.351490944623947144e-02 -3.835056850221008062e-04 -8.381702005863189697e-02 -2.771771885454654694e-02 -1.149276271462440491e-01 4.181577265262603760e-02 2.728308551013469696e-02 6.028839200735092163e-02 1.112441867589950562e-01 2.276064641773700714e-02 1.838295906782150269e-02 -3.472013771533966064e-02 -9.320471435785293579e-03 -3.528298810124397278e-02 -2.128829993307590485e-02 5.965142045170068741e-03 -7.945260405540466309e-02 2.586024068295955658e-02 -6.475248932838439941e-02 -3.341683000326156616e-02 5.742236226797103882e-02 1.415679156780242920e-01 5.729133263230323792e-02 -6.468341220170259476e-03 -3.682562336325645447e-02 -9.529729932546615601e-02 -1.496865972876548767e-02 -1.738245598971843719e-02 -5.454647168517112732e-02 7.949708402156829834e-02 -7.136274874210357666e-02 -8.619707822799682617e-02 8.235509693622589111e-02 -1.000207755714654922e-02 7.154069095849990845e-02 4.763692617416381836e-02 1.151024326682090759e-01 6.080008298158645630e-02 5.489772558212280273e-02 1.334539651870727539e-01 -1.783249340951442719e-02 -2.318323217332363129e-02 -7.094696164131164551e-02 -8.847903460264205933e-02 3.087868914008140564e-03 -2.207706868648529053e-02 -2.164237387478351593e-02 -5.908812582492828369e-02 3.225858090445399284e-03 9.620907157659530640e-02 -2.248378656804561615e-02 3.107549063861370087e-02 -3.710853308439254761e-02 7.967117428779602051e-02 8.218831382691860199e-03 -4.394460842013359070e-02 8.547329902648925781e-02 1.172350253909826279e-02 7.679966092109680176e-02 -5.138549208641052246e-02 1.338518112897872925e-01 -2.395047619938850403e-02 9.032969176769256592e-02 7.150126993656158447e-02 -2.286549098789691925e-02 4.766496270895004272e-02 2.695586718618869781e-02 -1.362360082566738129e-02 6.231421604752540588e-02 -5.090589821338653564e-02 5.093500390648841858e-02 2.035210281610488892e-02 -2.667856216430664062e-02 1.021357998251914978e-01 3.444673726335167885e-03 1.604691962711513042e-03 1.382926255464553833e-01 6.629120558500289917e-02 -8.097298443317413330e-02 4.354232549667358398e-02 3.262842819094657898e-02 2.823297679424285889e-02 9.442675113677978516e-02 4.914556816220283508e-02 4.369148239493370056e-02 -3.775556012988090515e-02 -4.839256778359413147e-02 -3.417485579848289490e-02 -5.171928182244300842e-02 7.416053861379623413e-02 8.518590033054351807e-02 8.378602564334869385e-03 -9.823291748762130737e-02 1.814244315028190613e-02 1.054421886801719666e-01 -2.855545841157436371e-02 -5.050294473767280579e-02
-1.287504751235246658e-02 -7.689061760902404785e-02 4.813082516193389893e-02 -4.545751586556434631e-02 -5.348186474293470383e-03 -1.109875217080116272e-01 -6.826175004243850708e-02 -1.691715866327285767e-01 3.895489126443862915e-02 -1.261033713817596436e-01 1.799266226589679718e-02 1.576126813888549805e-01 -3.927703574299812317e-02 -6.225187797099351883e-03 3.004899062216281891e-02 -2.711245417594909668e-02 -7.049804180860519409e-02 1.319789588451385498e-01 -1.899863220751285553e-02 1.552565582096576691e-02 -7.983305305242538452e-02 -6.680651754140853882e-02 4.826039448380470276e-02 -6.684901565313339233e-02 -8.858166635036468506e-02 -2.083390019834041595e-02 -4.501043260097503662e-02 6.671107560396194458e-02 -6.403210759162902832e-02 -3.095126524567604065e-02 9.707493335008621216e-02 1.215736195445060730e-01 7.680276781320571899e-02 -1.784903928637504578e-02 -5.659554153680801392e-03 -7.699575275182723999e-02 1.333815157413482666e-01 1.038745939731597900e-01 1.366771291941404343e-02 -9.206943958997726440e-02 -6.329350918531417847e-02 -2.058284543454647064e-02 1.233338043093681335e-01 1.018476765602827072e-02 -1.252276152372360229e-01 3.591883927583694458e-02 -1.459106653928756714e-01 2.654224075376987457e-02 4.907457903027534485e-02 6.125942245125770569e-02 -6.844876706600189209e-02 2.364401705563068390e-02 4.892606288194656372e-03 5.738069862127304077e-02 -6.568084657192230225e-02 1.237104162573814392e-01 1.612178049981594086e-02 -6.727316882461309433e-03 -3.597036004066467285e-03 5.260211974382400513e-02 -4.475934430956840515e-02 -4.294103011488914490e-02 -7.158266007900238037e-02 -3.244087100028991699e-02 -1.218274608254432678e-02 -2.505622990429401398e-02 2.034542150795459747e-02 8.188714832067489624e-02 -3.673305362462997437e-02 -1.955197192728519440e-02 -1.390545666217803955e-01 1.640651673078536987e-01 -1.047499626874923706e-01 -1.273748576641082764e-01 -3.606577217578887939e-02 -8.780337870121002197e-02 1.070403233170509338e-01 1.415797472000122070e-01 -1.412076689302921295e-02 7.997853308916091919e-02 5.663505196571350098e-02 8.403636515140533447e-02 5.528954416513442993e-02 -1.037924736738204956e-01 -2.273958362638950348e-02 1.040949225425720215e-01 3.779758140444755554e-02 4.229602217674255371e-02 5.805128067731857300e-02 -1.343115717172622681e-01 -3.914748877286911011e-02 8.552609384059906006e-02 -3.316817805171012878e-03 -1.640197485685348511e-01 -5.087157711386680603e-02 -7.665571570396423340e-02 7.405883818864822388e-02 1.505818516016006470e-01 -1.136724874377250671e-01 -3.444346040487289429e-02 -1.587527692317962646e-01 7.988545298576354980e-02 1.034525930881500244e-01 -1.385651975870132446e-01 1.408056262880563736e-02 -4.188557341694831848e-02 -1.223158612847328186e-01 6.441851705312728882e-02 -1.101196631789207458e-01 1.195369381457567215e-02 7.183394581079483032e-02 -1.048733144998550415e-01 -5.163478106260299683e-02 -1.047475561499595642e-01 -4.856156557798385620e-02 -2.856918051838874817e-02 -2.162360399961471558e-02 -6.090390309691429138e-02 1.278068684041500092e-02 -8.322270959615707397e-02 -8.163003076333552599e-05 -9.615560621023178101e-02 9.668585844337940216e-03 -9.765493124723434448e-02 -5.046623945236206055e-02 -7.243391126394271851e-02 -5.651813931763172150e-03 -6.156284362077713013e-02
9.443482011556625366e-02 6.861282140016555786e-02 -3.185376152396202087e-02 8.962841704487800598e-03 -6.923094391822814941e-02 1.100866049528121948e-01 -2.376807294785976410e-02 1.197588816285133362e-01 -4.407878220081329346e-02 6.368678808212280273e-02 1.188897192478179932e-01 -7.678877562284469604e-02 -2.537454105913639069e-02 -6.021102145314216614e-02 -2.143812924623489380e-02 -1.006300374865531921e-01 1.018128842115402222e-01 8.133265376091003418e-02 4.913555458188056946e-02 3.175908699631690979e-02 -5.481189116835594177e-02 -4.305833950638771057e-02 3.486350551247596741e-02 -7.883814163506031036e-03 1.083559840917587280e-01 1.202416643500328064e-01 5.343276262283325195e-02 7.325925678014755249e-02 4.817740991711616516e-02 -2.688577584922313690e-02 -9.928609430789947510e-02 -3.420629771426320076e-03 2.436273545026779175e-02 8.538548648357391357e-02 -2.917724847793579102e-02 -2.549096941947937012e-02 5.363561958074569702e-02 1.859137788414955139e-02 -8.508109301328659058e-02 1.842336542904376984e-02 2.057235315442085266e-02 1.878283731639385223e-02 3.820076584815979004e-03 6.816382054239511490e-03 1.181026548147201538e-01 3.516064956784248352e-02 1.582038998603820801e-01 6.332650035619735718e-02 2.356581948697566986e-02 -7.773804664611816406e-02 2.962249517440795898e-02 5.262472108006477356e-02 2.891951426863670349e-02 -4.596869274973869324e-02 2.386340126395225525e-02 7.240311801433563232e-02 -7.763323187828063965e-02 5.345377698540687561e-02 -1.323209609836339951e-02 1.912006922066211700e-02 6.241596303880214691e-03 -4.976045340299606323e-02 -6.768437474966049194e-02 -2.782516740262508392e-02 -4.943772032856941223e-02 9.585513174533843994e-02 -1.277258247137069702e-01 -2.810661867260932922e-02 -1.215127576142549515e-02 3.527421876788139343e-02 3.130232915282249451e-02 -9.731902182102203369e-02 4.932564496994018555e-02 -2.920241840183734894e-02 1.196700707077980042e-01 -1.059630662202835083e-01 3.219147026538848877e-02 -4.466200992465019226e-02 1.213875785470008850e-02 4.937190562486648560e-02 -3.223863244056701660e-02 1.241881772875785828e-01 3.825875744223594666e-02 1.259966641664505005e-01 7.988908141851425171e-02 1.112854704260826111e-01 1.353355497121810913e-01 -5.250202864408493042e-02 -5.683208629488945007e-02 7.963337749242782593e-02 -6.102654337882995605e-02 -8.325650542974472046e-02 1.036770991049706936e-03 4.916691780090332031e-02 6.021687015891075134e-02 1.145472843199968338e-02 -3.233947232365608215e-02 -1.651713042519986629e-03 5.848590284585952759e-02 6.315261125564575195e-02 1.331450343132019043e-01 -3.706476464867591858e-02 -1.823460496962070465e-02 7.032440602779388428e-02 -3.033776953816413879e-02 -3.837142512202262878e-02 8.056668192148208618e-02 5.450408533215522766e-02 9.354968369007110596e-02 6.378228962421417236e-02 -1.007112115621566772e-01 4.672680515795946121e-03 5.216434597969055176e-02 2.194828353822231293e-03 1.468595117330551147e-01 1.147876828908920288e-01 -8.106841146945953369e-02 4.644477739930152893e-02 5.502733960747718811e-02 -5.566963553428649902e-02 3.479303792119026184e-02 1.276597231626510620e-01 -9.233582764863967896e-03 8.561132103204727173e-02 1.127012446522712708e-01 1.263113170862197876e-01 -1.103195026516914368e-01 1.087637711316347122e-02
6.672188639640808105e-02 -7.226400077342987061e-02 -3.598992526531219482e-02 4.803384467959403992e-02 3.371951729059219360e-02 1.402393355965614319e-02 3.942432999610900879e-02 7.065213471651077271e-02 4.719745367765426636e-02 -6.651856005191802979e-02 -2.860471978783607483e-02 1.094697117805480957e-01 1.576572470366954803e-02 -6.505419313907623291e-02 1.264188140630722046e-01 7.725591212511062622e-02 -8.107219636440277100e-02 1.285010874271392822e-01 4.954890906810760498e-02 -3.982619568705558777e-02 -2.269851788878440857e-02 -2.306463383138179779e-02 5.182719975709915161e-02 8.524990081787109375e-02 -8.438429981470108032e-02 -3.080654144287109375e-02 -7.682967185974121094e-02 2.168152853846549988e-02 -5.528026819229125977e-02 8.085910975933074951e-02 1.154234036803245544e-01 -1.104590669274330139e-01 -2.057871595025062561e-02 6.026646494865417480e-02 8.462955057621002197e-02 -1.802468672394752502e-02 9.048789739608764648e-02 1.224508360028266907e-01 4.533983394503593445e-02 1.276438981294631958e-01 -8.909099549055099487e-02 4.762535542249679565e-02 -1.852342113852500916e-02 1.023623943328857422e-01 -3.795305639505386353e-02 -3.024230897426605225e-02 8.837520726956427097e-04 7.173755019903182983e-02 6.963928788900375366e-02 -5.270630866289138794e-02 6.725098937749862671e-02 4.925503954291343689e-02 -5.848390981554985046e-02 4.461909085512161255e-02 -6.269481033086776733e-02 -7.731235772371292114e-02 4.868681076914072037e-03 -1.176296621561050415e-01 2.660663612186908722e-02 -4.188149422407150269e-02 8.473394066095352173e-02 -1.457226369529962540e-02 -6.757849454879760742e-02 -4.257646203041076660e-02 -2.276601456105709076e-02 1.354264616966247559e-01 9.860092401504516602e-02 7.733082771301269531e-02 -3.730660770088434219e-03 -4.297928512096405029e-02 -2.083143964409828186e-02 6.792035698890686035e-02 -1.416265964508056641e-02 -9.770942479372024536e-02 -1.737051084637641907e-02 2.415417321026325226e-02 -3.316417336463928223e-02 1.560582499951124191e-02 -4.404168203473091125e-02 1.088275909423828125e-01 1.255111992359161377e-01 9.620828204788267612e-04 5.461691180244088173e-04 8.203311264514923096e-02 1.069950032979249954e-02 -3.469623252749443054e-02 5.477272719144821167e-02 9.734204411506652832e-02 1.843463745899498463e-03 -2.068653702735900879e-02 -3.910531848669052124e-02 5.014433059841394424e-03 8.596990257501602173e-02 4.783043265342712402e-02 5.725555121898651123e-02 -5.688016861677169800e-02 -2.472868189215660095e-02 6.604578346014022827e-02 4.755941778421401978e-02 -2.464078180491924286e-02 -1.858515478670597076e-02 8.306098170578479767e-03 1.418522000312805176e-01 5.002142116427421570e-02 -4.379439167678356171e-03 9.300209581851959229e-02 4.544890299439430237e-02 9.758134186267852783e-02 1.222918182611465454e-01 -5.403388291597366333e-02 9.448825567960739136e-02 1.885876059532165527e-02 -1.287555694580078125e-01 -6.464422494173049927e-02 -6.090367212891578674e-02 9.084963798522949219e-02 1.484981179237365723e-02 3.669520840048789978e-02 7.972259074449539185e-02 6.493779271841049194e-02 7.919353246688842773e-02 3.846165537834167480e-02 -1.607559993863105774e-02 3.211317956447601318e-02 1.774495840072631836e-02 -7.552539557218551636e-02 -6.561954971402883530e-03 -2.546507865190505981e-02
5.811496824026107788e-02 -6.211183220148086548e-02 -8.141612261533737183e-02 -4.649580270051956177e-02 8.241099119186401367e-02 6.870546191930770874e-02 3.137682005763053894e-02 -5.265027657151222229e-02 -7.430230826139450073e-02 -4.855242557823657990e-03 3.238657861948013306e-02 -9.943601489067077637e-02 1.392205245792865753e-03 6.034580618143081665e-02 -5.627717077732086182e-02 -2.821165253408253193e-04 1.002705022692680359e-01 -5.174367129802703857e-02 -8.363433182239532471e-02 -1.584722544066607952e-03 -1.116305589675903320e-02 1.157449558377265930e-01 -6.137154251337051392e-02 -3.182232752442359924e-02 3.802260383963584900e-02 9.756552986800670624e-03 -1.076694056391716003e-01 -2.766414545476436615e-02 7.257127761840820312e-02 5.943958833813667297e-02 -3.002259694039821625e-02 3.861134126782417297e-02 1.463197171688079834e-01 7.628767192363739014e-02 -1.453563570976257324e-01 -1.113005429506301880e-01 -1.876096241176128387e-02 2.112391218543052673e-02 -1.427154242992401123e-02 2.999552711844444275e-02 -7.833105325698852539e-02 1.336134076118469238e-01 -7.306985557079315186e-02 5.339731276035308838e-02 1.284576952457427979e-01 4.795944318175315857e-02 -8.662545680999755859e-02 8.655831962823867798e-02 -2.931371703743934631e-02 2.357280626893043518e-02 -1.955878362059593201e-02 1.364151835441589355e-01 -5.385400354862213135e-02 3.509165346622467041e-02 5.919569730758666992e-02 1.384007632732391357e-01 1.786913909018039703e-02 -1.031358316540718079e-01 7.876142859458923340e-02 -1.947196014225482941e-02 2.881409600377082825e-02 -4.132625833153724670e-02 -7.918299175798892975e-03 -1.137963086366653442e-01 -6.260669231414794922e-02 3.196364641189575195e-02 1.225699782371520996e-01 -8.434711396694183350e-02 1.462856829166412354e-01 -6.865265220403671265e-02 1.800493709743022919e-02 -1.628719717264175415e-01 -3.451918810606002808e-02 5.108189210295677185e-02 -3.540811687707901001e-02 -8.838164806365966797e-02 -2.584972605109214783e-02 7.727788388729095459e-02 -2.627048268914222717e-02 7.325119338929653168e-03 1.073087379336357117e-01 -5.553385242819786072e-02 1.233630478382110596e-01 3.864036127924919128e-02 5.639670044183731079e-02 3.525422140955924988e-02 -1.112576648592948914e-01 8.068817108869552612e-02 -4.094010591506958008e-02 9.137409180402755737e-02 -5.496239289641380310e-02 1.259184181690216064e-01 -2.321181073784828186e-02 -3.937482833862304688e-03 6.655849516391754150e-02 -1.067757532000541687e-01 -8.307373523712158203e-02 8.350178599357604980e-02 -2.976607903838157654e-02 -3.987817838788032532e-02 -4.405830428004264832e-02 2.129025943577289581e-02 6.701770424842834473e-02 -1.846275851130485535e-02 3.273436054587364197e-02 -4.673765972256660461e-02 1.016009077429771423e-01 1.139373853802680969e-01 2.469077147543430328e-02 -3.087362647056579590e-02 6.627836846746504307e-04 7.630360126495361328e-02 1.066569536924362183e-01 -5.409782752394676208e-03 8.992627263069152832e-02 4.377959668636322021e-02 8.747478574514389038e-02 -5.937276035547256470e-02 4.213588312268257141e-02 -4.604781419038772583e-02 7.936377823352813721e-02 1.550631225109100342e-02 -7.495442777872085571e-02 -6.348365545272827148e-02 -9.622104116715490818e-04 -3.439122065901756287e-02 -3.363543003797531128e-02 -1.122869253158569336e-01
1.180196478962898254e-01 2.271845936775207520e-02 -8.889859542250633240e-03 -1.048740930855274200e-03 -4.642583802342414856e-02 1.287538558244705200e-01 3.331148996949195862e-02 6.666886061429977417e-02 -4.990820586681365967e-02 -7.819072902202606201e-02 3.921726346015930176e-02 -3.531483933329582214e-02 2.390992827713489532e-02 1.165148057043552399e-02 -2.937261946499347687e-02 -3.809952363371849060e-02 5.552536621689796448e-02 1.445609237998723984e-02 -3.368061408400535583e-02 2.675359696149826050e-02 6.189514696598052979e-02 4.248766601085662842e-02 2.337330393493175507e-02 1.423108130693435669e-01 1.255493462085723877e-01 1.121631413698196411e-01 9.334081783890724182e-03 7.785332947969436646e-02 1.289718300104141235e-01 2.092691883444786072e-02 8.067350089550018311e-02 9.480895102024078369e-02 1.144056557677686214e-03 1.294083744287490845e-01 -8.855774998664855957e-02 -3.508201986551284790e-02 1.067674979567527771e-01 -2.110722847282886505e-02 -3.034566901624202728e-02 8.880820870399475098e-02 -7.559521589428186417e-03 7.584068924188613892e-02 8.299608528614044189e-02 6.905704736709594727e-02 1.022976115345954895e-01 2.354092150926589966e-02 1.157096475362777710e-01 -7.071416079998016357e-02 4.416145011782646179e-02 -1.476203906349837780e-03 6.985293328762054443e-02 1.040915250778198242e-01 2.937101013958454132e-02 -1.359760947525501251e-02 -2.893976494669914246e-02 -5.560500547289848328e-03 1.865106821060180664e-02 -1.156069412827491760e-01 -2.234080806374549866e-02 -2.165695279836654663e-02 5.477898940443992615e-02 1.227281242609024048e-01 5.035597831010818481e-02 -7.906164973974227905e-02 -1.105319708585739136e-01 -1.201631352305412292e-01 -5.684884637594223022e-02 -8.125637471675872803e-02 -2.360575459897518158e-02 -9.327271580696105957e-02 1.051101908087730408e-01 -1.054906100034713745e-01 -6.837251037359237671e-02 6.510348059237003326e-03 -5.466029420495033264e-02 -1.246038004755973816e-01 1.169713437557220459e-01 3.963820636272430420e-02 -1.121637746691703796e-01 5.671892315149307251e-02 -4.192956537008285522e-02 1.338333263993263245e-02 -5.488348752260208130e-02 6.880366057157516479e-02 3.274622932076454163e-02 4.966747388243675232e-02 1.836159080266952515e-02 -4.299377650022506714e-02 -1.845989562571048737e-02 1.317367553710937500e-01 -7.280970364809036255e-02 -3.841947764158248901e-02 5.946228653192520142e-02 5.984843149781227112e-02 -3.315912187099456787e-02 -2.979173138737678528e-02 1.092894971370697021e-01 -2.419028431177139282e-02 1.288854181766510010e-01 -1.075631827116012573e-01 7.119470089673995972e-02 6.954220682382583618e-02 -1.262422930449247360e-02 1.207041516900062561e-01 -4.558140411972999573e-03 -5.858830735087394714e-02 6.820623576641082764e-02 -3.456779196858406067e-02 -4.923742637038230896e-02 9.568209201097488403e-02 -1.005525961518287659e-01 1.083240434527397156e-01 3.086308203637599945e-02 3.200494498014450073e-02 6.645829230546951294e-02 4.759636241942644119e-03 -1.104161590337753296e-01 8.163706213235855103e-02 -3.068703226745128632e-02 2.902249246835708618e-02 6.988610327243804932e-02 1.570388078689575195e-01 -3.781640157103538513e-02 1.078127883374691010e-02 5.922540649771690369e-02 1.010690554976463318e-01 -9.093250334262847900e-02 3.872928768396377563e-02
-5.951086059212684631e-02 -5.072523280978202820e-02 4.747659713029861450e-02 6.846706569194793701e-02 4.077037423849105835e-02 -1.097984760999679565e-01 -7.475515455007553101e-02 6.659750360995531082e-03 -9.459048509597778320e-02 1.397197693586349487e-02 -9.230218827724456787e-03 5.497365444898605347e-02 3.476782888174057007e-02 -6.062186509370803833e-02 -3.979523852467536926e-02 1.773108914494514465e-02 1.072331368923187256e-01 5.956942215561866760e-02 5.698656663298606873e-02 6.839158385992050171e-02 2.209808491170406342e-02 2.528446167707443237e-02 5.099809542298316956e-02 6.353164464235305786e-02 -6.299663335084915161e-02 -6.682475656270980835e-02 2.618697658181190491e-02 -1.183860842138528824e-02 7.357521355152130127e-02 3.765520080924034119e-02 -8.815254271030426025e-02 1.387315690517425537e-01 -2.306451089680194855e-02 4.955976735800504684e-03 1.365351676940917969e-01 9.266915917396545410e-02 1.082375459372997284e-02 -2.736975625157356262e-02 5.477904900908470154e-02 -6.732233613729476929e-02 -3.692882508039474487e-02 -1.010316163301467896e-01 -3.316800668835639954e-02 4.643771052360534668e-02 4.573321714997291565e-02 4.911887273192405701e-02 -8.142732083797454834e-02 5.886415392160415649e-02 9.762042202055454254e-03 -3.653686121106147766e-02 5.017190426588058472e-02 2.940243855118751526e-02 -8.706760406494140625e-02 -7.306773681193590164e-03 -7.942093908786773682e-02 1.575715257786214352e-03 -7.111021783202886581e-03 8.252032101154327393e-02 2.532077208161354065e-02 6.929643452167510986e-02 1.109725330024957657e-02 9.077081829309463501e-02 1.908868923783302307e-02 5.802740156650543213e-02 1.455876138061285019e-02 1.128140185028314590e-02 1.096152961254119873e-01 -2.177965827286243439e-02 1.405661366879940033e-02 6.357113271951675415e-02 -9.054590016603469849e-02 -2.700712531805038452e-02 4.916292801499366760e-02 8.546156436204910278e-02 1.106666475534439087e-01 9.200549870729446411e-02 -1.425868459045886993e-02 1.149881482124328613e-01 4.398669674992561340e-02 1.823085732758045197e-02 8.915443718433380127e-02 -7.759867608547210693e-02 6.709162890911102295e-02 -7.158727198839187622e-02 -7.288984209299087524e-02 -6.941699981689453125e-02 -7.434961944818496704e-02 1.190309505909681320e-02 -7.150232791900634766e-02 -2.243942767381668091e-02 7.377789169549942017e-02 1.472187340259552002e-01 1.855422183871269226e-02 1.363040786236524582e-02 -3.073606453835964203e-02 5.416715517640113831e-03 1.609703525900840759e-02 1.076872274279594421e-01 -4.037521779537200928e-02 -1.297596003860235214e-02 -7.910417043603956699e-04 -5.180533230304718018e-02 -1.666789129376411438e-02 -2.111657150089740753e-02 7.863943278789520264e-02 -6.644778698682785034e-02 -3.130282461643218994e-02 -8.642790466547012329e-02 -8.982799947261810303e-02 4.517246037721633911e-02 1.406446546316146851e-01 -4.683347791433334351e-02 1.039076372981071472e-01 7.688996940851211548e-02 -7.206278294324874878e-02 2.696719206869602203e-02 9.010408073663711548e-02 -8.965393900871276855e-02 7.939025759696960449e-02 4.396725073456764221e-02 -1.231527328491210938e-01 -9.361980110406875610e-02 -6.725992262363433838e-02 -1.098327487707138062e-01 6.352941691875457764e-02 -8.600237965583801270e-02 5.912928283214569092e-02 5.350186303257942200e-02
-1.806552894413471222e-02 5.283029377460479736e-02 1.449765563011169434e-01 -3.181272000074386597e-02 3.595343232154846191e-02 -3.450639918446540833e-02 -2.365378104150295258e-02 -7.717125117778778076e-02 1.621955037117004395e-01 3.181761130690574646e-02 -1.440490186214447021e-01 5.466335266828536987e-02 2.249618619680404663e-02 7.644060533493757248e-04 -8.049356937408447266e-02 -1.063224673271179199e-01 5.886259302496910095e-02 -6.590541452169418335e-02 -6.106808781623840332e-02 2.957335673272609711e-03 -4.967507347464561462e-02 1.708028092980384827e-02 -6.330904364585876465e-02 -4.430462419986724854e-02 -2.133818529546260834e-02 1.315446943044662476e-01 6.123397871851921082e-02 1.195180788636207581e-01 9.642981924116611481e-03 6.711180508136749268e-02 2.238201163709163666e-02 9.016201831400394440e-03 -3.263092041015625000e-02 -4.028274863958358765e-02 -6.375780701637268066e-02 2.472634660080075264e-03 9.244800359010696411e-02 -7.036582380533218384e-02 1.472574775107204914e-03 -1.014868244528770447e-01 2.097383327782154083e-02 1.455388814210891724e-01 -4.690039157867431641e-02 -8.441208302974700928e-02 1.418067067861557007e-01 -1.092724502086639404e-02 -3.671714663505554199e-02 5.603003129363059998e-02 7.151219248771667480e-02 4.983128234744071960e-02 4.816895723342895508e-02 -8.141683787107467651e-02 -4.251407459378242493e-02 1.290923450142145157e-02 7.995008677244186401e-02 -2.142308279871940613e-02 7.029128819704055786e-02 8.594841510057449341e-02 3.142877668142318726e-02 4.532580077648162842e-02 3.763253614306449890e-02 -2.286709845066070557e-02 -8.127337694168090820e-02 8.289708942174911499e-02 3.765258193016052246e-02 -2.931045554578304291e-02 -3.043353185057640076e-02 3.559666220098733902e-03 -3.403637185692787170e-02 4.916980862617492676e-02 1.431728601455688477e-01 -4.065197426825761795e-03 9.560593962669372559e-02 1.464214771986007690e-01 8.786469697952270508e-02 2.441754005849361420e-02 -1.182507202029228210e-01 -7.016010582447052002e-02 -1.279981583356857300e-01 2.120672538876533508e-02 -6.331471726298332214e-03 -1.564547419548034668e-01 -8.476618677377700806e-02 -3.865692019462585449e-02 4.059086088091135025e-03 6.201687082648277283e-02 -3.550997748970985413e-02 5.567882210016250610e-02 7.953420281410217285e-02 1.437577456235885620e-01 1.030604094266891479e-01 2.613899763673543930e-03 1.086862832307815552e-01 -8.651731908321380615e-02 6.723697483539581299e-02 -1.111495569348335266e-01 1.332550197839736938e-01 -7.794596254825592041e-02 -6.552955135703086853e-03 -1.303962320089340210e-01 -8.308432996273040771e-02 -6.473165005445480347e-02 7.209218293428421021e-02 6.703859567642211914e-02 -7.498425990343093872e-02 -8.628440648317337036e-02 4.885582625865936279e-02 -8.294313400983810425e-02 -7.204827666282653809e-02 -9.857657551765441895e-02 7.625045627355575562e-02 6.209104508161544800e-02 -5.043696984648704529e-02 1.108281239867210388e-01 1.995989866554737091e-02 1.460821926593780518e-02 -9.868666529655456543e-02 5.757362768054008484e-02 5.692515522241592407e-02 9.328480064868927002e-02 1.025694683194160461e-01 -1.001718193292617798e-01 -4.535693675279617310e-02 -4.399169981479644775e-02 3.866235166788101196e-02 1.323579698801040649e-01 8.407893776893615723e-02 -8.271681517362594604e-02
-6.550704687833786011e-02 3.043632209300994873e-02 -9.033311903476715088e-02 2.854993380606174469e-02 8.236984908580780029e-02 7.672803848981857300e-02 6.606934219598770142e-02 2.284531481564044952e-02 -2.216342650353908539e-02 4.627664759755134583e-02 -3.450496867299079895e-02 -1.515509784221649170e-01 -5.186283588409423828e-02 4.938206449151039124e-02 -4.890981316566467285e-02 1.310796141624450684e-01 8.312697522342205048e-03 -3.191943466663360596e-02 -1.469806954264640808e-02 -3.458554670214653015e-02 4.544232040643692017e-02 -7.395461946725845337e-02 -1.882846094667911530e-02 1.170335635542869568e-01 2.783543989062309265e-02 5.487022176384925842e-02 7.790269795805215836e-03 1.387297082692384720e-02 6.548476219177246094e-02 -4.121861606836318970e-02 -4.314960539340972900e-02 -3.435641899704933167e-02 -8.726732432842254639e-02 -4.031067341566085815e-02 4.116186872124671936e-02 1.278370916843414307e-01 3.950293734669685364e-02 -1.239042803645133972e-01 -1.015424653887748718e-01 -5.185496434569358826e-02 -5.729857459664344788e-02 5.840066820383071899e-02 -8.157660812139511108e-02 -9.817621111869812012e-02 8.688446879386901855e-02 -3.572133928537368774e-02 3.003576397895812988e-02 8.416344970464706421e-02 -6.634907424449920654e-02 1.969935186207294464e-02 1.245830357074737549e-01 1.196324378252029419e-01 9.415883570909500122e-02 -1.413848716765642166e-02 -2.307442575693130493e-02 -9.429075568914413452e-02 8.415304124355316162e-02 -3.443839773535728455e-02 2.604594454169273376e-02 -1.650526374578475952e-02 8.800825104117393494e-03 1.953536644577980042e-02 2.089303452521562576e-03 4.562444984912872314e-02 -4.282520711421966553e-02 -5.305537208914756775e-02 -2.500159852206707001e-02 -4.698839969933032990e-03 1.054537668824195862e-01 -9.859020821750164032e-03 -1.209209412336349487e-01 -7.138121873140335083e-04 -1.943311840295791626e-02 6.982665508985519409e-02 8.460015058517456055e-02 8.453416079282760620e-02 -8.125706762075424194e-02 1.165960356593132019e-02 -7.996061816811561584e-03 3.193850279785692692e-04 -5.091815814375877380e-02 -3.146499395370483398e-02 -3.603474795818328857e-02 1.073646992444992065e-01 1.072278991341590881e-02 1.506348140537738800e-02 4.172447323799133301e-02 -8.587135933339595795e-03 -9.864439070224761963e-02 2.891469560563564301e-02 3.193261846899986267e-02 -1.235795989632606506e-01 3.217351064085960388e-02 7.163202017545700073e-02 -2.794028958305716515e-03 8.305400609970092773e-02 -2.840187866240739822e-03 -3.425763919949531555e-02 6.167933717370033264e-02 9.438292682170867920e-02 1.088745817542076111e-01 5.202015861868858337e-02 4.411622416228055954e-03 -4.711822047829627991e-02 5.010195448994636536e-02 4.351135285105556250e-04 7.658870518207550049e-02 -8.835900574922561646e-02 6.372345238924026489e-02 -1.541887316852807999e-02 -7.480090111494064331e-02 3.115782700479030609e-02 6.026933714747428894e-02 -3.662794083356857300e-02 1.318662464618682861e-01 5.868931114673614502e-02 -1.017916277050971985e-01 8.913347870111465454e-02 9.204949438571929932e-02 8.207283914089202881e-02 9.468691051006317139e-02 1.157936919480562210e-02 7.225376367568969727e-02 -6.218571588397026062e-02 1.586813181638717651e-01 1.146513968706130981e-04 -5.498728901147842407e-02 7.678314298391342163e-02
3.927996009588241577e-02 -8.518246002495288849e-03 4.783675819635391235e-02 -1.327263470739126205e-02 4.894815757870674133e-02 -1.899010874330997467e-02 3.586555644869804382e-02 4.037181288003921509e-02 -6.059788912534713745e-02 -5.067223310470581055e-02 1.504288166761398315e-01 6.674892455339431763e-02 8.579960465431213379e-02 -1.564930775202810764e-03 6.148753687739372253e-02 -4.454659298062324524e-02 -4.150279611349105835e-02 1.237294673919677734e-01 1.149381250143051147e-01 1.451522260904312134e-01 2.561401389539241791e-02 1.049088016152381897e-01 -6.239398196339607239e-02 1.183158159255981445e-01 -2.192923426628112793e-02 1.840998046100139618e-02 -1.278554946184158325e-01 2.234692871570587158e-02 8.568745851516723633e-02 3.824302926659584045e-02 7.246074825525283813e-02 -3.834693133831024170e-02 2.885471563786268234e-03 1.236490756273269653e-01 6.870973855257034302e-02 -9.676305204629898071e-02 1.441859602928161621e-01 -1.050657965242862701e-02 6.442922353744506836e-02 1.140865385532379150e-01 -4.650304093956947327e-02 1.002671644091606140e-01 3.068277239799499512e-02 3.641758859157562256e-02 -8.619251847267150879e-02 -7.388963550329208374e-02 1.046815812587738037e-01 4.285795986652374268e-02 -3.896131366491317749e-02 2.191629819571971893e-02 -9.287618100643157959e-02 -7.775507122278213501e-02 -6.396593153476715088e-02 -7.357515394687652588e-02 -1.426811367273330688e-01 -9.222809225320816040e-03 5.966841429471969604e-02 -1.923384703695774078e-02 -1.718567870557308197e-02 -5.643514171242713928e-02 1.436530649662017822e-01 -1.784243388101458549e-03 -3.293189778923988342e-02 -1.191511303186416626e-01 -6.646932661533355713e-02 3.528838232159614563e-02 -1.527187824249267578e-01 -1.756737194955348969e-02 -1.293550431728363037e-01 6.760991364717483521e-02 -6.005462631583213806e-02 5.437816679477691650e-02 -1.061054021120071411e-01 -1.144237741827964783e-01 4.769226536154747009e-03 6.349765509366989136e-02 4.374372214078903198e-02 6.414827704429626465e-02 2.780895866453647614e-02 -6.321756634861230850e-03 2.992378920316696167e-02 -3.353831171989440918e-02 8.237724006175994873e-02 1.363287866115570068e-01 5.154760554432868958e-02 1.514715105295181274e-01 8.510526269674301147e-02 3.684828802943229675e-02 1.016507819294929504e-01 -4.687171801924705505e-02 1.513867080211639404e-02 7.494430057704448700e-03 4.852825403213500977e-02 4.235082864761352539e-02 -5.779644474387168884e-02 -7.759303599596023560e-02 -4.563256725668907166e-02 8.431675285100936890e-02 -1.131816860288381577e-02 2.053867280483245850e-02 -3.531899070367217064e-03 -4.929969087243080139e-02 1.195786148309707642e-01 3.633695095777511597e-02 8.424807339906692505e-02 5.678884312510490417e-02 6.419719755649566650e-02 -4.764148965477943420e-03 6.643537431955337524e-02 1.342346668243408203e-01 -1.066605150699615479e-01 5.907414108514785767e-02 -1.352006345987319946e-01 -9.813506901264190674e-02 5.069382861256599426e-02 -9.047990664839744568e-03 5.684969946742057800e-03 1.215703338384628296e-01 1.581524126231670380e-02 -9.702418930828571320e-03 1.000323817133903503e-01 -2.325545996427536011e-03 6.917344778776168823e-02 -5.041775479912757874e-02 2.793663926422595978e-02 2.092645876109600067e-02 -7.872683554887771606e-02 -5.388407409191131592e-02
1.709654368460178375e-02 -9.665021300315856934e-02 -1.036768686026334763e-02 -1.111621633172035217e-01 5.485378205776214600e-02 -6.614419817924499512e-02 -6.549995392560958862e-02 8.534623682498931885e-02 -3.637639433145523071e-02 1.051934063434600830e-01 4.495971277356147766e-02 8.034756034612655640e-02 -3.979294560849666595e-04 -5.567051842808723450e-02 8.226695470511913300e-03 -4.314157366752624512e-02 -5.724381282925605774e-02 5.674656853079795837e-02 2.012685686349868774e-02 8.288254588842391968e-02 5.158113315701484680e-02 6.189050897955894470e-02 -3.634238382801413536e-03 7.187627255916595459e-02 -4.872197285294532776e-02 1.239680349826812744e-01 1.310401409864425659e-01 4.208685457706451416e-02 1.286037117242813110e-01 -6.384585052728652954e-03 1.369957476854324341e-01 1.319706812500953674e-02 1.049708351492881775e-01 3.018926596269011497e-03 1.323473155498504639e-01 2.101622289046645164e-03 1.354380249977111816e-01 -5.262489244341850281e-02 -3.083037445321679115e-03 1.154274344444274902e-01 6.719753146171569824e-02 8.328171819448471069e-02 1.125910580158233643e-01 7.899901270866394043e-02 -1.008497327566146851e-01 4.742152243852615356e-02 8.399404585361480713e-02 6.853635888546705246e-03 1.929692737758159637e-02 -4.215915501117706299e-02 7.238733768463134766e-02 9.629198908805847168e-02 -2.181165665388107300e-02 6.691227853298187256e-02 -1.817639358341693878e-02 1.158172339200973511e-01 -6.661634426563978195e-03 5.589328333735466003e-02 -1.551218181848526001e-01 -1.980564743280410767e-02 -1.036507785320281982e-01 4.753020405769348145e-02 6.638231873512268066e-02 -3.325195750221610069e-03 -1.568249017000198364e-01 1.897540688514709473e-02 2.107413858175277710e-02 6.264957785606384277e-02 -3.748437389731407166e-02 -1.208019629120826721e-01 -7.449797540903091431e-02 -7.204806897789239883e-03 5.503867194056510925e-02 -4.524202644824981689e-02 6.391815841197967529e-02 -1.402275562286376953e-01 1.504664868116378784e-01 1.278112381696701050e-01 1.282258927822113037e-01 -2.300346083939075470e-02 1.303594261407852173e-01 9.264990687370300293e-02 1.462179329246282578e-02 2.041027136147022247e-02 3.759244829416275024e-02 6.396922469139099121e-02 1.252209097146987915e-01 7.040975987911224365e-02 8.550544828176498413e-02 -8.798447251319885254e-02 -3.170988289639353752e-03 -9.492470324039459229e-02 -1.669461466372013092e-02 1.416576653718948364e-01 -2.394967712461948395e-02 9.783060103654861450e-02 7.698994874954223633e-02 1.081915646791458130e-01 9.889731556177139282e-02 1.361876130104064941e-01 1.306300312280654907e-01 1.775542087852954865e-02 -4.356374219059944153e-02 8.757226914167404175e-02 8.446118235588073730e-02 3.438043221831321716e-02 -3.894308581948280334e-02 -4.331031069159507751e-02 -7.388319075107574463e-02 -6.523350626230239868e-02 3.467694669961929321e-02 8.159027248620986938e-02 8.659216016530990601e-02 -9.593787044286727905e-02 -5.839948542416095734e-03 1.442192643880844116e-01 2.491260878741741180e-02 -1.106952950358390808e-01 8.920329064130783081e-02 1.136523708701133728e-01 2.360896393656730652e-02 1.452094167470932007e-01 -1.418041810393333435e-02 -4.600563645362854004e-02 -3.479686751961708069e-02 -2.688683196902275085e-02 -2.996801771223545074e-02 -6.988204270601272583e-02
6.609648466110229492e-02 4.088479653000831604e-02 8.034135401248931885e-02 1.065330505371093750e-01 1.298311650753021240e-01 1.262812316417694092e-01 3.258585557341575623e-02 -1.394207496196031570e-02 3.023643791675567627e-02 4.938920959830284119e-02 -5.451827123761177063e-02 1.077615544199943542e-01 6.045176088809967041e-02 1.104435473680496216e-01 6.167996209114789963e-03 -6.589023023843765259e-02 8.244921267032623291e-02 4.609631747007369995e-02 -5.811422131955623627e-03 -3.752156719565391541e-02 2.803237643092870712e-03 -1.407119184732437134e-01 3.684672340750694275e-02 8.000580966472625732e-02 -3.555120527744293213e-02 -2.580555528402328491e-02 2.474588714540004730e-02 7.445579767227172852e-02 2.735490910708904266e-02 -9.733529761433601379e-03 -6.425973027944564819e-02 6.910868734121322632e-02 -4.264413192868232727e-02 -2.593745104968547821e-02 8.570635318756103516e-02 -3.144070133566856384e-02 -7.469500415027141571e-03 1.168376207351684570e-01 -1.282372772693634033e-01 -8.825053274631500244e-02 1.321229967288672924e-03 -1.067682057619094849e-01 6.106509640812873840e-02 -8.076543360948562622e-02 8.072087913751602173e-02 6.925116758793592453e-03 1.453219354152679443e-01 5.899083334952592850e-03 -3.702917322516441345e-02 2.439654432237148285e-02 -1.904969848692417145e-02 -8.799915015697479248e-02 4.188456758856773376e-02 -8.458824455738067627e-02 3.658428043127059937e-02 1.017139628529548645e-01 1.178293605335056782e-03 -8.950453996658325195e-02 1.212221458554267883e-01 8.629254251718521118e-02 -1.424072235822677612e-01 -1.090345606207847595e-01 6.313192099332809448e-02 -4.125947132706642151e-02 7.347344607114791870e-02 -8.005973696708679199e-02 2.275883220136165619e-02 1.125027537345886230e-01 -7.285916060209274292e-02 -5.069800186902284622e-03 1.292382627725601196e-01 1.229002624750137329e-01 -5.240232218056917191e-03 4.054618999361991882e-02 -2.648265473544597626e-02 -5.996023118495941162e-02 3.961352631449699402e-02 -3.836285695433616638e-02 9.415201097726821899e-02 6.068526953458786011e-02 -1.396158244460821152e-02 1.353419274091720581e-01 7.460686564445495605e-02 1.194929555058479309e-01 -2.127587050199508667e-02 9.770825505256652832e-02 4.266767203807830811e-02 -2.661927789449691772e-02 1.431310474872589111e-01 -1.187298744916915894e-01 -6.124731898307800293e-02 1.230622525326907635e-03 9.478344582021236420e-03 6.864963471889495850e-02 -3.576842369511723518e-03 -2.386100590229034424e-02 3.329147025942802429e-02 2.666964009404182434e-02 6.271066516637802124e-02 -6.266809999942779541e-03 -3.491789847612380981e-02 4.546311870217323303e-02 -6.094922497868537903e-02 4.413934051990509033e-02 1.322644501924514771e-01 7.082449644804000854e-02 -5.683407187461853027e-02 8.262300491333007812e-02 -1.097844168543815613e-01 -9.103211760520935059e-02 6.902896612882614136e-02 3.590860590338706970e-02 9.767986088991165161e-02 1.720436662435531616e-01 1.121464371681213379e-01 9.263601899147033691e-02 9.591287374496459961e-02 -2.684307843446731567e-02 8.982160687446594238e-02 -1.248882617801427841e-02 -7.324992120265960693e-02 6.263511721044778824e-03 -7.423902302980422974e-02 5.678471177816390991e-02 1.000176817178726196e-01 1.391678452491760254e-01 9.688907861709594727e-02 9.165237843990325928e-02
5.906343460083007812e-02 6.004963535815477371e-03 4.480968415737152100e-02 -3.137229755520820618e-02 -7.155651599168777466e-02 -1.359844505786895752e-01 6.887668371200561523e-02 1.099905930459499359e-03 5.991449579596519470e-02 2.234146744012832642e-02 3.452954441308975220e-02 -1.039914507418870926e-02 -3.713333234190940857e-02 -4.868397116661071777e-02 -6.847082823514938354e-02 3.928330913186073303e-02 -9.774241596460342407e-02 4.861324653029441833e-02 9.189881384372711182e-02 2.194807864725589752e-02 7.241127640008926392e-02 -4.362135007977485657e-02 9.008804336190223694e-03 -4.848018288612365723e-02 5.483110435307025909e-03 -1.176493940874934196e-03 -1.105649583041667938e-02 -5.186161398887634277e-02 2.117134258151054382e-02 -5.188363790512084961e-02 5.905736982822418213e-02 -5.786716565489768982e-02 1.092407628893852234e-01 5.260928720235824585e-02 6.388772279024124146e-02 5.741893500089645386e-02 5.500322580337524414e-02 -4.601785168051719666e-02 3.545549139380455017e-02 -8.449178189039230347e-02 4.112323373556137085e-02 7.798255234956741333e-02 5.116207525134086609e-02 -4.836745187640190125e-02 -4.341075196862220764e-02 -9.413740038871765137e-02 -5.574946105480194092e-02 -3.830456361174583435e-02 -7.236663997173309326e-02 -2.952315099537372589e-02 1.445008348673582077e-02 -1.928672753274440765e-02 -1.696433871984481812e-02 8.143142610788345337e-02 4.891474917531013489e-02 -4.712019581347703934e-04 -6.833361834287643433e-02 4.113407060503959656e-02 1.212228983640670776e-01 4.001744091510772705e-02 -1.155053451657295227e-01 5.305749177932739258e-02 6.300893425941467285e-02 -8.287739008665084839e-02 8.535276353359222412e-02 -5.332409590482711792e-02 -6.631077080965042114e-02 -4.282052442431449890e-02 -9.408599138259887695e-02 8.463508635759353638e-02 -8.967318572103977203e-03 4.991596192121505737e-02 3.756855800747871399e-02 -9.057649224996566772e-02 -4.803026095032691956e-03 -1.410531066358089447e-02 -6.886340677738189697e-02 7.724032551050186157e-02 -1.113992482423782349e-01 -5.946923792362213135e-02 -1.155978627502918243e-02 1.494740694761276245e-02 -4.646812006831169128e-02 4.299588501453399658e-02 -5.413042381405830383e-02 1.221586018800735474e-01 -6.777229905128479004e-02 6.036762148141860962e-02 4.250909015536308289e-02 3.676363825798034668e-02 -1.115634478628635406e-02 4.949920997023582458e-02 4.008736461400985718e-02 -8.320248126983642578e-02 -1.585198342800140381e-01 -5.993018671870231628e-02 5.054971203207969666e-02 6.759710609912872314e-02 -8.735119365155696869e-03 2.215261384844779968e-02 -6.003422290086746216e-02 5.707716569304466248e-02 5.509962141513824463e-02 -1.525300740468082950e-05 8.716092258691787720e-02 4.408121854066848755e-02 -3.525667358189821243e-03 2.187336096540093422e-03 3.309103101491928101e-02 1.636614650487899780e-02 -8.329435437917709351e-02 -6.695720553398132324e-02 -6.385283917188644409e-02 -1.665909141302108765e-01 -5.187837406992912292e-02 -1.101856380701065063e-01 -4.216950386762619019e-02 8.288332819938659668e-02 6.070459261536598206e-02 -4.036248847842216492e-02 5.085512995719909668e-03 -7.085426151752471924e-02 -6.310322135686874390e-02 2.132446691393852234e-02 -1.292447298765182495e-01 -6.999410688877105713e-02 3.357926383614540100e-02 -1.319191157817840576e-01
9.883929044008255005e-02 -1.359115634113550186e-02 1.014796346426010132e-01 1.243933886289596558e-01 7.290817052125930786e-02 -9.275215119123458862e-02 4.750965535640716553e-02 -1.121418476104736328e-01 -6.479912251234054565e-02 -8.858232200145721436e-02 6.960549205541610718e-02 1.165808513760566711e-01 6.075969710946083069e-02 -1.356228739023208618e-01 -1.487219519913196564e-02 -7.841476798057556152e-02 3.533644229173660278e-02 1.042609959840774536e-01 -3.198805078864097595e-02 -6.626629084348678589e-02 4.641501232981681824e-02 8.123621344566345215e-03 1.609708182513713837e-02 -1.102061867713928223e-01 -1.062418967485427856e-01 -7.759465277194976807e-02 2.498212829232215881e-02 -1.217899698531255126e-04 4.030757024884223938e-02 -7.834928482770919800e-02 4.262968897819519043e-02 2.812311239540576935e-02 1.114033311605453491e-01 5.307704210281372070e-02 -2.697246521711349487e-02 -9.278979897499084473e-02 1.049106568098068237e-02 1.123147755861282349e-01 4.578917101025581360e-02 -3.942530974745750427e-02 -6.805837154388427734e-02 -5.755314603447914124e-02 1.359252929687500000e-01 1.309046801179647446e-02 -1.238304674625396729e-01 -3.056560084223747253e-02 -1.398178040981292725e-01 -5.153163522481918335e-02 1.239321427419781685e-04 7.639986276626586914e-02 1.031959801912307739e-02 3.565473482012748718e-02 -9.784889966249465942e-02 5.648889392614364624e-02 -1.132045090198516846e-01 1.160271018743515015e-01 -4.961575940251350403e-02 -2.620337996631860733e-03 -1.038672495633363724e-02 7.026313245296478271e-02 -1.134327575564384460e-01 -4.170395433902740479e-02 -1.801823265850543976e-02 -1.619815379381179810e-01 -7.062766700983047485e-02 -2.304821275174617767e-02 1.058654766529798508e-02 7.341223955154418945e-02 5.840761587023735046e-03 -3.405723348259925842e-02 -1.121586859226226807e-01 7.528042793273925781e-02 -9.970171004533767700e-02 1.968986913561820984e-02 1.482372358441352844e-02 3.964721411466598511e-02 1.525861620903015137e-01 1.252177059650421143e-01 4.838946089148521423e-02 8.099050074815750122e-02 -3.359834477305412292e-02 -9.525006264448165894e-02 3.960796073079109192e-02 7.303654402494430542e-02 3.207856416702270508e-02 1.295432299375534058e-01 5.769217014312744141e-02 -7.992089539766311646e-02 1.222633868455886841e-01 -7.396783679723739624e-02 4.738251212984323502e-03 6.888716667890548706e-02 -2.390382625162601471e-02 -6.966344267129898071e-02 -4.827213287353515625e-02 -9.132765978574752808e-02 -1.838551647961139679e-02 -1.297279726713895798e-03 -5.373558029532432556e-02 1.100808531045913696e-01 -1.360458284616470337e-01 -2.624949999153614044e-02 -2.971901744604110718e-02 -9.401383996009826660e-02 1.070502698421478271e-01 4.006759077310562134e-02 5.218159779906272888e-02 -4.879827424883842468e-02 -1.166509613394737244e-01 -5.052510276436805725e-02 1.550159007310867310e-01 -3.652448579668998718e-02 1.221596379764378071e-03 -1.069595664739608765e-01 -1.452611684799194336e-01 -3.581910207867622375e-02 1.176410168409347534e-01 4.143469035625457764e-02 -6.243994832038879395e-02 -1.387375295162200928e-01 -2.872865647077560425e-02 -6.730404496192932129e-02 -8.768087625503540039e-02 -1.098972186446189880e-01 -1.356180757284164429e-01 -1.386111229658126831e-01 1.320061981678009033e-01 -5.452439188957214355e-03
7.461912184953689575e-02 -6.325289141386747360e-03 -1.871911808848381042e-02 -6.054143980145454407e-02 7.601020485162734985e-02 8.405892550945281982e-02 -6.326586753129959106e-02 -2.165951021015644073e-02 -1.153479367494583130e-01 1.113288626074790955e-01 1.037708669900894165e-02 6.462743878364562988e-02 2.966020070016384125e-02 -4.266011714935302734e-02 6.087556481361389160e-02 -1.236740313470363617e-02 3.846457600593566895e-02 1.265164017677307129e-01 1.536308079957962036e-01 -8.741034194827079773e-03 -7.730829715728759766e-02 -2.065632026642560959e-03 1.505854167044162750e-02 -2.604675106704235077e-02 -8.305317163467407227e-02 -2.408692054450511932e-02 1.090367734432220459e-01 -2.814865205436944962e-03 9.081779420375823975e-02 -5.486337840557098389e-02 -5.151110142469406128e-02 1.127224788069725037e-01 -1.514077279716730118e-02 1.114877387881278992e-01 4.167503863573074341e-02 1.237049102783203125e-01 2.979624271392822266e-02 -2.708236314356327057e-02 1.710377517156302929e-03 -9.946342557668685913e-02 4.304257407784461975e-02 -1.277793943881988525e-01 3.677513450384140015e-02 1.335175335407257080e-01 -4.521807713899761438e-04 -3.791544213891029358e-02 -1.304199639707803726e-02 8.892257697880268097e-03 2.878569765016436577e-03 4.994053766131401062e-02 5.886046960949897766e-02 7.142423838376998901e-02 -1.204091235995292664e-01 3.601576760411262512e-02 -5.392660200595855713e-02 9.714344143867492676e-02 3.666841238737106323e-02 -5.762242898344993591e-02 -2.541444264352321625e-02 4.090524092316627502e-02 -7.921051234006881714e-02 7.556731253862380981e-02 3.674930706620216370e-02 8.364460081793367863e-04 2.677104622125625610e-02 5.946535989642143250e-02 -2.508758567273616791e-02 6.832900643348693848e-02 8.879220485687255859e-02 2.722832607105374336e-03 -4.023103788495063782e-02 6.261021830141544342e-03 -8.370549231767654419e-02 -1.049417480826377869e-01 6.114165484905242920e-02 2.390607027336955070e-03 7.268249243497848511e-02 -3.585000708699226379e-02 1.294763833284378052e-01 5.834578722715377808e-02 1.187193095684051514e-01 -2.390838693827390671e-03 1.196390315890312195e-01 1.004815287888050079e-02 7.572627812623977661e-02 -3.463414683938026428e-02 8.210553228855133057e-02 -9.893456846475601196e-02 1.058635935187339783e-01 -1.236661598086357117e-01 7.554057240486145020e-02 1.145287603139877319e-01 6.810405850410461426e-02 7.005981635302305222e-03 -1.180873960256576538e-01 -1.348367705941200256e-02 -4.114535078406333923e-02 1.262158900499343872e-01 -7.805876433849334717e-02 4.873330891132354736e-02 -6.258743256330490112e-02 -4.398224130272865295e-02 9.225481748580932617e-02 5.578417330980300903e-02 9.510693699121475220e-02 -6.507489085197448730e-02 1.124668195843696594e-01 -1.134077757596969604e-01 -2.739186212420463562e-02 5.115726590156555176e-02 9.003265202045440674e-02 6.429616361856460571e-02 4.698670655488967896e-02 -6.054802611470222473e-02 -1.474237293004989624e-01 9.187705814838409424e-03 1.160879731178283691e-01 -1.481618583202362061e-01 1.139689311385154724e-01 7.327136117964982986e-04 -1.548722684383392334e-01 -3.960359096527099609e-02 -3.026498109102249146e-02 -9.606743603944778442e-02 6.855683773756027222e-02 -4.690970480442047119e-02 -1.262347307056188583e-02 1.262237280607223511e-01
5.471824482083320618e-02 2.902615629136562347e-02 1.046354230493307114e-02 9.230637550354003906e-02 7.396247237920761108e-02 3.542594984173774719e-02 -3.079407848417758942e-02 1.504512410610914230e-02 5.859506875276565552e-02 5.554393678903579712e-02 1.499740928411483765e-01 -7.721613347530364990e-02 8.425738662481307983e-02 -1.108679920434951782e-01 9.868687391281127930e-02 -3.602099418640136719e-02 1.032670140266418457e-01 -2.370666898787021637e-02 -2.498909458518028259e-02 -7.089609652757644653e-02 1.822254061698913574e-02 -3.195007145404815674e-02 6.118441000580787659e-02 -7.770717889070510864e-02 5.863032769411802292e-03 6.287221610546112061e-02 3.565100207924842834e-02 7.149995118379592896e-02 -3.507598862051963806e-02 3.747636079788208008e-02 2.451816946268081665e-02 1.045901104807853699e-01 -5.534408986568450928e-02 9.194765985012054443e-02 -6.889883428812026978e-02 2.044326066970825195e-02 1.427271515130996704e-01 2.777575701475143433e-02 -3.827142715454101562e-02 1.153306066989898682e-01 2.504007332026958466e-02 -3.561741486191749573e-02 -4.394344985485076904e-02 4.163575917482376099e-02 6.838991492986679077e-02 -8.968042209744453430e-03 3.956558927893638611e-02 6.369682401418685913e-02 -2.423446252942085266e-02 2.858135849237442017e-03 -5.575757846236228943e-02 4.434617608785629272e-02 1.092130392789840698e-01 9.265621774829924107e-04 -9.453886002302169800e-02 -4.107393324375152588e-02 -5.578473582863807678e-02 -2.747674286365509033e-02 -9.702059626579284668e-02 -2.469052746891975403e-02 1.369625627994537354e-01 -1.324828621000051498e-02 5.778392776846885681e-02 6.632205098867416382e-02 -6.738229840993881226e-02 6.977371126413345337e-02 -9.062436223030090332e-02 3.561595454812049866e-02 4.530204087495803833e-02 -1.224272623658180237e-01 8.040751330554485321e-03 1.618462800979614258e-02 -2.126612514257431030e-02 1.270803660154342651e-01 -6.305205076932907104e-02 9.392669796943664551e-02 5.379630252718925476e-02 9.661088138818740845e-02 4.152167122811079025e-03 -2.967470698058605194e-02 3.478744626045227051e-02 4.346958361566066742e-03 -3.414982929825782776e-02 1.106231883168220520e-01 3.840326517820358276e-02 -1.976621150970458984e-02 2.081669867038726807e-02 6.016566231846809387e-02 -8.331166952848434448e-02 4.938412457704544067e-02 8.709137141704559326e-02 -1.200186833739280701e-02 -1.071688756346702576e-01 -2.479400485754013062e-02 7.353264838457107544e-02 1.470748917199671268e-03 -1.248533837497234344e-02 -8.138965815305709839e-02 3.279316797852516174e-02 4.489010199904441833e-02 1.005232483148574829e-01 1.170696131885051727e-02 1.098027154803276062e-01 4.072169214487075806e-02 3.442000225186347961e-02 5.340065062046051025e-02 3.913200646638870239e-02 8.698152750730514526e-02 -7.120549678802490234e-03 1.192604005336761475e-01 1.117400974035263062e-01 5.819103866815567017e-02 1.858133263885974884e-02 1.107553169131278992e-01 -6.279078125953674316e-02 3.068211721256375313e-03 -3.537956997752189636e-02 -9.872488677501678467e-02 -9.507950395345687866e-02 7.195319980382919312e-02 -4.984171316027641296e-02 -2.095805015414953232e-03 -2.447779662907123566e-02 -1.194399520754814148e-01 5.347732082009315491e-02 4.418042302131652832e-02 5.545151233673095703e-02 -1.449166890233755112e-02
-1.050811409950256348e-01 -2.789729088544845581e-02 5.856826528906822205e-02 8.321527391672134399e-02 -4.524799436330795288e-02 -3.237487375736236572e-02 -4.153932258486747742e-02 6.887333095073699951e-02 1.103760749101638794e-01 7.575099170207977295e-02 2.096904441714286804e-02 -9.390346822328865528e-04 -8.106958866119384766e-02 -1.363031864166259766e-01 4.229390621185302734e-02 6.466364860534667969e-02 1.880283467471599579e-02 -5.587439984083175659e-02 1.048195809125900269e-01 -9.649480879306793213e-02 1.631214842200279236e-02 8.962574601173400879e-02 -1.227262429893016815e-02 -1.073516719043254852e-02 -2.827271819114685059e-02 -3.318161517381668091e-02 -6.298398226499557495e-02 -5.100340023636817932e-02 1.383073907345533371e-02 -4.682378470897674561e-02 -5.252081528306007385e-02 5.409830436110496521e-02 -1.395563334226608276e-01 2.378556318581104279e-02 7.385621219873428345e-02 1.022851765155792236e-01 -2.039436809718608856e-02 -1.098923906683921814e-01 5.764747038483619690e-03 4.957306757569313049e-02 5.968303605914115906e-02 -7.719262689352035522e-02 -1.384796351194381714e-01 5.309709534049034119e-02 -6.864535622298717499e-03 -3.306788951158523560e-02 5.792532116174697876e-02 6.840196251869201660e-02 -7.451719790697097778e-02 4.177334159612655640e-02 5.995084345340728760e-02 1.485086604952812195e-02 1.060564965009689331e-01 1.739075221121311188e-02 -6.198596209287643433e-02 5.167684331536293030e-02 6.038736552000045776e-02 -2.491699298843741417e-03 -4.782411456108093262e-02 -4.386220499873161316e-02 1.098825484514236450e-01 -6.947082281112670898e-02 7.800030708312988281e-02 3.075364418327808380e-02 -2.507789433002471924e-02 1.285187453031539917e-01 5.052462592720985413e-02 1.030905619263648987e-01 4.571170359849929810e-02 3.105013072490692139e-02 -4.773031547665596008e-02 -5.816332995891571045e-02 -2.755104564130306244e-02 4.117769375443458557e-02 -7.353879511356353760e-03 1.172998249530792236e-01 -2.382946759462356567e-02 -3.497835621237754822e-02 -5.588721483945846558e-02 -1.067277118563652039e-01 3.561707958579063416e-02 -1.119031906127929688e-01 -6.483200192451477051e-02 1.489755325019359589e-02 4.119505733251571655e-02 -8.081409335136413574e-02 5.018382519483566284e-02 7.620567921549081802e-03 2.556487917900085449e-03 1.125813275575637817e-02 -2.931616827845573425e-02 -8.111438900232315063e-02 1.904411986470222473e-02 1.198222190141677856e-01 1.499980408698320389e-02 2.317824773490428925e-02 -6.079784408211708069e-02 -8.999067544937133789e-02 -5.857402831315994263e-02 1.135165020823478699e-01 1.374329030513763428e-01 -6.427393853664398193e-02 1.049403771758079529e-01 -4.446352249942719936e-04 -4.041699320077896118e-02 -3.675324842333793640e-02 6.193402782082557678e-02 3.630627691745758057e-02 9.701013565063476562e-02 1.212261393666267395e-01 -4.458856210112571716e-02 8.317694067955017090e-02 8.239714056253433228e-02 -3.976888582110404968e-02 -6.170000880956649780e-02 2.545919083058834076e-02 -9.961684793233871460e-02 -3.291330486536026001e-02 -8.492009341716766357e-02 1.914815977215766907e-02 -7.533594220876693726e-02 9.040225297212600708e-02 7.773628458380699158e-03 8.969166129827499390e-02 1.244474947452545166e-01 -1.430531963706016541e-02 -6.872842460870742798e-02 1.220672130584716797e-01
-6.452636420726776123e-02 -5.936148762702941895e-02 -6.438379734754562378e-02 6.839928776025772095e-02 8.961807191371917725e-02 -7.408184558153152466e-02 -5.604709032922983170e-03 1.106634214520454407e-01 -6.693747825920581818e-03 5.349981784820556641e-02 -5.340398102998733521e-02 3.485820023342967033e-03 1.339677628129720688e-02 4.896783828735351562e-02 1.027843207120895386e-01 3.261566534638404846e-02 1.336643099784851074e-01 -2.120757242664694786e-03 1.083726361393928528e-01 2.635981515049934387e-02 -6.789539009332656860e-02 -4.589460790157318115e-02 -1.876552589237689972e-02 -4.635994136333465576e-02 6.337661296129226685e-03 4.279903694987297058e-02 -1.154614910483360291e-01 -1.679304637946188450e-03 -3.625739738345146179e-02 4.865678958594799042e-03 -7.644565775990486145e-04 -5.364942923188209534e-02 -5.938396230340003967e-02 -1.797487726435065269e-03 6.821491569280624390e-02 4.354366566985845566e-03 -3.814738988876342773e-02 3.906561527401208878e-03 1.213362738490104675e-01 -2.925108745694160461e-02 -4.349299520254135132e-02 -1.428961157798767090e-01 -1.005497127771377563e-01 3.133829310536384583e-02 1.455903649330139160e-01 6.499159336090087891e-02 -1.027843449264764786e-02 -1.771679706871509552e-02 7.078339904546737671e-02 -8.479966782033443451e-03 -1.059365086257457733e-02 -1.810503564774990082e-02 7.548597641289234161e-03 -6.341099739074707031e-02 1.055980324745178223e-01 5.161850154399871826e-02 -3.857615962624549866e-02 1.405729260295629501e-02 2.389214374125003815e-02 -4.451635479927062988e-02 3.274411335587501526e-02 -1.016484797000885010e-01 7.242862880229949951e-02 -1.708161830902099609e-02 -2.380302175879478455e-03 1.203624457120895386e-01 -4.849453642964363098e-02 3.694481402635574341e-02 8.127285540103912354e-02 1.206713914871215820e-01 6.546130776405334473e-02 -1.035743206739425659e-01 4.606659710407257080e-02 1.146242544054985046e-01 -3.910466656088829041e-02 1.685900427401065826e-02 -7.688599079847335815e-02 -4.467895627021789551e-02 -1.367457062005996704e-01 -1.252360409125685692e-03 8.570519834756851196e-02 -2.145252563059329987e-02 6.175516545772552490e-02 -1.630244702100753784e-01 3.618115559220314026e-02 -2.396600879728794098e-02 -4.714762046933174133e-02 3.125230222940444946e-02 -7.659319043159484863e-02 7.881877571344375610e-02 7.861331850290298462e-02 -4.980847612023353577e-02 1.727582328021526337e-02 7.042662799358367920e-02 -3.631542623043060303e-02 1.004527509212493896e-01 -1.069401055574417114e-01 -1.321167945861816406e-01 -1.347799003124237061e-01 8.711057901382446289e-02 -2.321011945605278015e-02 -3.091356344521045685e-02 1.268791854381561279e-01 4.266921803355216980e-02 1.156622618436813354e-01 5.088041350245475769e-02 -7.562325149774551392e-02 1.067116633057594299e-01 9.013165254145860672e-04 4.228376597166061401e-02 -7.932469248771667480e-02 -1.836180686950683594e-02 6.692715734243392944e-02 5.184198543429374695e-02 -4.003499075770378113e-02 1.329251192510128021e-02 -1.449704021215438843e-01 -5.934988614171743393e-03 -1.039455384016036987e-01 -8.395256102085113525e-02 -1.068330034613609314e-01 4.394911974668502808e-02 2.360338158905506134e-02 -1.317883580923080444e-01 1.025464460253715515e-01 -9.221040457487106323e-02 -1.298198290169239044e-02 7.213585823774337769e-02
2.502829395234584808e-02 -1.007999200373888016e-02 3.987949341535568237e-02 1.277879625558853149e-01 1.206346824765205383e-01 6.314373109489679337e-03 2.339200675487518311e-02 -7.222395390272140503e-02 6.910594552755355835e-02 -5.644959956407546997e-02 6.608360446989536285e-03 8.915892243385314941e-02 8.752729743719100952e-02 -3.328592330217361450e-02 7.051698863506317139e-02 -1.382874138653278351e-02 5.679243430495262146e-02 3.965048119425773621e-02 -3.167976066470146179e-02 -1.370357256382703781e-02 2.819687686860561371e-02 9.074671566486358643e-02 2.265985310077667236e-02 -3.263749182224273682e-02 -8.538694679737091064e-02 1.516008190810680389e-02 -4.336075112223625183e-02 1.076796799898147583e-01 -1.074419468641281128e-01 -8.621380664408206940e-03 1.293036788702011108e-01 -3.400637209415435791e-02 5.646577104926109314e-02 -2.963184006512165070e-02 -1.121502146124839783e-01 -4.995574057102203369e-02 7.904991507530212402e-02 3.282816708087921143e-02 1.223563849925994873e-01 4.204804077744483948e-02 1.165953557938337326e-02 -2.929204329848289490e-02 3.855597972869873047e-02 7.133975625038146973e-02 -5.706362053751945496e-02 -4.701059311628341675e-02 5.480612069368362427e-02 3.024457837454974651e-04 4.695781692862510681e-02 3.555765002965927124e-02 -8.989570289850234985e-02 -1.025084257125854492e-01 1.107384935021400452e-01 5.523175001144409180e-02 -3.600432770326733589e-03 -5.930880457162857056e-02 -2.374817430973052979e-02 1.045265346765518188e-01 2.846343815326690674e-02 -6.547330319881439209e-02 8.293581753969192505e-02 -6.819932162761688232e-02 5.433191359043121338e-02 7.140380144119262695e-02 -1.166298892349004745e-02 -3.720991313457489014e-02 6.783496588468551636e-02 5.507168173789978027e-02 -3.772426396608352661e-02 1.295110136270523071e-01 -2.385231293737888336e-02 1.187962666153907776e-01 -2.565798722207546234e-02 8.045326173305511475e-02 -5.328305065631866455e-02 1.639293879270553589e-01 -6.775157898664474487e-02 8.629813045263290405e-02 -1.465025395154953003e-01 2.271055243909358978e-02 -5.553651228547096252e-02 5.500036850571632385e-02 -5.665400996804237366e-02 -6.726761162281036377e-02 3.445707261562347412e-02 8.920253068208694458e-02 -7.063774392008781433e-03 1.122903525829315186e-01 1.213301941752433777e-01 1.465128809213638306e-01 -1.781889237463474274e-02 -2.656610682606697083e-02 -1.188040431588888168e-02 -1.042476743459701538e-01 6.261884700506925583e-03 5.910895764827728271e-02 7.000458985567092896e-02 6.451175361871719360e-02 -1.280583292245864868e-01 -1.048464048653841019e-02 -8.632272481918334961e-02 7.620927691459655762e-02 1.076292153447866440e-02 4.937478527426719666e-02 1.183783821761608124e-02 -4.232433065772056580e-02 -4.168954491615295410e-02 4.925164394080638885e-03 7.989469915628433228e-02 4.170163348317146301e-02 7.201706059277057648e-03 1.488818600773811340e-02 -1.293761879205703735e-01 2.806915342807769775e-02 -1.364021897315979004e-01 -4.696065187454223633e-02 -2.795577235519886017e-02 3.611745312809944153e-02 5.238048359751701355e-02 1.237381901592016220e-02 -4.287087172269821167e-02 -1.261502224951982498e-02 6.231959536671638489e-02 -2.980961836874485016e-02 4.424647986888885498e-02 -9.330969303846359253e-02 1.491944342851638794e-01 -7.170712947845458984e-02
-1.385600715875625610e-01 1.256106942892074585e-01 -1.143885329365730286e-01 8.964554220438003540e-02 7.177572697401046753e-02 -1.406327635049819946e-01 5.867471173405647278e-02 2.053257450461387634e-02 1.226530149579048157e-01 1.153698787093162537e-01 -9.037154912948608398e-02 -1.289846152067184448e-01 7.433992624282836914e-02 1.170627623796463013e-01 2.270718291401863098e-02 1.348004341125488281e-01 9.694959968328475952e-02 3.430935367941856384e-02 -1.516207754611968994e-01 -2.521403320133686066e-02 -1.682607643306255341e-02 1.562477741390466690e-02 -5.314802750945091248e-02 1.769325323402881622e-02 -3.369766846299171448e-02 -2.306793071329593658e-02 1.362549960613250732e-01 -6.648456305265426636e-02 -1.294154524803161621e-01 -5.308105424046516418e-02 7.450968027114868164e-02 -8.884210139513015747e-03 -5.876926705241203308e-02 4.187202453613281250e-02 -8.036297559738159180e-02 5.579780787229537964e-02 -9.818906337022781372e-02 2.865812554955482483e-02 -8.197919279336929321e-02 -2.903157658874988556e-02 6.742873694747686386e-03 -1.433085501194000244e-01 -6.449422240257263184e-02 7.041584700345993042e-02 -4.306963831186294556e-02 -1.529784756712615490e-03 2.934657968580722809e-02 -7.895457744598388672e-02 -4.887085780501365662e-02 5.946652591228485107e-02 -4.815494176000356674e-03 8.549246937036514282e-02 1.398643702268600464e-01 -2.253028936684131622e-02 1.123843789100646973e-01 7.260414212942123413e-02 -3.872298821806907654e-02 1.216741800308227539e-01 1.182779967784881592e-01 -8.195956237614154816e-03 -8.238797634840011597e-02 1.251870989799499512e-01 -6.612192094326019287e-02 9.464972466230392456e-02 2.199279703199863434e-02 6.512802839279174805e-02 1.616350859403610229e-01 1.106581613421440125e-01 1.458420306444168091e-01 -4.015095904469490051e-02 3.238851422793231905e-05 5.110633373260498047e-02 4.005598649382591248e-02 1.071557551622390747e-01 1.023119837045669556e-01 2.650346793234348297e-02 -1.163765043020248413e-01 -1.113799065351486206e-01 1.351614445447921753e-01 1.042305491864681244e-02 1.116679534316062927e-01 -4.821796715259552002e-02 -6.482432782649993896e-02 -7.113745808601379395e-02 3.141105175018310547e-02 -1.097439453005790710e-01 -7.485830038785934448e-02 1.095773950219154358e-01 -6.896070390939712524e-02 -7.243838161230087280e-02 -1.567670516669750214e-02 -4.395575076341629028e-02 7.225602120161056519e-02 1.560960803180932999e-02 3.451743978075683117e-04 1.064917147159576416e-01 -6.957757472991943359e-02 -4.696272686123847961e-02 2.706912709982134402e-05 1.392030715942382812e-01 4.637418687343597412e-02 6.592675298452377319e-02 -4.754356667399406433e-02 1.297855675220489502e-01 -4.273213818669319153e-02 5.788336321711540222e-02 5.443453416228294373e-02 -3.160239662975072861e-03 8.293752372264862061e-02 -9.281726181507110596e-02 1.277865916490554810e-01 9.599760174751281738e-02 6.452394276857376099e-02 1.643893308937549591e-02 -6.381539255380630493e-02 7.870269007980823517e-03 1.013001948595046997e-01 5.971976090222597122e-03 3.476521000266075134e-02 1.054117158055305481e-01 -2.500566467642784119e-02 -1.017060969024896622e-02 8.277217857539653778e-03 6.334511190652847290e-02 2.588075399398803711e-02 1.078080460429191589e-01 9.994840621948242188e-02 7.990548759698867798e-02
-4.590174928307533264e-02 -4.973557963967323303e-02 1.223251037299633026e-02 -5.595531780272722244e-03 7.130512967705726624e-03 7.906852662563323975e-02 -1.249696128070354462e-03 6.398177146911621094e-02 -3.874678909778594971e-02 8.475424349308013916e-02 -1.071393936872482300e-01 -6.387356668710708618e-02 5.410565808415412903e-02 1.015275642275810242e-01 -1.072434186935424805e-01 1.131798699498176575e-01 -7.833865284919738770e-02 -1.023364998400211334e-02 -7.790302485227584839e-02 -6.726311892271041870e-02 -3.258472308516502380e-03 -1.306594908237457275e-01 5.955823697149753571e-03 -2.894854731857776642e-02 8.687989413738250732e-02 4.663311410695314407e-03 -8.048640191555023193e-02 1.103295981884002686e-01 -2.064495347440242767e-02 5.029398202896118164e-02 -9.562648087739944458e-02 3.492678701877593994e-02 -1.204942446202039719e-02 -1.168818026781082153e-01 -1.103853210806846619e-01 -1.009450182318687439e-01 5.561521742492914200e-03 -7.942351698875427246e-02 -9.122831374406814575e-02 -4.937203228473663330e-02 8.525352925062179565e-02 9.766206890344619751e-02 9.366206824779510498e-02 -8.247923851013183594e-02 2.754874341189861298e-02 4.533142223954200745e-02 1.319168210029602051e-01 6.660184264183044434e-02 3.416137024760246277e-02 -8.393578231334686279e-02 9.754555672407150269e-02 4.923832416534423828e-02 1.243312656879425049e-01 -4.291839897632598877e-02 1.054573282599449158e-01 -2.973036095499992371e-02 6.044572219252586365e-02 1.536507718265056610e-02 -1.007136236876249313e-02 2.879212424159049988e-02 1.237999647855758667e-01 -1.319116801023483276e-01 2.814451605081558228e-02 9.415389597415924072e-02 -3.095008619129657745e-02 -1.012977329082787037e-03 1.280670519918203354e-02 5.322685092687606812e-02 2.398132905364036560e-02 4.524157848209142685e-03 -1.333332806825637817e-01 4.387527704238891602e-02 -1.082240045070648193e-01 -5.577646568417549133e-02 9.696390479803085327e-03 3.318581357598304749e-02 -1.114407256245613098e-01 -5.614942684769630432e-02 -1.158420071005821228e-01 6.642914563417434692e-02 -1.970100961625576019e-02 -1.152871921658515930e-01 3.932130709290504456e-02 1.361082196235656738e-01 2.824047394096851349e-02 -2.194792032241821289e-02 7.489453256130218506e-02 -2.404625713825225830e-02 -8.038950711488723755e-02 2.133887261152267456e-02 7.127332687377929688e-02 6.234901770949363708e-02 1.598177850246429443e-02 9.567154198884963989e-02 4.542399570345878601e-02 -1.487864740192890167e-02 6.685293465852737427e-02 -1.352095231413841248e-02 9.337962605059146881e-03 1.173290424048900604e-02 -7.897084578871726990e-03 -5.510247312486171722e-03 2.721209824085235596e-02 -2.815824002027511597e-02 1.165214367210865021e-02 -6.615869235247373581e-03 -4.435904324054718018e-02 9.822676330804824829e-02 5.894601345062255859e-02 -2.436541393399238586e-02 -6.111004948616027832e-02 -1.979810371994972229e-02 -7.228031009435653687e-02 -7.460050284862518311e-02 2.940077520906925201e-02 1.353918854147195816e-02 3.548387065529823303e-02 1.178978458046913147e-01 -5.816871416755020618e-04 3.250375017523765564e-02 2.362796850502490997e-02 5.932271480560302734e-02 -5.366214737296104431e-02 4.199486598372459412e-02 1.905813626945018768e-02 1.052045002579689026e-01 -1.069942638278007507e-01 -1.978584751486778259e-02
-1.123895216733217239e-02 2.029454708099365234e-02 4.778203088790178299e-03 -2.730194712057709694e-03 -3.038192912936210632e-02 5.841465294361114502e-02 7.604690641164779663e-02 -2.480841800570487976e-02 3.279420733451843262e-02 8.710817247629165649e-02 -7.935690879821777344e-02 7.802657783031463623e-02 6.253120303153991699e-02 1.122978106141090393e-01 6.839775014668703079e-03 4.972120374441146851e-02 8.622256666421890259e-02 -5.814514309167861938e-02 -3.705442696809768677e-02 7.335674017667770386e-02 7.687246054410934448e-02 1.116669028997421265e-01 7.787386327981948853e-02 1.224551200866699219e-01 8.245738595724105835e-02 -5.501129478216171265e-02 -4.901418089866638184e-02 -4.331000149250030518e-02 4.071808606386184692e-02 -3.220816701650619507e-02 2.792871743440628052e-02 -8.406747132539749146e-02 2.155240066349506378e-02 7.621993124485015869e-02 -3.748302161693572998e-02 -4.616474360227584839e-02 -9.630048274993896484e-02 -5.281980708241462708e-02 -7.796031981706619263e-02 6.703571882098913193e-03 -4.933241009712219238e-02 6.188927590847015381e-02 8.238787204027175903e-02 1.016504243016242981e-01 -2.995524927973747253e-02 5.499105900526046753e-02 5.905501917004585266e-02 6.898375600576400757e-02 -7.181078195571899414e-02 -6.022019684314727783e-02 1.172854676842689514e-01 -5.341237410902976990e-02 6.450009346008300781e-02 6.854901462793350220e-02 1.532201915979385376e-01 -3.066316246986389160e-02 6.000626832246780396e-02 9.234242141246795654e-02 1.499997377395629883e-01 5.543876066803932190e-02 -7.143308222293853760e-02 -5.339205637574195862e-02 9.920404292643070221e-03 -4.565773904323577881e-02 1.454502791166305542e-01 -3.350837901234626770e-02 -7.963089644908905029e-02 -9.198602288961410522e-02 -1.082031875848770142e-01 -2.192198857665061951e-02 9.830886125564575195e-02 8.562835305929183960e-02 3.059171326458454132e-02 1.639981865882873535e-01 7.584265619516372681e-02 4.870032146573066711e-02 2.653149189427495003e-03 -2.158435294404625893e-03 3.743221983313560486e-02 4.492012038826942444e-02 1.874945685267448425e-02 4.726742580533027649e-02 1.050519198179244995e-01 -9.033936262130737305e-02 -6.610527634620666504e-02 -3.297983855009078979e-02 -8.924122899770736694e-02 -2.079986035823822021e-02 -4.697194322943687439e-02 6.985197216272354126e-02 1.027177050709724426e-01 9.032745659351348877e-02 1.352394521236419678e-01 -5.524786561727523804e-02 -3.815592825412750244e-02 6.383698433637619019e-02 2.029418945312500000e-02 1.062409058213233948e-01 -3.526712954044342041e-02 -6.244808062911033630e-02 -5.952334776520729065e-02 2.015954256057739258e-02 3.531835228204727173e-02 8.726956695318222046e-02 -8.672675490379333496e-02 -7.648202031850814819e-02 2.226249128580093384e-02 -8.478926867246627808e-02 -2.217342145740985870e-02 -1.954233273863792419e-02 -2.365112304687500000e-02 7.412276417016983032e-02 8.287223055958747864e-03 7.950648665428161621e-02 1.141554489731788635e-02 6.081946194171905518e-02 -5.098355561494827271e-02 9.091307222843170166e-02 1.107709780335426331e-01 -3.750564763322472572e-03 -5.071510560810565948e-03 -3.461398184299468994e-02 4.340049624443054199e-02 1.377767473459243774e-01 1.766201294958591461e-02 -1.908871694467961788e-03 4.287357907742261887e-03 -6.047385931015014648e-02
5.034950748085975647e-02 2.634760364890098572e-02 -8.209676295518875122e-02 6.690609455108642578e-02 4.654412716627120972e-02 4.472183436155319214e-02 7.006907463073730469e-02 -1.185541227459907532e-01 -3.608298674225807190e-02 1.650265790522098541e-02 1.146171465516090393e-01 4.050558432936668396e-02 -3.291540220379829407e-02 5.260592326521873474e-03 -3.363858908414840698e-03 -2.523467317223548889e-02 9.390952438116073608e-02 -1.016540750861167908e-01 -1.130988225340843201e-01 1.649783924221992493e-02 3.827981278300285339e-02 -1.399854719638824463e-01 -4.685869812965393066e-02 -1.136963590979576111e-01 -3.942540846765041351e-03 -4.315407574176788330e-02 1.163192540407180786e-01 -7.338987290859222412e-02 -7.704451680183410645e-02 -5.237841233611106873e-02 -5.323246121406555176e-03 2.516586333513259888e-02 1.136885732412338257e-01 -7.546640187501907349e-02 -1.183474510908126831e-01 1.001874655485153198e-01 2.531540021300315857e-02 3.761940402910113335e-03 -1.210510581731796265e-01 -6.787178665399551392e-02 6.658478081226348877e-02 -1.366323530673980713e-01 9.889846667647361755e-03 8.886396139860153198e-02 -6.885196268558502197e-02 7.406313717365264893e-02 -1.334346830844879150e-02 7.676484435796737671e-02 6.988944113254547119e-02 -6.940735876560211182e-02 1.394586870446801186e-03 1.555927190929651260e-02 4.446421936154365540e-02 -4.027415998280048370e-03 1.175353527069091797e-01 1.008595451712608337e-01 -7.846045494079589844e-02 3.387712687253952026e-02 1.125292479991912842e-01 -4.965457133948802948e-03 -1.292288489639759064e-02 -1.278388649225234985e-01 7.384310662746429443e-02 9.807481616735458374e-02 6.516881287097930908e-02 -7.851541042327880859e-02 1.079035475850105286e-01 -1.819232362322509289e-03 6.273844093084335327e-02 3.971084952354431152e-02 2.471576444804668427e-02 -5.521665140986442566e-02 2.866097912192344666e-02 7.830977439880371094e-02 5.864521861076354980e-02 -1.381090730428695679e-01 -1.946007716469466686e-03 4.527639131993055344e-03 3.417618572711944580e-02 -4.733652994036674500e-02 3.990645334124565125e-02 5.941298976540565491e-02 7.631685584783554077e-02 5.662524327635765076e-02 8.544195443391799927e-02 -6.484594661742448807e-03 -5.287750437855720520e-02 -1.152745261788368225e-01 2.088874578475952148e-02 -1.632004529237747192e-01 6.699009239673614502e-02 1.185020953416824341e-01 -3.842842206358909607e-02 1.000357605516910553e-02 9.964651614427566528e-02 7.960458099842071533e-02 -5.507195368409156799e-02 7.550085335969924927e-02 -1.938058808445930481e-02 1.188581436872482300e-01 5.765816196799278259e-02 4.473612830042839050e-02 1.584498398005962372e-02 -6.293261051177978516e-02 7.040583994239568710e-03 8.153781294822692871e-02 2.250519581139087677e-03 2.866765111684799194e-02 -1.137327030301094055e-01 -9.986443817615509033e-02 1.425506640225648880e-02 4.887187387794256210e-03 1.538349539041519165e-01 -4.910394921898841858e-02 1.045140326023101807e-01 1.081306710839271545e-01 1.089397892355918884e-01 -1.123752743005752563e-01 -1.421697996556758881e-02 5.485002882778644562e-03 -1.046857088804244995e-01 -6.162792444229125977e-02 4.529894888401031494e-02 -4.956524819135665894e-02 1.091428622603416443e-01 1.630818471312522888e-02 8.957863599061965942e-02 -9.619095362722873688e-03
-1.654413342475891113e-02 2.701559290289878845e-02 -8.983456343412399292e-02 -3.904703631997108459e-02 -1.108886823058128357e-01 -1.560867764055728912e-02 -7.205403875559568405e-03 5.344497039914131165e-02 7.307626307010650635e-02 2.516822423785924911e-03 6.113662570714950562e-02 -7.770810276269912720e-02 -5.604614038020372391e-03 -3.038359060883522034e-02 9.773474931716918945e-02 -1.290811002254486084e-01 -1.526398397982120514e-02 2.998183108866214752e-02 -4.646303132176399231e-02 5.499072745442390442e-02 5.708872899413108826e-02 1.050540059804916382e-01 -3.609333932399749756e-02 7.367429137229919434e-02 3.190144523978233337e-02 1.229475289583206177e-01 -3.050256893038749695e-02 -5.397419631481170654e-02 -1.307511515915393829e-02 9.625923633575439453e-02 9.264436364173889160e-02 6.427495926618576050e-02 -4.135868325829505920e-02 6.447927653789520264e-02 -2.029987797141075134e-02 1.362175494432449341e-01 7.559516280889511108e-02 6.564388982951641083e-03 9.883065707981586456e-03 1.411122083663940430e-01 -2.868236228823661804e-02 1.064849458634853363e-02 -8.265485614538192749e-02 9.940540790557861328e-02 -2.073759399354457855e-02 -4.542259499430656433e-02 1.166063547134399414e-01 -3.011550381779670715e-02 -2.603597752749919891e-02 -6.782044470310211182e-02 9.920588880777359009e-02 2.835723012685775757e-02 6.341221183538436890e-02 5.904373899102210999e-02 1.105700656771659851e-01 3.121740929782390594e-02 -5.540065839886665344e-02 7.094173133373260498e-02 6.579873152077198029e-03 8.420388400554656982e-02 2.330383099615573883e-02 1.300581693649291992e-01 -3.702511638402938843e-02 1.249835453927516937e-02 -3.000631555914878845e-02 -3.766350075602531433e-02 -1.161591336131095886e-01 3.476317971944808960e-02 -1.657771132886409760e-02 1.371921878308057785e-02 9.926754981279373169e-03 -2.324527315795421600e-02 1.465665847063064575e-01 8.399090729653835297e-03 4.509020969271659851e-02 -1.193969137966632843e-02 5.153459683060646057e-02 -6.651681382209062576e-03 -4.104056209325790405e-02 -6.200976204127073288e-03 8.455574512481689453e-03 1.411762088537216187e-01 1.345757544040679932e-01 1.421428769826889038e-01 6.315900385379791260e-02 -1.249479968100786209e-02 1.462667733430862427e-01 -8.989972621202468872e-02 -8.714298158884048462e-02 6.796192377805709839e-03 1.306565552949905396e-01 -1.556739863008260727e-02 8.290821313858032227e-02 1.009056121110916138e-01 8.111894875764846802e-02 -3.550370410084724426e-02 8.952694386243820190e-02 -2.335118502378463745e-02 1.142307892441749573e-01 9.956161677837371826e-02 1.271916627883911133e-01 -4.458546265959739685e-02 -1.847147825174033642e-03 1.262386590242385864e-01 -1.262478381395339966e-01 1.476641092449426651e-02 6.561455130577087402e-02 -7.934933900833129883e-02 -8.498115837574005127e-02 1.211699694395065308e-01 -1.317191496491432190e-02 3.126167505979537964e-02 1.436657756567001343e-01 -6.408271193504333496e-02 4.972244799137115479e-02 1.373408436775207520e-01 -1.330234408378601074e-01 -5.350676551461219788e-02 5.611560121178627014e-02 1.120104044675827026e-01 7.009008526802062988e-02 1.219558529555797577e-02 -9.963993914425373077e-03 5.031434819102287292e-02 -8.820692449808120728e-02 6.327567994594573975e-02 -1.434132009744644165e-01 -7.810968160629272461e-02
-5.410114303231239319e-02 1.252672970294952393e-01 -3.015087917447090149e-02 -1.006066612899303436e-02 7.102676481008529663e-02 3.812439367175102234e-02 1.422447711229324341e-02 1.492450088262557983e-01 3.601638227701187134e-02 -1.829718053340911865e-02 -4.149360209703445435e-02 -1.277977526187896729e-01 -7.521760463714599609e-02 7.666555698961019516e-03 -1.680252514779567719e-02 5.652681738138198853e-02 9.343682229518890381e-02 -3.881057724356651306e-02 -4.653990268707275391e-02 -2.146398648619651794e-02 -1.918519847095012665e-02 -1.375141460448503494e-02 -8.700709044933319092e-02 8.704765141010284424e-02 1.395594328641891479e-02 6.131658330559730530e-02 -1.037415117025375366e-01 1.156768500804901123e-01 -1.595662347972393036e-02 6.385479122400283813e-02 -2.111877547577023506e-03 5.575498193502426147e-02 -1.207464039325714111e-01 -6.466867774724960327e-02 4.293665289878845215e-02 6.986698601394891739e-03 2.901592105627059937e-02 -5.776781961321830750e-02 3.067862056195735931e-02 7.220605760812759399e-02 1.302888430655002594e-02 1.237108856439590454e-01 -5.458774417638778687e-02 5.403235182166099548e-02 4.588863253593444824e-02 3.544785454869270325e-02 8.118972927331924438e-02 -1.206997223198413849e-02 5.316297709941864014e-02 3.204011917114257812e-02 1.297463476657867432e-02 3.526095673441886902e-02 -9.447730146348476410e-03 2.700682915747165680e-02 -1.238072570413351059e-02 -6.612545251846313477e-02 2.823503687977790833e-02 7.030045986175537109e-02 -4.811138287186622620e-02 -5.318194627761840820e-02 1.478547900915145874e-01 -4.498664662241935730e-02 -8.285474963486194611e-03 -2.502230182290077209e-02 7.143519818782806396e-02 2.653154730796813965e-02 6.688481569290161133e-02 8.764495700597763062e-02 1.301129758358001709e-01 1.034551858901977539e-01 1.516669392585754395e-01 -5.173270404338836670e-02 1.042625308036804199e-02 8.627620339393615723e-02 2.981009334325790405e-02 -3.041417896747589111e-02 -9.509417414665222168e-02 6.561419367790222168e-02 5.015362799167633057e-02 7.068938761949539185e-02 -5.614317953586578369e-02 -4.499028995633125305e-02 3.975164517760276794e-02 1.306403279304504395e-01 3.518500551581382751e-02 3.078504838049411774e-02 -8.276136219501495361e-02 6.141275167465209961e-02 7.253028452396392822e-02 6.443764269351959229e-02 6.462715566158294678e-02 1.898259669542312622e-02 2.528595551848411560e-02 -4.974131006747484207e-03 6.491344422101974487e-02 -9.833908081054687500e-02 -3.349915519356727600e-02 -7.195326685905456543e-02 1.393551938235759735e-02 -2.240230701863765717e-02 1.271765977144241333e-01 -8.366494625806808472e-02 -6.596001237630844116e-02 -4.875420033931732178e-02 1.014537215232849121e-01 -5.580502003431320190e-02 4.474102333188056946e-02 4.152118042111396790e-02 1.203895360231399536e-02 -7.565587759017944336e-02 -1.444309949874877930e-02 1.549676712602376938e-02 2.492161653935909271e-02 8.008729666471481323e-02 8.081351220607757568e-02 6.648407131433486938e-02 -3.161760419607162476e-02 3.404939919710159302e-02 5.449316650629043579e-02 8.617650717496871948e-02 1.005087271332740784e-01 1.211460828781127930e-01 2.144106104969978333e-02 -4.220758378505706787e-02 1.209306791424751282e-01 2.847663685679435730e-02 -5.725103989243507385e-02 3.248821943998336792e-03
-1.800749637186527252e-02 4.838543385267257690e-02 -1.535998843610286713e-02 9.621475636959075928e-02 6.458040326833724976e-02 -6.119052693247795105e-02 -2.445488609373569489e-02 1.246530562639236450e-01 1.032542139291763306e-01 1.368921399116516113e-01 -1.052569895982742310e-01 -1.287825126200914383e-02 -1.370520703494548798e-02 1.475155949592590332e-01 -2.564302645623683929e-02 1.582985669374465942e-01 4.015614837408065796e-02 -3.982817754149436951e-03 -1.412104517221450806e-01 5.762049928307533264e-02 2.057374827563762665e-02 2.382034808397293091e-02 -4.800410196185112000e-02 1.477980986237525940e-02 -2.598824165761470795e-02 2.521473541855812073e-02 1.020847931504249573e-01 6.219994649291038513e-02 -4.976097494363784790e-02 -7.361070811748504639e-02 2.280830405652523041e-02 -9.556859731674194336e-02 -8.237776160240173340e-02 -2.164728380739688873e-02 -1.655388623476028442e-02 9.622354805469512939e-02 -9.108155965805053711e-02 -4.193412885069847107e-02 2.183540491387248039e-03 3.455989807844161987e-02 -5.070963874459266663e-02 -1.038698703050613403e-01 -8.617936819791793823e-02 -5.058767646551132202e-02 1.235486119985580444e-01 2.997224032878875732e-02 4.871449619531631470e-02 -6.924602389335632324e-02 -7.824850082397460938e-02 1.393345277756452560e-02 1.286131292581558228e-01 6.133133545517921448e-02 2.997877262532711029e-02 -5.214128270745277405e-02 4.938420280814170837e-02 -6.233410909771919250e-02 -1.301476359367370605e-02 -2.615068480372428894e-02 -2.085275389254093170e-02 7.908948510885238647e-02 -8.854343742132186890e-02 7.906641066074371338e-02 8.379184454679489136e-02 1.046843305230140686e-01 1.420841217041015625e-01 -4.861283116042613983e-03 9.475007653236389160e-02 3.696524724364280701e-02 1.175385564565658569e-01 7.522169500589370728e-02 -8.835472166538238525e-02 6.315813958644866943e-02 -7.416795939207077026e-02 3.646624088287353516e-02 3.067644126713275909e-02 1.129000410437583923e-01 -4.156729206442832947e-02 -6.734510511159896851e-02 1.202379986643791199e-01 -1.772103644907474518e-02 7.182481139898300171e-02 -1.235683411359786987e-01 -3.196875378489494324e-02 -5.345499888062477112e-02 6.264752894639968872e-02 2.380672469735145569e-02 6.804928928613662720e-02 6.720264256000518799e-02 -9.487919509410858154e-02 -5.135192349553108215e-02 1.361592411994934082e-01 4.687858372926712036e-02 2.465871535241603851e-02 4.057626053690910339e-02 9.277015179395675659e-02 6.892841309309005737e-02 1.181100010871887207e-01 -9.920828044414520264e-02 8.176743984222412109e-02 4.279380291700363159e-02 7.475977391004562378e-02 4.644418135285377502e-02 1.718926616013050079e-02 3.531151264905929565e-02 6.330638378858566284e-02 5.481571424752473831e-03 3.509042412042617798e-02 1.814994774758815765e-02 1.075808331370353699e-02 -1.005410682410001755e-02 5.999404191970825195e-02 7.215949147939682007e-02 -1.700707594864070415e-03 -6.747113168239593506e-02 8.115537464618682861e-02 8.137641102075576782e-02 -7.997211068868637085e-03 8.577220141887664795e-03 4.349515587091445923e-02 9.818814694881439209e-02 1.210003644227981567e-01 1.523000840097665787e-02 -1.348784938454627991e-02 1.272230297327041626e-01 1.068978905677795410e-01 1.148337498307228088e-01 -6.958186160773038864e-03 1.093272715806961060e-01
-4.612585529685020447e-02 8.892607875168323517e-03 -3.803497925400733948e-02 6.861650943756103516e-02 1.243304908275604248e-01 1.153482869267463684e-01 7.955214381217956543e-02 -9.972154162824153900e-03 1.261972784996032715e-01 3.554233908653259277e-02 8.653171360492706299e-02 -6.683747633360326290e-04 1.118456199765205383e-02 -1.925811171531677246e-02 -8.349903672933578491e-02 2.277034707367420197e-02 1.214567646384239197e-01 -1.326857879757881165e-02 -6.810142099857330322e-02 -3.595911338925361633e-02 4.817331954836845398e-02 2.446669898927211761e-02 7.122765481472015381e-02 -3.631224483251571655e-02 -9.154696017503738403e-02 -1.014870926737785339e-01 -1.615078933537006378e-02 -2.024274505674839020e-02 -5.393913015723228455e-02 -4.492128640413284302e-02 -3.495654091238975525e-02 2.666531875729560852e-02 -4.669300466775894165e-02 -4.624638706445693970e-02 -6.389825046062469482e-02 2.150223962962627411e-02 -4.001936689019203186e-02 -4.903383180499076843e-02 3.190178051590919495e-02 -1.180023699998855591e-01 -3.819326171651482582e-03 3.896455466747283936e-02 -2.529651112854480743e-02 7.063084095716476440e-02 4.889872670173645020e-02 -6.820289045572280884e-02 7.012845575809478760e-02 -8.956490084528923035e-03 4.527044016867876053e-03 -4.454684630036354065e-02 3.413041308522224426e-02 -9.032804518938064575e-02 8.212739974260330200e-02 5.019325017929077148e-02 1.265907660126686096e-03 5.158839747309684753e-02 -9.422302991151809692e-02 -3.088975138962268829e-02 1.122496202588081360e-01 -4.770749714225530624e-03 4.787595942616462708e-02 3.714728355407714844e-02 -3.079912811517715454e-02 -3.182017803192138672e-02 5.978522822260856628e-02 -1.965835131704807281e-02 9.534166753292083740e-02 8.404111117124557495e-02 8.977916836738586426e-02 1.061112731695175171e-01 -6.251179426908493042e-02 3.144790232181549072e-02 7.125393301248550415e-02 6.463351100683212280e-02 7.216744869947433472e-02 -2.001172630116343498e-03 -1.824682019650936127e-02 -2.875133417546749115e-02 -8.114179223775863647e-02 -2.796514146029949188e-02 -6.451594643294811249e-03 -4.229298979043960571e-02 -6.613436341285705566e-02 -1.492846477776765823e-02 7.229357957839965820e-02 1.966097205877304077e-02 -1.249725893139839172e-01 1.597023569047451019e-02 -1.243343483656644821e-02 1.623884886503219604e-01 -5.376771464943885803e-02 -3.070313297212123871e-02 2.953960373997688293e-02 5.243907868862152100e-02 -9.183105081319808960e-02 -6.304741650819778442e-02 -6.126328930258750916e-02 -4.779830574989318848e-02 -5.098493769764900208e-02 2.333276346325874329e-02 6.162002310156822205e-02 1.243649050593376160e-02 -8.913230895996093750e-02 6.208770349621772766e-02 -5.483565852046012878e-03 2.205058559775352478e-02 2.039519697427749634e-02 -6.845251470804214478e-02 -3.506958112120628357e-02 7.517369091510772705e-02 -4.191148653626441956e-02 1.012800447642803192e-02 -3.554652631282806396e-02 8.034706115722656250e-02 2.227820083498954773e-02 -1.206304598599672318e-02 -3.082870878279209137e-02 -5.673686414957046509e-02 1.378810219466686249e-02 1.956057921051979065e-02 -7.953992486000061035e-02 2.452808839734643698e-04 -4.106291010975837708e-02 -7.330785691738128662e-02 1.182437525130808353e-03 1.072377413511276245e-01 2.111452259123325348e-02 1.437039226293563843e-01
1.259499043226242065e-01 1.129572652280330658e-02 -1.250673457980155945e-02 1.686372235417366028e-02 -5.525384843349456787e-02 -1.189470365643501282e-01 3.772556036710739136e-02 -1.182076036930084229e-01 -1.289805024862289429e-02 7.272393256425857544e-02 -5.592042580246925354e-02 5.310982093214988708e-02 5.085991695523262024e-02 -3.583339601755142212e-02 1.109186485409736633e-01 2.830304019153118134e-02 7.419587671756744385e-02 1.258836537599563599e-01 1.928859949111938477e-02 1.190494224429130554e-01 6.273858249187469482e-02 4.422741383314132690e-02 -6.522172130644321442e-03 -2.648855559527873993e-02 -8.275522850453853607e-03 5.109775811433792114e-02 1.071193143725395203e-01 4.956262558698654175e-02 1.162558421492576599e-02 -2.422379329800605774e-02 3.266659006476402283e-02 -3.478598594665527344e-02 1.090181618928909302e-01 1.065173745155334473e-01 -7.080294936895370483e-02 -1.828818395733833313e-02 -1.574322730302810669e-01 4.730166494846343994e-02 1.131153777241706848e-01 -1.875079423189163208e-02 -4.504987597465515137e-02 -7.520794123411178589e-02 9.240508079528808594e-03 1.182449087500572205e-01 -4.929155111312866211e-03 -5.421703681349754333e-02 -1.147425249218940735e-01 4.734628275036811829e-02 3.567506559193134308e-03 -1.816543936729431152e-02 -6.953119765967130661e-03 1.032271087169647217e-01 -1.905586570501327515e-02 -4.995235055685043335e-02 4.547953233122825623e-02 7.122249901294708252e-02 -2.295940555632114410e-02 8.691295981407165527e-02 7.585212588310241699e-02 5.258326977491378784e-02 -8.098647743463516235e-02 1.440479457378387451e-01 6.372575648128986359e-03 3.564765304327011108e-02 1.153714433312416077e-01 -8.166568726301193237e-02 1.248735412955284119e-01 6.088997423648834229e-02 4.309037700295448303e-02 4.919743910431861877e-02 -5.341595038771629333e-03 5.425798892974853516e-02 2.932779118418693542e-02 2.315186522901058197e-02 -8.652700483798980713e-02 -1.351293027400970459e-01 -1.188779845833778381e-01 9.816080331802368164e-02 4.364287480711936951e-03 -1.363332383334636688e-02 4.266186058521270752e-02 4.415908455848693848e-02 4.431170970201492310e-02 -9.282092005014419556e-02 6.906950473785400391e-02 3.158404678106307983e-02 -5.178588256239891052e-02 6.253623217344284058e-02 1.314739733934402466e-01 -1.026817411184310913e-01 -6.931791454553604126e-02 -4.176941700279712677e-03 2.823743410408496857e-02 8.222120255231857300e-02 -1.178934499621391296e-01 -3.120085783302783966e-02 9.807654656469821930e-03 6.894968450069427490e-02 -1.586144044995307922e-02 -8.010081946849822998e-02 -2.705488121137022972e-03 -1.484385598450899124e-02 1.213736906647682190e-01 1.351217329502105713e-01 -2.425860241055488586e-02 7.352387905120849609e-02 -2.372065000236034393e-02 7.893647253513336182e-02 -1.807441189885139465e-02 -1.289930939674377441e-01 -8.241087943315505981e-02 7.846010476350784302e-02 5.925143882632255554e-02 4.948860406875610352e-02 -9.399206191301345825e-02 -1.247181221842765808e-01 -6.952016800642013550e-02 -1.170368790626525879e-01 1.345630735158920288e-01 -1.339658945798873901e-01 1.065158247947692871e-01 5.114797037094831467e-03 -1.316240523010492325e-02 2.143673598766326904e-02 -7.396385073661804199e-02 -3.562172129750251770e-02 -3.201394155621528625e-02 -1.146844401955604553e-01
