9.981673210859298706e-03 1.752638444304466248e-02 2.307343296706676483e-02 -2.336398325860500336e-02 2.494221180677413940e-02 -9.232038864865899086e-04 5.112858861684799194e-02 3.772386163473129272e-02 6.176608800888061523e-02 3.419664874672889709e-02 2.102920785546302795e-02 5.785887315869331360e-02 1.299955882132053375e-02 -1.318004168570041656e-02 3.816308081150054932e-02 2.890107862185686827e-05 8.802446722984313965e-02 3.885614499449729919e-02 1.075466163456439972e-02 -2.519254339858889580e-04 5.008153244853019714e-02 -7.883508689701557159e-03 -3.547122702002525330e-02 -1.177802961319684982e-02 1.937774196267127991e-02 1.215694565325975418e-02 2.800473570823669434e-02 -8.240615576505661011e-02 -8.579437620937824249e-03 -6.436900049448013306e-02 4.583244398236274719e-02 -2.147754281759262085e-02 1.406661141663789749e-02 2.076569944620132446e-02 5.102069675922393799e-02 -2.624269947409629822e-02 5.530470237135887146e-02 -1.353631820529699326e-02 1.129755005240440369e-02 3.792635723948478699e-02 -8.885501883924007416e-03 1.246508560143411160e-03 1.847367733716964722e-02 3.033230453729629517e-02 -9.483605390414595604e-04 6.405334919691085815e-02 3.485681489109992981e-02 -1.069298572838306427e-02 -1.673591881990432739e-02 -9.838519617915153503e-03 -1.868950016796588898e-02 -1.935115270316600800e-02 4.259280394762754440e-03 5.569728836417198181e-02 7.861343771219253540e-02 -2.730685099959373474e-02 9.828446432948112488e-03 -3.986280784010887146e-02 5.879401043057441711e-02 7.543290406465530396e-02 9.097620844841003418e-03 -8.129393309354782104e-02 -7.300981879234313965e-02 7.996395975351333618e-02 4.781951382756233215e-02 4.690399020910263062e-02 6.718112621456384659e-03 2.206249535083770752e-02 7.999973744153976440e-02 -5.860514193773269653e-02 3.010175190865993500e-02 4.808874800801277161e-02 4.980846866965293884e-02 -1.570733822882175446e-02 3.496510162949562073e-02 -1.410792302340269089e-02 5.908114463090896606e-02 3.271649405360221863e-02 -5.389445647597312927e-02 -4.548719525337219238e-02 -7.909698039293289185e-02 2.703266963362693787e-02 5.999751389026641846e-03 -4.812556877732276917e-02 3.704787418246269226e-02 5.004170909523963928e-02 1.839433563873171806e-03 -7.440987229347229004e-02 5.867384746670722961e-02 -2.246333053335547447e-03 2.198391407728195190e-02 -6.383641809225082397e-02 2.589397132396697998e-02 -4.002948105335235596e-02 -4.880264401435852051e-02 6.934410333633422852e-02 -8.074907958507537842e-02 -3.368453681468963623e-02 6.617669016122817993e-02 2.260728739202022552e-02 6.787341088056564331e-02 4.083527252078056335e-02 -1.414821855723857880e-02 5.002985708415508270e-03 5.160716548562049866e-02 4.894760996103286743e-02 -1.259395945817232132e-02 -1.666501909494400024e-02 5.220357701182365417e-02 -2.129219658672809601e-02 -2.023302204906940460e-02 -3.183669969439506531e-02 3.763939067721366882e-02 -1.174295600503683090e-02 2.281535416841506958e-02 -3.258680924773216248e-02 -4.666168615221977234e-02 3.075486794114112854e-02 -3.637987002730369568e-02 -4.640824720263481140e-02 5.538993328809738159e-02 1.565293781459331512e-02 -8.095590164884924889e-04 5.236191675066947937e-03 5.813672021031379700e-02 6.353315711021423340e-02 9.884905302897095680e-04 -4.749903455376625061e-02 5.180670320987701416e-02 8.933793753385543823e-02 -1.521392376162111759e-03 6.087109912186861038e-03 1.934946328401565552e-02 1.838215626776218414e-02 -3.422590671107172966e-03 -4.664391744881868362e-03 -4.224444553256034851e-02 6.279250979423522949e-02 2.742394246160984039e-02 -1.245789788663387299e-02 7.250812649726867676e-02 7.043978571891784668e-02 1.290070638060569763e-02 6.070083007216453552e-02 3.585005551576614380e-02 1.222827192395925522e-02 6.818781606853008270e-03 6.325329840183258057e-02 -3.929596394300460815e-02 1.750490628182888031e-02 5.799815058708190918e-02 9.403864294290542603e-02 5.683530494570732117e-02 9.032625705003738403e-02 -9.193964302539825439e-03 6.050292402505874634e-02 5.014613643288612366e-02 2.986495196819305420e-02 1.003707200288772583e-01 2.405631169676780701e-02 4.255147278308868408e-02 8.555348962545394897e-02 2.762506529688835144e-02 7.682588696479797363e-02 -5.840491876006126404e-02 -7.099190354347229004e-02 2.368203178048133850e-02 3.093242645263671875e-02 1.831518858671188354e-02 5.920730158686637878e-02 -6.176593527197837830e-02 -5.253733694553375244e-02 -4.581182263791561127e-03 -4.008584469556808472e-02 -2.295439504086971283e-02 4.949455335736274719e-02 9.476174600422382355e-03 -5.233017727732658386e-03 2.266775816679000854e-02 -6.548787653446197510e-02 3.707426041364669800e-02 -4.965832456946372986e-03 -5.271915346384048462e-02 -8.666859567165374756e-02 1.931046321988105774e-02 3.521633148193359375e-02 -6.276433169841766357e-02 4.778193309903144836e-02 -2.947945147752761841e-02 -3.799839876592159271e-03 9.628748521208763123e-03 -1.492564566433429718e-02 6.558337807655334473e-02 8.861294016242027283e-03 5.258733406662940979e-02 -4.400938376784324646e-02 1.846906729042530060e-02 5.116158351302146912e-02 1.589929684996604919e-02 3.747500479221343994e-02 5.485225096344947815e-02 7.832132279872894287e-03 -7.731370627880096436e-02 2.285719476640224457e-02 1.517881173640489578e-02 -8.047135919332504272e-02 -3.261950612068176270e-02 4.881694540381431580e-02 3.694259375333786011e-02 3.204199299216270447e-02 -2.143035270273685455e-02 9.118774533271789551e-02 -5.439139902591705322e-02 -2.822165191173553467e-02 2.683447673916816711e-02 3.583502396941184998e-02 9.037636965513229370e-02 -4.110310226678848267e-02 1.468562427908182144e-02 1.412427145987749100e-02 1.949201337993144989e-02 -2.172728814184665680e-02 2.816973067820072174e-02 3.955572843551635742e-02 -5.269225686788558960e-03 1.431085634976625443e-02 3.193322941660881042e-02 6.044511124491691589e-02 1.435521058738231659e-02 -8.863339200615882874e-03 -2.716459333896636963e-02 -6.883259117603302002e-02 4.944676533341407776e-02 -1.498937979340553284e-02 -3.520682081580162048e-02 -2.726727724075317383e-02 6.471399217844009399e-02 6.614597979933023453e-03 3.429568931460380554e-02 -2.258655801415443420e-02 1.556436531245708466e-02 1.142767816781997681e-02 5.317773297429084778e-02 4.588952288031578064e-02 5.380314961075782776e-02 8.392392098903656006e-02 6.033428758382797241e-02 -1.310622133314609528e-02 2.689581364393234253e-02 7.989219576120376587e-02 -3.500634059309959412e-02 3.218592703342437744e-02 -2.872989140450954437e-02 2.528185024857521057e-02 2.969473414123058319e-02 -5.303437635302543640e-02 4.738745465874671936e-02 4.175544157624244690e-02 6.094289198517799377e-02 1.929482631385326385e-02 3.281991928815841675e-02 4.623241722583770752e-02 3.291094675660133362e-02 -5.019284039735794067e-02 1.456901431083679199e-02 3.754260018467903137e-02 8.463215082883834839e-02 4.705650731921195984e-02 -2.660987712442874908e-02 -2.284501912072300911e-03 4.220965504646301270e-02 8.089814800769090652e-04 4.713693633675575256e-02 2.122398838400840759e-02 -2.660461142659187317e-02 6.288623064756393433e-02 1.555347722023725510e-02 4.237064719200134277e-02 -5.447757989168167114e-02 -5.240613967180252075e-02 6.707680225372314453e-02 4.718143120408058167e-02 -1.049088593572378159e-02 6.100928410887718201e-02 8.824970573186874390e-02 -2.919756062328815460e-02 1.494425162672996521e-02 -2.582082152366638184e-02 1.438824366778135300e-02 6.846699863672256470e-02 9.050855785608291626e-02 8.876452594995498657e-02 6.585791707038879395e-02 1.066946983337402344e-02 4.780486598610877991e-02 -4.688607528805732727e-02 8.799171447753906250e-02 5.396761000156402588e-03 -9.262610226869583130e-03 -4.236313328146934509e-02 1.310700271278619766e-02 -7.663667201995849609e-02 2.243658527731895447e-02 -1.483074575662612915e-02 4.237803071737289429e-02 3.767962008714675903e-02 -1.484075747430324554e-02 7.118137180805206299e-02 8.098224550485610962e-02 2.578544057905673981e-02 -1.603609323501586914e-02 6.876216735690832138e-03 3.431723266839981079e-02 -6.706160306930541992e-02 9.682331979274749756e-02 -7.796016335487365723e-02 1.659623719751834869e-02 1.470022462308406830e-02 4.846548195928335190e-03 -6.940167397260665894e-02 5.378300324082374573e-02 6.438094377517700195e-02 4.086823388934135437e-02 2.880688756704330444e-02 -8.720282348804175854e-04 9.102696925401687622e-02 -5.902323126792907715e-02 -6.168373674154281616e-02 -2.473673969507217407e-02 3.971619531512260437e-02 2.800267562270164490e-02 1.859136298298835754e-02 -6.460992991924285889e-02 3.517149388790130615e-02 3.914008289575576782e-02 -8.277029544115066528e-02 9.932650253176689148e-03 7.288399152457714081e-03 3.622486814856529236e-02 -1.310109999030828476e-02 -1.948531344532966614e-02 4.044888168573379517e-02 -1.546292845159769058e-02 1.565049402415752411e-02 7.248886674642562866e-02 2.907301858067512512e-02 4.661646857857704163e-02 1.908454857766628265e-02 4.932437464594841003e-02 7.039155811071395874e-02 8.114595711231231689e-02 1.836938224732875824e-02 3.534904867410659790e-02 4.467936977744102478e-02 2.983088232576847076e-02 6.890267133712768555e-02 5.015010386705398560e-02 3.251289203763008118e-02 2.495176903903484344e-02 2.297338796779513359e-03 1.291216257959604263e-02 8.827283233404159546e-02 5.177774280309677124e-02 2.985921688377857208e-02 -2.859844267368316650e-02 5.914955958724021912e-02 3.495202586054801941e-02 6.111850589513778687e-02 6.297064572572708130e-02 7.744289189577102661e-02 7.580943405628204346e-02 -3.641935437917709351e-02 6.670740991830825806e-02 -3.703951835632324219e-02 5.127385258674621582e-02 -4.560381546616554260e-02 2.856471948325634003e-02 1.974050141870975494e-02 7.992868870496749878e-02 3.788996115326881409e-02 7.180029153823852539e-02 -2.345197461545467377e-02 8.275650441646575928e-02 4.665116220712661743e-02 -4.741012584418058395e-03 5.236028879880905151e-02 6.795246899127960205e-02 -6.007520481944084167e-02 -5.011271312832832336e-02 -4.088915884494781494e-03 -2.222925052046775818e-02 -7.813771255314350128e-03 -3.373856889083981514e-03 3.852449730038642883e-02 4.317261651158332825e-02 1.421842444688081741e-02 8.079383522272109985e-02 -4.738387942779809237e-04 1.648423448204994202e-02 6.076523289084434509e-02 1.664026267826557159e-02 4.561397433280944824e-02 1.823862269520759583e-02 3.668140992522239685e-02 2.234200201928615570e-02 -7.538387179374694824e-02 -1.037461534142494202e-01 -1.143769244663417339e-03 3.636071830987930298e-02 -2.045869454741477966e-02 5.155278369784355164e-02 7.612628489732742310e-02 2.096340619027614594e-02 -5.598895624279975891e-02 6.070042029023170471e-02 4.908747971057891846e-02 -1.097018015570938587e-03 9.904411435127258301e-02 -1.512266229838132858e-02 -2.381998673081398010e-02 7.645159959793090820e-02 7.321502268314361572e-02 5.254948511719703674e-02 1.962738111615180969e-02 2.528847567737102509e-02 -1.276148669421672821e-02 -5.245376378297805786e-02 -1.576908491551876068e-02 9.358529746532440186e-02 -1.858971081674098969e-02 -3.105735592544078827e-02 3.755680471658706665e-02 6.543236225843429565e-02 -9.614580310881137848e-03 -2.669799141585826874e-02 -2.803587913513183594e-02 1.272506359964609146e-02 5.133153870701789856e-02 5.705870315432548523e-02 -4.408999811857938766e-03 2.573843114078044891e-02 3.027913719415664673e-02 8.600841462612152100e-02 3.440022841095924377e-02 7.512634992599487305e-02 4.100028797984123230e-02 -2.940984815359115601e-02 4.471907392144203186e-02 1.917416788637638092e-02 -3.810745850205421448e-02 1.022070720791816711e-01 6.112180650234222412e-02 -2.522420138120651245e-02 -5.109124258160591125e-02 9.037377685308456421e-02 8.773668669164180756e-04 5.727621261030435562e-03 -3.043774515390396118e-02 3.943070024251937866e-02 2.508980408310890198e-02 2.727040462195873260e-02 6.594947725534439087e-02 -4.340161383152008057e-02 4.535990953445434570e-02 1.328166201710700989e-02 7.012601941823959351e-02 9.712129831314086914e-03 2.646140940487384796e-02 7.422368228435516357e-02 -6.509108841419219971e-02 -2.682678773999214172e-02 4.860689863562583923e-02 8.972537517547607422e-02 9.343730658292770386e-02 9.539651870727539062e-02 6.406489014625549316e-02 1.361866109073162079e-02 7.585584535263478756e-04 8.659804612398147583e-02 8.338192850351333618e-02 -1.989054307341575623e-02 -1.164826657623052597e-02 7.426638156175613403e-02 1.311033498495817184e-02 5.290435627102851868e-02 -2.771727554500102997e-02 5.689677968621253967e-02 5.766743328422307968e-03 -6.346220523118972778e-02 6.059649400413036346e-03 -8.885237621143460274e-04 8.833703398704528809e-02 3.809348866343498230e-02 5.581754818558692932e-02 -3.278203308582305908e-02 9.750139899551868439e-03 7.851048558950424194e-02 5.604039877653121948e-02 1.649464666843414307e-02 1.207929477095603943e-02 -3.693859558552503586e-03 5.524642020463943481e-02 3.678279742598533630e-02 6.657680124044418335e-02 -6.050951778888702393e-02 1.448847260326147079e-02 3.348163515329360962e-02 9.470109641551971436e-02 6.293042749166488647e-02 -1.161055453121662140e-02 5.860475357621908188e-04 1.314060203731060028e-02
-5.565186589956283569e-02 1.142469514161348343e-02 4.811228439211845398e-02 8.122903853654861450e-02 -2.941838279366493225e-02 -1.218236982822418213e-02 3.369950223714113235e-03 2.594515122473239899e-02 1.106252335011959076e-02 3.904703631997108459e-02 -5.460837483406066895e-02 -1.424878020770847797e-03 1.392169576138257980e-02 5.768899619579315186e-02 -5.745499581098556519e-02 9.726472198963165283e-02 -1.695133186876773834e-02 -3.546449588611721992e-03 1.603351160883903503e-02 7.449926435947418213e-02 -4.573570564389228821e-02 -4.465710744261741638e-02 -2.398055605590343475e-02 -6.397955119609832764e-03 -2.412433736026287079e-02 -1.476429123431444168e-02 -1.322022452950477600e-02 2.129208855330944061e-02 9.007319062948226929e-02 3.017304465174674988e-02 3.842458873987197876e-02 6.866588443517684937e-02 1.675819233059883118e-02 -1.567799039185047150e-02 -2.663312666118144989e-02 -1.500943861901760101e-02 -6.598051637411117554e-02 9.085892140865325928e-02 2.910953387618064880e-02 8.616828173398971558e-02 7.248281687498092651e-02 1.168166846036911011e-02 5.539793521165847778e-02 -3.029435686767101288e-02 2.085027284920215607e-03 1.220103260129690170e-02 -1.524814870208501816e-02 3.642082586884498596e-02 6.015911698341369629e-02 2.456091530621051788e-02 4.675803706049919128e-02 9.124031662940979004e-02 2.000737749040126801e-02 -1.058913115411996841e-02 -2.124966681003570557e-02 2.863698266446590424e-02 3.953651338815689087e-02 5.534866452217102051e-02 -2.302281931042671204e-02 -2.902422286570072174e-02 -2.463854663074016571e-02 6.820321083068847656e-02 3.798307105898857117e-02 1.137031894177198410e-02 4.693325236439704895e-02 8.479262888431549072e-02 6.324968487024307251e-02 -3.762347251176834106e-02 -9.652828797698020935e-03 2.447667904198169708e-02 -1.608924381434917450e-02 2.856347523629665375e-02 -2.174027822911739349e-02 8.248841017484664917e-02 4.145504534244537354e-02 -2.972057089209556580e-02 -4.139882978051900864e-03 -6.545338034629821777e-02 4.127526283264160156e-02 4.232372343540191650e-02 -2.694073505699634552e-02 1.817969791591167450e-02 -1.585824228823184967e-02 5.651365593075752258e-02 5.306971818208694458e-02 2.004432864487171173e-02 -2.478276006877422333e-02 2.634738571941852570e-02 3.297129645943641663e-02 -3.638892201706767082e-03 1.690614596009254456e-02 4.953791387379169464e-03 -5.807593930512666702e-03 1.054875627160072327e-01 5.718016996979713440e-02 8.853035978972911835e-04 1.253514271229505539e-02 2.347504906356334686e-02 3.676842898130416870e-02 -2.245923317968845367e-02 -2.018674835562705994e-02 1.920739188790321350e-02 5.716179683804512024e-02 7.735958695411682129e-02 5.856742337346076965e-02 -2.973389625549316406e-02 7.921221107244491577e-02 7.551120221614837646e-02 -7.558421790599822998e-02 5.393100529909133911e-02 4.964359849691390991e-02 8.894890546798706055e-02 -3.082100488245487213e-02 8.803021162748336792e-02 4.054193571209907532e-02 1.617822423577308655e-02 1.995535008609294891e-02 6.828311830759048462e-02 3.329322114586830139e-02 1.015494093298912048e-01 5.625077756121754646e-04 1.621593837626278400e-03 -7.868801802396774292e-02 -7.119133323431015015e-02 -4.055612906813621521e-02 -2.154130954295396805e-03 7.927171885967254639e-02 5.824396759271621704e-02 -2.659510634839534760e-02 -4.405904561281204224e-02 1.298282202333211899e-02 4.986936971545219421e-02 4.740974307060241699e-02 -1.792493648827075958e-02 1.268540881574153900e-02 1.599506661295890808e-02 3.297169506549835205e-02 5.316343531012535095e-02 1.889296993613243103e-02 -1.214457303285598755e-02 -3.541571646928787231e-02 4.391779750585556030e-02 3.657205775380134583e-02 7.313244510442018509e-03 1.013340726494789124e-01 -7.082928903400897980e-03 -2.237951010465621948e-02 1.651533320546150208e-02 7.160991430282592773e-02 5.402766913175582886e-02 -3.131612762808799744e-02 -8.599408902227878571e-03 1.646942831575870514e-02 -7.221413403749465942e-02 -9.442437440156936646e-03 -2.161304093897342682e-02 2.160148695111274719e-02 -4.973034560680389404e-02 -2.765097096562385559e-02 -2.723143994808197021e-02 -2.284610643982887268e-02 -5.804372578859329224e-02 5.053658783435821533e-02 -2.625399641692638397e-02 7.184380665421485901e-03 7.272120565176010132e-02 -7.720257621258497238e-03 4.750590771436691284e-02 -2.083721198141574860e-02 1.361673790961503983e-02 6.476606242358684540e-03 6.310066580772399902e-02 2.847379259765148163e-02 9.311598539352416992e-02 7.476509362459182739e-02 1.609826274216175079e-02 -4.404984042048454285e-02 6.722098588943481445e-02 9.476578235626220703e-02 3.781590610742568970e-02 2.300721034407615662e-02 2.627470763400197029e-03 1.938006095588207245e-02 3.670407086610794067e-02 -2.943393215537071228e-02 -2.060360834002494812e-02 2.709693461656570435e-02 -6.784708797931671143e-02 5.803341418504714966e-02 5.750422552227973938e-02 1.000159978866577148e-01 3.174914419651031494e-02 -2.899817377328872681e-02 8.948173373937606812e-03 -4.627687856554985046e-02 5.936846882104873657e-02 4.702403396368026733e-02 7.789318263530731201e-02 -2.658085525035858154e-02 2.578359283506870270e-02 3.079727478325366974e-02 5.948443338274955750e-02 7.024006918072700500e-03 -2.471263147890567780e-02 7.814344763755798340e-02 5.015341565012931824e-02 7.004168629646301270e-02 -1.368286460638046265e-02 2.110484614968299866e-02 2.640962414443492889e-02 4.685723036527633667e-02 -5.437707528471946716e-02 6.600868701934814453e-02 5.703701823949813843e-02 4.785523936152458191e-02 -2.020372543483972549e-03 4.247244074940681458e-02 3.466623602434992790e-03 5.828492715954780579e-02 -5.840182304382324219e-03 -1.670986227691173553e-02 9.703218005597591400e-03 5.111564695835113525e-02 -2.966954000294208527e-02 -2.048374153673648834e-02 2.073948271572589874e-02 -2.376711461693048477e-03 3.880384936928749084e-02 2.842834405601024628e-02 3.531473502516746521e-02 5.625085160136222839e-02 1.379344239830970764e-02 6.836738437414169312e-03 3.145930171012878418e-02 2.353884093463420868e-02 2.227153070271015167e-02 5.002900958061218262e-02 3.354016318917274475e-02 4.943230655044317245e-03 2.247944660484790802e-02 -8.865931071341037750e-03 2.266690507531166077e-02 3.166779875755310059e-02 -2.673691697418689728e-02 3.977204114198684692e-02 -3.739002719521522522e-02 -1.232144073583185673e-03 7.250982522964477539e-02 4.118170589208602905e-02 -3.996743634343147278e-02 3.652176633477210999e-02 -1.477938052266836166e-02 3.030203096568584442e-02 5.348351318389177322e-03 -2.791868522763252258e-02 4.054587706923484802e-02 5.958498269319534302e-02 3.176536702085286379e-04 -1.523928157985210419e-02 5.257516726851463318e-02 -4.346204223111271858e-04 2.101449295878410339e-02 5.489406362175941467e-02 5.637695267796516418e-02 2.282656170427799225e-02 -6.954258680343627930e-02 -8.189818472601473331e-04 -6.269139703363180161e-03 9.177384525537490845e-02 3.930522501468658447e-02 -9.186652489006519318e-03 -1.570917665958404541e-02 6.178496405482292175e-03 1.454295776784420013e-02 3.774346411228179932e-02 -3.319285064935684204e-02 1.287215389311313629e-02 3.304985002614557743e-04 7.857637107372283936e-02 2.483673393726348877e-02 7.157312333583831787e-02 2.627657726407051086e-02 6.105266138911247253e-02 -2.551779337227344513e-02 -5.203709751367568970e-02 7.704183459281921387e-02 -7.775386911816895008e-04 -6.906881928443908691e-02 1.800288818776607513e-02 1.471070293337106705e-02 -6.957028526812791824e-03 -3.858878836035728455e-02 3.373442217707633972e-02 -3.188345348462462425e-03 5.762128159403800964e-03 3.300090320408344269e-03 -7.959693670272827148e-02 4.548263177275657654e-02 3.538946807384490967e-02 -8.611642569303512573e-02 8.324393630027770996e-02 9.776310622692108154e-02 2.722517214715480804e-02 7.270812243223190308e-02 2.317215502262115479e-02 2.149682678282260895e-02 2.124247699975967407e-02 -3.897553309798240662e-02 -4.767378792166709900e-02 5.078274756669998169e-02 -8.245427161455154419e-03 6.176586449146270752e-02 4.151269048452377319e-02 1.706786081194877625e-02 1.869098283350467682e-02 1.081696152687072754e-02 4.615902155637741089e-02 -1.727454178035259247e-02 9.824587963521480560e-03 7.194944471120834351e-02 4.318739846348762512e-02 -2.242412604391574860e-02 5.488573759794235229e-02 5.980536341667175293e-02 -1.747060753405094147e-02 -3.107830509543418884e-02 9.701316058635711670e-02 9.875804185867309570e-02 -1.410871185362339020e-02 -9.755238890647888184e-03 5.033612623810768127e-02 -3.911394160240888596e-03 4.740235581994056702e-02 -5.830137059092521667e-02 3.732703253626823425e-02 5.884008482098579407e-02 5.849592760205268860e-02 -3.779558092355728149e-02 2.273465506732463837e-02 -1.190497819334268570e-02 7.714890688657760620e-02 2.903944253921508789e-02 -1.002455223351716995e-02 -5.545347463339567184e-03 5.621395073831081390e-03 -5.900036916136741638e-02 8.804779499769210815e-02 -2.598873339593410492e-02 5.501591041684150696e-02 1.385308243334293365e-02 -4.529863223433494568e-02 2.658401802182197571e-02 1.524729933589696884e-02 9.621614590287208557e-03 -5.363091826438903809e-02 7.227057218551635742e-02 3.228091821074485779e-02 -3.818500041961669922e-02 -3.624855354428291321e-02 3.538789972662925720e-02 -1.356987748295068741e-02 7.067961990833282471e-02 -6.211601663380861282e-03 -4.379276186227798462e-02 1.337938476353883743e-02 1.956192776560783386e-02 4.789113998413085938e-03 -3.366405889391899109e-02 2.265944704413414001e-02 -6.090069189667701721e-02 6.599415093660354614e-02 1.634927839040756226e-02 2.281774207949638367e-02 1.383099146187305450e-02 1.154137216508388519e-02 7.192853093147277832e-02 3.673402825370430946e-03 7.796686142683029175e-02 3.876725910231471062e-03 6.657775491476058960e-02 5.081265792250633240e-02 1.087007392197847366e-02 -2.446148358285427094e-02 -1.251258887350559235e-02 1.877231337130069733e-02 -1.837942004203796387e-02 -4.096591100096702576e-02 4.838732257485389709e-02 8.522824943065643311e-02 6.643626093864440918e-02 4.085789248347282410e-02 2.049142122268676758e-02 4.927332699298858643e-02 -4.421391338109970093e-02 8.308423310518264771e-02 -2.350875735282897949e-02 3.882577642798423767e-02 5.875298380851745605e-02 4.017769917845726013e-02 -4.693729430437088013e-02 -2.368151210248470306e-02 2.578823827207088470e-02 -4.527940880507230759e-03 -1.851974800229072571e-02 -1.558595057576894760e-02 5.517628043889999390e-02 -2.501153200864791870e-02 -8.498098701238632202e-03 2.061902359127998352e-02 5.130890384316444397e-02 3.970533609390258789e-02 1.575957424938678741e-02 5.275958403944969177e-02 -2.024040557444095612e-02 -9.611341170966625214e-03 5.544723197817802429e-02 3.146455809473991394e-02 1.682886295020580292e-02 -2.778724581003189087e-02 4.881145432591438293e-02 3.098535910248756409e-02 1.755592413246631622e-02 3.508471697568893433e-02 2.340416051447391510e-02 4.482216015458106995e-02 3.418046981096267700e-02 7.785964291542768478e-03 1.057223230600357056e-02 2.627180144190788269e-02 5.686699599027633667e-02 2.913180552423000336e-02 -4.206308722496032715e-02 -1.639540120959281921e-02 2.304487861692905426e-02 6.266345083713531494e-02 -1.135243475437164307e-02 -2.335482463240623474e-02 3.604151308536529541e-02 4.579047113656997681e-02 -1.800957880914211273e-02 -1.690830336883664131e-03 -1.182219944894313812e-02 -1.401383429765701294e-02 1.875669881701469421e-02 8.350432664155960083e-02 2.985739521682262421e-02 7.011239975690841675e-02 4.034890606999397278e-02 -2.742614783346652985e-02 -2.594712562859058380e-02 -7.411786168813705444e-02 -6.790293753147125244e-02 6.396804004907608032e-02 3.080524317920207977e-02 -1.793771795928478241e-02 -1.347931474447250366e-02 1.983157917857170105e-02 -2.304653404280543327e-03 -2.346317656338214874e-02 -1.681939139962196350e-02 2.015218883752822876e-02 2.320478111505508423e-02 1.174175366759300232e-02 9.479150176048278809e-02 5.910308659076690674e-02 -3.234991058707237244e-02 -8.210504427552223206e-03 2.724533528089523315e-02 -1.728335209190845490e-02 -2.093400992453098297e-02 2.216485328972339630e-02 7.708764169365167618e-03 -1.933925598859786987e-02 4.917313531041145325e-02 -3.448928147554397583e-02 -5.121339857578277588e-02 6.990081816911697388e-02 8.586840704083442688e-03 4.610774572938680649e-03 4.747376311570405960e-03 -9.265966713428497314e-03 2.438874682411551476e-03 2.384814992547035217e-02 -1.209616474807262421e-02 -2.271698787808418274e-02 5.635449290275573730e-02 3.400047495961189270e-02 5.584780126810073853e-02 3.474267199635505676e-02 -8.576865307986736298e-03 2.987458370625972748e-02 -6.552425771951675415e-02 1.077698171138763428e-02 -4.502296447753906250e-02 -3.383021801710128784e-02 5.768467858433723450e-02 3.722951933741569519e-02 5.706921219825744629e-03 3.198915347456932068e-02 4.735377151519060135e-04 3.210536390542984009e-02 6.765842437744140625e-02 3.180680051445960999e-02 -3.473278880119323730e-02 1.336697489023208618e-03 2.697937563061714172e-02 2.440207637846469879e-03 -1.458732318133115768e-02 -3.343760594725608826e-02 1.134948059916496277e-02 -4.682854935526847839e-02 4.717335570603609085e-03
2.331474237143993378e-02 -7.117202505469322205e-03 7.510265707969665527e-02 1.625937782227993011e-02 5.400732159614562988e-03 9.069503098726272583e-02 5.453736335039138794e-02 5.824289470911026001e-02 -1.403682958334684372e-02 1.006278488785028458e-02 2.850188873708248138e-02 -1.629430428147315979e-02 4.488912597298622131e-02 3.074264898896217346e-02 5.899077281355857849e-03 3.094882518053054810e-02 2.713366225361824036e-02 2.002783119678497314e-02 -2.718647755682468414e-02 1.663291826844215393e-02 -4.988849908113479614e-02 -7.717885822057723999e-02 -3.506741672754287720e-02 -4.947833344340324402e-02 -5.427599325776100159e-02 1.699764840304851532e-02 9.782668203115463257e-03 -1.947123557329177856e-02 5.219741538166999817e-02 -5.124264210462570190e-02 -4.117707535624504089e-02 3.290726989507675171e-02 -4.485949873924255371e-02 7.236096262931823730e-02 4.301355406641960144e-02 8.592990343458950520e-04 4.120562970638275146e-02 6.324992328882217407e-02 -1.688023470342159271e-02 3.223712742328643799e-02 3.262034058570861816e-02 9.248919785022735596e-02 2.849800325930118561e-02 1.592425629496574402e-02 -4.973315168172121048e-03 -5.368588957935571671e-03 9.045122563838958740e-02 3.215142060071229935e-04 1.938810944557189941e-02 2.877910993993282318e-02 5.167858302593231201e-02 2.535878866910934448e-02 9.070219844579696655e-02 -7.336317002773284912e-02 1.917999610304832458e-02 -5.610671639442443848e-02 -1.420495565980672836e-03 -5.777949932962656021e-03 5.072255805134773254e-02 3.624580567702651024e-03 9.028362482786178589e-02 -4.528262466192245483e-02 1.181259751319885254e-02 1.337358914315700531e-02 3.724963590502738953e-02 3.258550912141799927e-02 -6.122680380940437317e-02 -6.127708032727241516e-02 1.156949158757925034e-02 -7.455397397279739380e-02 -2.337148785591125488e-02 2.604424208402633667e-02 -4.356950521469116211e-02 7.190100103616714478e-02 7.859835773706436157e-02 -4.543554782867431641e-02 3.376705572009086609e-02 -2.168729156255722046e-02 -3.115181438624858856e-02 8.524370938539505005e-02 -2.407754957675933838e-02 -6.278815120458602905e-02 -4.434743896126747131e-03 -6.666134297847747803e-02 4.342522472143173218e-02 3.328020125627517700e-02 -3.130957856774330139e-02 -2.014118246734142303e-02 4.694119095802307129e-02 -6.296154111623764038e-02 4.913149401545524597e-02 -4.812086373567581177e-02 7.349282503128051758e-02 3.940515592694282532e-02 2.665537875145673752e-03 7.070619612932205200e-02 -1.733086444437503815e-02 -5.316915363073348999e-02 1.557622198015451431e-02 2.189897932112216949e-02 2.017362602055072784e-02 5.178430676460266113e-02 -6.726662162691354752e-03 -3.291431115940213203e-03 -1.972429454326629639e-02 4.044348374009132385e-02 4.421725124120712280e-02 4.650831222534179688e-02 8.752182126045227051e-02 4.884184896945953369e-02 5.662209540605545044e-02 4.247913137078285217e-02 -3.260609135031700134e-02 6.509678065776824951e-02 1.382886711508035660e-02 -1.482298783957958221e-02 -5.247766524553298950e-02 8.179145306348800659e-02 -5.955712869763374329e-02 -8.412197232246398926e-03 -4.629220068454742432e-02 -3.559810668230056763e-02 -5.332560464739799500e-02 -6.009414792060852051e-03 -2.050547115504741669e-02 -1.698613725602626801e-02 7.988875149749219418e-04 -2.389256283640861511e-02 7.189162820577621460e-02 2.219970151782035828e-02 -7.055896520614624023e-02 5.549015849828720093e-02 -6.374320387840270996e-02 8.402437716722488403e-02 -3.460765117779374123e-03 5.573093518614768982e-02 1.469895057380199432e-02 4.742830526083707809e-03 7.314773648977279663e-02 -7.886219024658203125e-02 1.366284210234880447e-02 -3.651452064514160156e-02 4.724473133683204651e-02 4.050362855195999146e-02 4.831785708665847778e-02 2.475169673562049866e-02 -1.390263158828020096e-02 -1.052874326705932617e-02 -3.348028752952814102e-03 -1.243051420897245407e-02 5.820095539093017578e-02 1.145719736814498901e-02 5.721264518797397614e-03 1.722214743494987488e-02 5.494589731097221375e-02 -7.489451207220554352e-03 3.000776469707489014e-02 7.398102898150682449e-03 4.781574010848999023e-02 4.835010692477226257e-02 2.124415524303913116e-02 5.470689386129379272e-02 -2.246429584920406342e-02 9.032963216304779053e-02 -4.689686466008424759e-03 5.458066612482070923e-02 2.613159455358982086e-02 3.336853161454200745e-02 3.109064511954784393e-02 8.302183449268341064e-02 -6.302401423454284668e-02 4.641807638108730316e-03 -6.092486530542373657e-02 3.203583508729934692e-02 -2.026909962296485901e-02 3.178706765174865723e-02 1.518973056226968765e-02 1.501361560076475143e-02 5.366713181138038635e-02 5.208321660757064819e-02 3.007693681865930557e-03 -6.125717982649803162e-02 -7.110950350761413574e-02 1.778207905590534210e-02 2.093754149973392487e-02 3.861684352159500122e-02 8.776341378688812256e-02 -4.460401460528373718e-02 -1.338579226285219193e-03 8.560040593147277832e-02 4.418096318840980530e-02 -4.161942005157470703e-02 7.038374245166778564e-02 4.137796163558959961e-02 -6.442321836948394775e-02 3.627759963274002075e-02 5.600720271468162537e-02 6.095263361930847168e-02 -4.998015705496072769e-03 8.438203483819961548e-02 8.502318710088729858e-02 6.374047696590423584e-02 -3.378691035322844982e-04 -8.288057893514633179e-02 3.769387956708669662e-03 -2.337800338864326477e-02 1.038715336471796036e-02 6.982126086950302124e-02 -4.336799308657646179e-02 -3.748469799757003784e-02 8.857008814811706543e-02 4.670238867402076721e-02 5.639189854264259338e-03 8.163577318191528320e-02 -3.549634292721748352e-02 1.175063475966453552e-02 7.389251887798309326e-02 1.381293172016739845e-03 1.900043711066246033e-02 -7.580791600048542023e-03 9.001418948173522949e-02 -1.021739933639764786e-02 2.032017149031162262e-02 5.750139243900775909e-03 1.305208657868206501e-03 3.472273051738739014e-02 2.086894214153289795e-02 -1.866964064538478851e-02 9.304424375295639038e-02 3.232800215482711792e-02 1.440428476780653000e-02 4.415578022599220276e-02 8.021168410778045654e-02 -6.251364015042781830e-03 4.141296725720167160e-03 5.273495241999626160e-02 7.459700107574462891e-02 1.218035817146301270e-03 5.759796872735023499e-02 2.846868522465229034e-02 -5.673624947667121887e-02 1.712899468839168549e-02 1.607568375766277313e-02 8.043330162763595581e-02 5.956464260816574097e-02 3.229219466447830200e-02 7.015401870012283325e-02 4.189774766564369202e-02 5.410471186041831970e-02 -7.514912635087966919e-02 -3.198623657226562500e-03 3.161935135722160339e-02 6.578513234853744507e-02 -2.599196322262287140e-02 2.607949450612068176e-02 2.606858685612678528e-02 6.925545167177915573e-03 4.043096303939819336e-02 7.735793292522430420e-02 6.658942997455596924e-02 5.207512155175209045e-02 8.048456162214279175e-02 1.408911310136318207e-02 -4.077345505356788635e-02 4.338334500789642334e-02 8.866751194000244141e-02 7.143853604793548584e-02 1.228156220167875290e-02 9.384629875421524048e-02 -7.613062113523483276e-02 8.496687561273574829e-02 -6.948682665824890137e-02 -2.919010818004608154e-02 8.664000779390335083e-02 3.009283170104026794e-02 5.942437052726745605e-02 -1.418650965206325054e-03 7.293653488159179688e-02 4.881035909056663513e-02 -4.115162044763565063e-02 -5.441576708108186722e-03 -7.021749019622802734e-02 -3.081412985920906067e-02 2.457490004599094391e-02 6.369977444410324097e-02 3.456296026706695557e-02 7.085815072059631348e-03 -3.638880699872970581e-02 -3.492019698023796082e-02 7.276074588298797607e-02 7.409542798995971680e-02 7.326712459325790405e-02 6.151868496090173721e-03 -7.705307751893997192e-02 7.257342338562011719e-02 -7.312357425689697266e-02 -1.916462741792201996e-02 4.777966812252998352e-02 4.052587598562240601e-02 7.728287018835544586e-03 2.514861337840557098e-02 8.318240195512771606e-02 4.431421868503093719e-03 1.210218109190464020e-02 7.240460067987442017e-02 4.292399436235427856e-02 5.388287082314491272e-02 8.886367827653884888e-02 -1.833175495266914368e-02 7.060543447732925415e-02 -7.319810241460800171e-02 -2.387443557381629944e-02 -4.469484090805053711e-02 5.803606286644935608e-02 3.458676859736442566e-02 -2.430832199752330780e-02 3.503437340259552002e-02 5.704304203391075134e-02 -3.072831220924854279e-02 3.965475037693977356e-02 3.658575937151908875e-03 1.347078476101160049e-02 -1.284262444823980331e-02 2.266884595155715942e-02 -6.471636891365051270e-02 1.624695770442485809e-02 3.264908865094184875e-02 4.882982000708580017e-02 -7.519575953483581543e-02 -6.271285383263602853e-05 2.164873294532299042e-02 -3.669849038124084473e-02 -4.541900381445884705e-02 1.014331728219985962e-01 4.788317158818244934e-02 -1.710730232298374176e-02 6.498120725154876709e-02 1.314899884164333344e-02 -2.921575307846069336e-02 2.004208043217658997e-02 3.623415529727935791e-02 1.616481691598892212e-02 1.339449360966682434e-02 5.182528495788574219e-02 5.452908948063850403e-02 4.378898814320564270e-02 4.329806938767433167e-02 7.109540700912475586e-02 9.381509572267532349e-02 2.846914343535900116e-02 4.862296860665082932e-03 6.014575809240341187e-02 2.639767341315746307e-02 3.831414133310317993e-02 -5.271014943718910217e-02 5.750241875648498535e-02 -5.692713335156440735e-02 1.036918014287948608e-01 -1.397627312690019608e-02 -2.028618007898330688e-02 -6.664686650037765503e-02 6.994251161813735962e-02 4.068174958229064941e-02 4.700601100921630859e-02 3.803815320134162903e-02 9.113358333706855774e-03 -2.485664375126361847e-02 3.502177447080612183e-02 -5.803870409727096558e-02 1.732830703258514404e-02 7.637691497802734375e-02 -7.781680324114859104e-04 3.793814033269882202e-02 -2.707801759243011475e-02 -6.152331829071044922e-02 3.790552436839789152e-04 2.256838197354227304e-04 -4.001169279217720032e-02 1.963208429515361786e-03 -8.051641285419464111e-03 3.320991992950439453e-02 1.111421957612037659e-01 -1.856925780884921551e-03 5.337061360478401184e-02 -1.907078363001346588e-02 -9.542000479996204376e-03 5.352926254272460938e-02 -2.618853002786636353e-02 1.911235041916370392e-02 2.794996090233325958e-02 -1.461743377149105072e-02 5.052097141742706299e-02 2.795536816120147705e-02 -5.942387972027063370e-03 2.958134561777114868e-02 -1.327872043475508690e-03 3.002878278493881226e-02 -3.807881101965904236e-02 8.300905674695968628e-02 -1.581170223653316498e-02 -3.773136064410209656e-02 6.003445759415626526e-02 3.119246568530797958e-03 -4.392620921134948730e-02 4.653944447636604309e-02 1.003499887883663177e-02 -8.945752680301666260e-02 -1.718351617455482483e-02 1.552788913249969482e-02 5.151338502764701843e-02 -4.103607498109340668e-03 5.818690173327922821e-03 3.893788158893585205e-02 -9.864359162747859955e-04 -4.588505625724792480e-02 6.125765666365623474e-02 2.965663373470306396e-02 5.032302066683769226e-02 8.259451948106288910e-03 6.564703583717346191e-02 -2.002839371562004089e-02 2.193261496722698212e-02 -2.546801418066024780e-02 -5.827265791594982147e-03 9.498785436153411865e-02 7.263719290494918823e-02 1.023487187922000885e-02 3.033588873222470284e-03 -7.962374389171600342e-02 -4.773054271936416626e-02 2.425004914402961731e-02 -5.294525995850563049e-02 6.081353127956390381e-02 1.941347122192382812e-02 -3.119912371039390564e-02 -3.838698938488960266e-02 -7.532157748937606812e-02 4.640907049179077148e-02 1.296706590801477432e-02 -7.988286018371582031e-02 2.007340453565120697e-02 -1.073556486517190933e-02 1.990542747080326080e-02 4.031203687191009521e-02 4.686515405774116516e-02 -1.357962260954082012e-03 6.007111817598342896e-02 3.984990715980529785e-02 5.674649402499198914e-02 -1.161423884332180023e-02 3.140237927436828613e-02 -2.322906441986560822e-02 2.590160444378852844e-02 -4.334313049912452698e-02 -3.584539517760276794e-02 -4.835189878940582275e-02 3.137233853340148926e-02 -6.210872903466224670e-02 4.738695919513702393e-03 9.452855587005615234e-02 4.045763239264488220e-02 5.556439980864524841e-02 2.555453451350331306e-03 5.046994239091873169e-02 5.616997834295034409e-03 -8.872865140438079834e-02 4.997337237000465393e-02 5.926469340920448303e-02 5.517802387475967407e-02 -6.094192713499069214e-02 2.143297903239727020e-02 -6.537417415529489517e-03 5.532773584127426147e-02 1.420710794627666473e-02 -2.315669320523738861e-03 7.429397199302911758e-03 2.681576088070869446e-02 5.925095826387405396e-02 -3.061260329559445381e-03 3.033129684627056122e-02 -6.380545347929000854e-02 3.399595618247985840e-02 -2.406009845435619354e-02 -2.934659086167812347e-02 1.076167263090610504e-02 4.642229527235031128e-02 1.696017384529113770e-02 1.297700591385364532e-02 1.416708435863256454e-02 1.255692186532542109e-04 3.748964890837669373e-02 1.817330345511436462e-02 -1.906145922839641571e-02 -5.344614386558532715e-02 -4.195101559162139893e-02 7.716129999607801437e-03 4.513512551784515381e-02 1.902522519230842590e-02 6.310728192329406738e-02 1.043860986828804016e-02 -2.220734767615795135e-02 1.870089396834373474e-02 -4.121141880750656128e-02 3.859706223011016846e-02 -5.806250125169754028e-02 2.957950904965400696e-02 2.941675670444965363e-02 2.975316531956195831e-02 5.352010484784841537e-03 -2.850368805229663849e-02 -5.747120667365379632e-05 -8.424435742199420929e-03
2.412684634327888489e-02 -3.155251592397689819e-02 7.683265954256057739e-02 4.630816355347633362e-02 6.466897577047348022e-02 2.805411070585250854e-02 7.356056571006774902e-02 4.253062419593334198e-03 -5.887366458773612976e-02 -4.870571196079254150e-02 8.127193152904510498e-02 1.189811900258064270e-02 -9.053501300513744354e-03 4.635071009397506714e-02 -1.966886408627033234e-02 3.489242494106292725e-02 2.043822035193443298e-02 -5.025267601013183594e-03 5.133090913295745850e-02 3.940210118889808655e-02 6.732698064297437668e-03 -6.722155027091503143e-03 -4.380176588892936707e-02 3.504462947603315115e-04 5.184992402791976929e-02 -3.386535495519638062e-02 5.942824855446815491e-02 -9.934460744261741638e-03 2.764588780701160431e-02 3.521970286965370178e-02 4.757278040051460266e-02 -2.512950263917446136e-02 -2.248621731996536255e-02 6.041239574551582336e-02 -2.049463428556919098e-02 -1.175248622894287109e-02 -4.110923409461975098e-02 2.440088242292404175e-02 5.024124681949615479e-02 3.686723485589027405e-02 8.348114788532257080e-02 6.430339813232421875e-02 -1.151150278747081757e-02 4.666369408369064331e-02 -4.060615226626396179e-02 -2.650674805045127869e-02 -5.925348028540611267e-02 6.816635280847549438e-02 -3.006734885275363922e-02 6.298890337347984314e-03 7.753068953752517700e-02 7.054375112056732178e-02 5.510669574141502380e-02 5.377966910600662231e-02 8.248294144868850708e-02 4.167744889855384827e-02 4.430388286709785461e-02 -5.499127879738807678e-02 -8.166882395744323730e-02 2.665705047547817230e-02 3.991319239139556885e-02 7.030618190765380859e-02 -5.989800393581390381e-02 4.648052155971527100e-02 3.862626105546951294e-02 -3.519476950168609619e-02 3.402485325932502747e-02 -4.833333194255828857e-02 -2.336297743022441864e-02 7.447645068168640137e-02 1.508494652807712555e-02 9.162261337041854858e-02 1.688108220696449280e-02 6.745402514934539795e-02 6.076572835445404053e-02 5.243863910436630249e-02 7.513838261365890503e-02 -7.165906019508838654e-03 -4.039329942315816879e-03 6.054938212037086487e-02 -4.280950129032135010e-02 8.098725229501724243e-03 1.898597553372383118e-02 4.749379307031631470e-02 3.379634022712707520e-02 3.623192384839057922e-02 3.050057776272296906e-02 -2.585233747959136963e-02 5.916944146156311035e-02 -4.996786359697580338e-03 8.173303306102752686e-02 -6.886611133813858032e-02 2.179200015962123871e-02 -4.451619461178779602e-02 -4.826012533158063889e-03 7.044380903244018555e-02 -1.008755434304475784e-02 4.223623499274253845e-02 6.133775040507316589e-02 5.195267871022224426e-02 7.385002076625823975e-02 3.598871082067489624e-02 2.286467468366026878e-03 1.801629178225994110e-02 6.252338737249374390e-02 1.507435925304889679e-03 -3.326206654310226440e-02 2.336731925606727600e-02 1.941076293587684631e-02 6.786103546619415283e-02 8.784251660108566284e-02 -6.369598209857940674e-02 2.997233904898166656e-02 2.548618358559906483e-04 5.261600390076637268e-02 8.577575534582138062e-02 -2.108679153025150299e-02 2.681421302258968353e-02 3.883975744247436523e-02 7.779613137245178223e-02 1.587404869496822357e-02 6.871788203716278076e-02 2.652284689247608185e-02 2.518271841108798981e-02 7.425746880471706390e-03 -2.662758715450763702e-02 1.775746047496795654e-02 -2.352507412433624268e-02 2.012249641120433807e-02 -1.661176793277263641e-02 3.730033757165074348e-03 -5.562723800539970398e-02 8.478327095508575439e-02 5.743256956338882446e-02 2.448415383696556091e-02 4.900857433676719666e-02 -1.807614043354988098e-02 4.925729334354400635e-02 8.735569566488265991e-02 4.780387505888938904e-02 7.288856059312820435e-02 2.230784483253955841e-02 8.112816512584686279e-02 4.062723368406295776e-02 4.263537749648094177e-02 2.727577835321426392e-02 -4.084207862615585327e-02 -1.294478680938482285e-02 2.411163598299026489e-02 -3.220541402697563171e-02 5.323062837123870850e-02 -4.752441495656967163e-02 -2.018540538847446442e-02 -4.888772964477539062e-02 3.679968789219856262e-02 4.137341305613517761e-02 6.355242431163787842e-02 -1.039012204273603857e-04 6.864828616380691528e-02 8.553266525268554688e-03 4.010542109608650208e-02 -2.745001390576362610e-02 2.995174936950206757e-02 7.302570343017578125e-02 3.185376524925231934e-02 -2.950784936547279358e-02 4.250539839267730713e-02 1.545386761426925659e-02 3.231469914317131042e-02 4.651542752981185913e-02 2.267831563949584961e-02 1.861393824219703674e-02 6.937354803085327148e-02 4.722022637724876404e-02 5.889978259801864624e-03 4.132245201617479324e-03 4.691350087523460388e-02 -1.233977638185024261e-02 -8.608807809650897980e-03 1.204477623105049133e-02 -2.751405583694577217e-03 6.661115586757659912e-02 1.010875590145587921e-02 -6.754504144191741943e-02 3.797647356986999512e-02 6.395971402525901794e-03 1.003135833889245987e-02 -8.405939489603042603e-02 -1.965183578431606293e-02 7.290609180927276611e-02 5.592150986194610596e-02 2.518148533999919891e-02 -1.611074805259704590e-02 -3.861077502369880676e-02 3.593764733523130417e-03 -1.025690045207738876e-02 1.644989103078842163e-02 5.820193141698837280e-02 4.471031203866004944e-02 4.698586091399192810e-02 4.763995110988616943e-02 5.717258900403976440e-02 -1.113381935283541679e-03 6.893649697303771973e-02 7.172153145074844360e-02 -1.712030731141567230e-02 5.212060362100601196e-02 5.777841806411743164e-02 8.534598164260387421e-03 3.251786902546882629e-02 4.330553114414215088e-02 -2.378348074853420258e-02 -4.907390475273132324e-02 3.450988978147506714e-02 7.747548818588256836e-02 4.212583601474761963e-02 4.166222363710403442e-02 -7.044561952352523804e-02 -4.697971045970916748e-02 4.100050777196884155e-02 5.583779886364936829e-02 -4.094761610031127930e-02 -5.691616982221603394e-02 1.563832163810729980e-02 7.928577251732349396e-03 1.004628986120223999e-01 -1.740585826337337494e-02 3.611209616065025330e-02 6.412915885448455811e-03 3.442811546847224236e-03 -4.855903983116149902e-02 1.328388415277004242e-02 -1.298204995691776276e-02 7.756539154797792435e-03 -2.011034265160560608e-02 4.952701181173324585e-02 3.029063530266284943e-02 -3.965277597308158875e-02 9.096488356590270996e-03 8.909083902835845947e-02 8.819595910608768463e-03 6.622087210416793823e-02 -3.407746786251664162e-03 -1.990882493555545807e-02 -2.245227247476577759e-02 7.559844851493835449e-02 7.202636450529098511e-02 -2.324517816305160522e-02 4.473558440804481506e-02 7.655304670333862305e-02 7.893569022417068481e-02 3.527679666876792908e-02 9.839060902595520020e-02 1.864112727344036102e-02 -1.891993731260299683e-02 9.207773022353649139e-03 -3.812000527977943420e-02 8.621016889810562134e-02 2.620116248726844788e-02 4.291730746626853943e-02 6.395407021045684814e-03 4.924906417727470398e-02 2.434519352391362190e-03 1.871846988797187805e-02 1.620911248028278351e-02 -4.803139343857765198e-02 3.858656808733940125e-02 3.873508051037788391e-02 2.310992404818534851e-02 -7.087112218141555786e-02 -3.727671876549720764e-02 6.860738247632980347e-02 1.711405441164970398e-02 1.504873018711805344e-02 2.200791426002979279e-02 -4.405401274561882019e-02 2.496792562305927277e-02 1.510691083967685699e-02 9.061560034751892090e-03 6.040479242801666260e-02 5.108877643942832947e-02 -2.336119301617145538e-02 -1.975283771753311157e-02 1.338469330221414566e-02 6.674452684819698334e-03 1.716831140220165253e-02 3.228502720594406128e-02 -6.690411269664764404e-02 -3.444715589284896851e-02 2.422278188169002533e-02 1.002130378037691116e-02 4.995360225439071655e-02 1.681395061314105988e-02 2.065816521644592285e-02 5.572875961661338806e-02 -4.600211977958679199e-03 2.813030593097209930e-02 3.164023905992507935e-02 8.329454809427261353e-02 4.869274049997329712e-02 6.559355556964874268e-02 -2.584048546850681305e-03 8.046109229326248169e-02 3.243366256356239319e-02 3.978076856583356857e-03 7.854474335908889771e-02 1.958463899791240692e-02 1.727033592760562897e-02 -3.169543668627738953e-02 2.799500897526741028e-02 1.281418255530297756e-03 8.162190765142440796e-02 4.182335734367370605e-02 -1.310288533568382263e-02 -5.651256535202264786e-03 -3.988584503531455994e-02 -2.284466102719306946e-02 -4.030887968838214874e-03 -2.409799955785274506e-03 -6.566683202981948853e-02 4.139774013310670853e-03 4.490562155842781067e-02 -1.609305478632450104e-02 9.866137988865375519e-03 8.637466467916965485e-03 -4.782408848404884338e-02 8.237698115408420563e-03 -5.209248885512351990e-02 -5.117145553231239319e-02 -5.329817067831754684e-04 -2.729854546487331390e-02 -1.273972680792212486e-03 4.680334031581878662e-02 -5.391452088952064514e-02 4.364522174000740051e-02 2.308855578303337097e-02 -4.637835547327995300e-02 -4.400927573442459106e-02 4.827183857560157776e-02 -3.984383773058652878e-03 -2.194810286164283752e-02 3.583757951855659485e-02 5.891422182321548462e-02 2.051025070250034332e-02 4.901780933141708374e-02 -1.790691912174224854e-02 8.323221653699874878e-02 8.302301913499832153e-02 2.340944856405258179e-02 -3.718557418324053288e-04 -7.225280627608299255e-03 -4.582333378493785858e-03 -3.256185352802276611e-02 2.622717618942260742e-02 3.874903544783592224e-02 7.065249979496002197e-02 1.986782439053058624e-02 -9.154567867517471313e-02 3.636804223060607910e-02 5.486427247524261475e-02 5.543477460741996765e-02 3.103261254727840424e-02 -5.144556611776351929e-02 3.291693329811096191e-02 3.033909387886524200e-02 7.156147621572017670e-03 6.850603222846984863e-02 2.467729337513446808e-02 2.980864606797695160e-02 -6.903432309627532959e-02 3.128119558095932007e-02 5.865256860852241516e-02 5.108556523919105530e-02 5.945629905909299850e-03 1.864658482372760773e-02 2.727464959025382996e-02 2.337042987346649170e-02 5.969016999006271362e-02 -1.048992108553647995e-02 -2.697426266968250275e-02 8.106342703104019165e-02 1.228163912892341614e-01 -2.416163496673107147e-02 5.237339530140161514e-03 -4.452624823898077011e-03 -1.321970368735492229e-03 -5.925048608332872391e-03 2.795063192024827003e-03 1.103094313293695450e-02 1.819987781345844269e-02 6.189962849020957947e-02 1.911302655935287476e-02 1.166275143623352051e-02 6.870337529107928276e-04 1.378719974309206009e-02 1.967028714716434479e-02 3.819862753152847290e-02 3.920797258615493774e-02 6.588514894247055054e-02 1.448137592524290085e-02 -4.531566984951496124e-03 -1.141393557190895081e-02 -4.962983354926109314e-02 4.311656579375267029e-02 -4.278736561536788940e-02 2.967721596360206604e-02 1.244397088885307312e-02 7.274351269006729126e-02 4.123920947313308716e-02 3.029932081699371338e-02 -8.541659452021121979e-03 3.114111535251140594e-02 6.724207848310470581e-02 -5.470347777009010315e-02 -2.035928191617131233e-03 -4.851929098367691040e-02 -5.915014818310737610e-02 5.049365758895874023e-02 4.823643341660499573e-02 9.159397333860397339e-02 -4.128619562834501266e-03 5.186415091156959534e-02 1.000496279448270798e-02 1.743492321111261845e-03 -2.970328554511070251e-03 2.477578632533550262e-02 -3.981826826930046082e-02 6.149186193943023682e-02 5.499988910742104053e-04 1.753495191223919392e-03 -6.173831969499588013e-02 1.411748398095369339e-02 9.032721072435379028e-02 5.120186135172843933e-02 3.342239558696746826e-02 2.295561693608760834e-02 -3.290164843201637268e-02 1.264743879437446594e-02 -7.682711631059646606e-02 3.299458697438240051e-02 1.729952171444892883e-02 6.420948356389999390e-02 -4.833934083580970764e-02 7.760085631161928177e-03 8.694861084222793579e-02 -4.273293167352676392e-02 7.396618276834487915e-02 4.368283972144126892e-02 1.309494301676750183e-02 1.144298468716442585e-03 -4.199829883873462677e-03 -4.267774522304534912e-02 8.875197172164916992e-02 3.827125206589698792e-02 3.330950438976287842e-02 4.302069544792175293e-02 3.484047949314117432e-02 5.211075767874717712e-02 3.116734884679317474e-02 5.810887366533279419e-02 -1.280984655022621155e-02 -5.366154015064239502e-02 1.661500893533229828e-02 1.466583227738738060e-03 -1.159995421767234802e-02 -9.035016410052776337e-03 4.870250821113586426e-02 -5.186175182461738586e-02 7.217372953891754150e-02 -1.197908818721771240e-02 2.383867837488651276e-02 6.688065081834793091e-02 1.086920592933893204e-02 1.622714661061763763e-02 2.115352638065814972e-02 1.800277642905712128e-02 3.813703358173370361e-02 1.472605508752167225e-03 -4.937316104769706726e-02 -1.592354848980903625e-02 -4.632629826664924622e-02 8.565279096364974976e-02 1.112608052790164948e-02 7.800654321908950806e-02 -1.624908298254013062e-03 -3.789365291595458984e-02 5.379399284720420837e-03 9.430996328592300415e-02 4.592337831854820251e-02 -5.189348012208938599e-03 -7.579708844423294067e-02 -2.698492631316184998e-02 1.044160220772027969e-02 2.576917596161365509e-02 -1.830501481890678406e-02 1.029598899185657501e-02 4.775834456086158752e-02 -3.046043775975704193e-02 6.289807707071304321e-02 3.480212762951850891e-02 3.787708282470703125e-02 4.384429007768630981e-02 5.505226179957389832e-02 1.359711773693561554e-02 -5.291145294904708862e-02 3.841890767216682434e-02 -9.239585138857364655e-03 1.644754409790039062e-02 5.017287284135818481e-02 2.326515130698680878e-02 -4.879813268780708313e-02 1.943451724946498871e-02
3.447690978646278381e-02 1.040484383702278137e-02 4.889889806509017944e-02 3.800908476114273071e-02 8.800335973501205444e-02 1.760864816606044769e-02 5.002633482217788696e-02 7.945244759321212769e-02 -3.241624217480421066e-03 8.860082924365997314e-02 2.608648501336574554e-02 2.044359594583511353e-02 6.544654071331024170e-02 4.694811254739761353e-02 3.111865185201168060e-02 -5.279983952641487122e-02 1.453798636794090271e-02 4.314734786748886108e-02 6.943768262863159180e-02 2.960060164332389832e-02 -3.025973960757255554e-02 3.129171207547187805e-02 2.542179450392723083e-02 5.325314402580261230e-02 5.432716012001037598e-02 -4.208521544933319092e-02 6.608326733112335205e-02 6.669779121875762939e-02 -4.964584112167358398e-02 -4.386435821652412415e-02 7.599331438541412354e-03 3.810207545757293701e-02 2.081788331270217896e-02 9.439548105001449585e-02 -1.743133179843425751e-02 -7.738426327705383301e-02 -6.675523240119218826e-03 -3.619151189923286438e-02 -5.827777460217475891e-02 9.382175281643867493e-03 8.402649546042084694e-04 3.723166650161147118e-03 6.036933977156877518e-03 7.217351347208023071e-02 -6.856290251016616821e-02 -7.754890620708465576e-02 8.231018669903278351e-03 2.365369722247123718e-02 -7.153307646512985229e-02 7.576490938663482666e-02 7.478357106447219849e-02 4.932573437690734863e-02 7.796289771795272827e-02 -1.274386700242757797e-02 3.609184175729751587e-02 7.186938077211380005e-02 3.784603625535964966e-02 -4.251922667026519775e-02 6.591839343309402466e-02 9.572310000658035278e-02 6.942397356033325195e-02 1.025726944208145142e-01 -8.787301182746887207e-02 8.608619123697280884e-02 3.271671012043952942e-02 -4.765449091792106628e-02 -6.666561961174011230e-02 6.997613608837127686e-02 3.379847109317779541e-02 -4.649468138813972473e-02 1.964559406042098999e-02 7.268110662698745728e-02 1.892616041004657745e-02 -1.088169496506452560e-02 5.784874781966209412e-02 -5.203584581613540649e-02 6.316656619310379028e-02 7.602438330650329590e-02 4.621966555714607239e-02 4.642567411065101624e-02 2.886607311666011810e-02 4.666727036237716675e-02 1.083329971879720688e-02 5.948247015476226807e-02 1.052648853510618210e-02 -2.369935624301433563e-03 1.860609278082847595e-02 1.928103272803127766e-03 7.113681733608245850e-02 -1.392602920532226562e-02 7.091844081878662109e-02 -4.950957745313644409e-02 4.484284296631813049e-02 -6.957089155912399292e-02 -4.441803321242332458e-02 4.932175576686859131e-02 2.430126443505287170e-02 4.965084604918956757e-03 2.022637613117694855e-02 8.032639324665069580e-02 6.564614176750183105e-02 1.038244068622589111e-01 3.682012110948562622e-02 7.579158991575241089e-02 1.364608854055404663e-02 8.763582259416580200e-02 -8.677629381418228149e-02 9.366639703512191772e-02 5.033111199736595154e-02 6.722404807806015015e-02 3.075251169502735138e-02 -7.418978959321975708e-02 7.567544281482696533e-02 -6.418189406394958496e-02 4.897716920822858810e-03 8.183117955923080444e-02 6.394861638545989990e-02 4.122461006045341492e-02 -5.726846307516098022e-02 6.599959731101989746e-02 3.249245136976242065e-02 2.255969122052192688e-02 7.097899913787841797e-02 -1.039442885667085648e-02 -6.536622997373342514e-03 3.948371484875679016e-02 2.660836651921272278e-02 -6.598145514726638794e-02 3.673892468214035034e-02 3.578084334731101990e-02 2.027119323611259460e-02 -4.736530408263206482e-02 3.157201781868934631e-02 3.855852782726287842e-02 1.053320020437240601e-01 6.771366298198699951e-02 5.226459354162216187e-03 -5.898339301347732544e-02 8.137475699186325073e-02 3.954611346125602722e-02 4.750707373023033142e-02 1.026768423616886139e-02 5.503328517079353333e-02 3.342442587018013000e-02 7.559144496917724609e-02 -6.044744700193405151e-02 -2.423590049147605896e-02 -4.597513377666473389e-02 5.238731950521469116e-02 -7.193744182586669922e-02 8.749400079250335693e-02 -1.961540244519710541e-02 -5.982804577797651291e-03 -2.165113575756549835e-03 5.022752657532691956e-02 3.476290404796600342e-02 4.374937340617179871e-02 7.949508726596832275e-02 3.628552891314029694e-03 3.710280358791351318e-02 6.845671683549880981e-02 1.424259599298238754e-02 4.880610853433609009e-03 2.487099356949329376e-02 3.374276217073202133e-03 -2.295294404029846191e-02 2.954542078077793121e-02 7.923638820648193359e-02 2.389238402247428894e-02 4.151146113872528076e-02 7.478143274784088135e-02 -7.180375605821609497e-02 -1.949405670166015625e-02 4.066769964993000031e-03 8.745085448026657104e-02 7.605815678834915161e-02 2.101401798427104950e-02 -2.015418931841850281e-02 7.177720218896865845e-02 -1.889387331902980804e-02 3.880657628178596497e-02 2.205282449722290039e-02 2.351146191358566284e-02 -3.903574869036674500e-02 3.889096528291702271e-02 6.267935782670974731e-02 7.390078157186508179e-02 2.431395463645458221e-03 -3.618733584880828857e-02 4.412990063428878784e-02 -1.506833243183791637e-03 -3.477893397212028503e-02 3.129031509160995483e-02 8.534497767686843872e-02 2.484310977160930634e-02 3.546437621116638184e-02 3.024740330874919891e-02 6.180160865187644958e-02 5.636445060372352600e-02 5.492993630468845367e-03 -1.957660308107733727e-03 -2.939261309802532196e-02 -3.575176000595092773e-02 -1.826794259250164032e-02 3.423492982983589172e-02 9.034488350152969360e-03 3.793718293309211731e-02 5.756517872214317322e-02 -1.406804937869310379e-02 4.077112674713134766e-02 2.916936762630939484e-02 2.501893090084195137e-03 -8.119063824415206909e-02 -5.244374275207519531e-02 2.010975219309329987e-02 6.423470377922058105e-02 4.049491137266159058e-02 1.232471666298806667e-03 3.256447380408644676e-03 8.205993473529815674e-02 8.667378127574920654e-02 3.932272642850875854e-02 -4.252430051565170288e-02 -3.809993714094161987e-02 4.605616629123687744e-02 3.295215591788291931e-02 -2.900713589042425156e-03 -4.818916786462068558e-03 -1.057802513241767883e-02 -5.343488603830337524e-02 6.981676816940307617e-02 -3.827460110187530518e-02 1.313910167664289474e-02 -6.509593129158020020e-02 -3.010847046971321106e-02 2.226416394114494324e-02 8.668299019336700439e-02 -5.215844605118036270e-03 3.391131386160850525e-02 1.843843609094619751e-02 9.113903343677520752e-02 5.110875144600868225e-02 -5.210094153881072998e-02 8.958335965871810913e-02 -2.467699348926544189e-02 2.793076448142528534e-02 2.653303928673267365e-02 -1.411616615951061249e-02 4.887853935360908508e-02 3.852304071187973022e-02 3.214890882372856140e-02 -5.999721959233283997e-02 4.176066443324089050e-02 4.139723256230354309e-02 -3.807177767157554626e-02 8.636777102947235107e-02 -7.582775782793760300e-03 7.952618598937988281e-02 9.080333262681961060e-02 7.215027511119842529e-02 2.461298182606697083e-02 2.614003419876098633e-02 -8.832638710737228394e-02 2.624054066836833954e-02 6.341829895973205566e-02 7.743146270513534546e-02 6.131059676408767700e-02 -6.310842931270599365e-03 -5.875089671462774277e-03 5.046604946255683899e-02 7.189714163541793823e-02 8.708364516496658325e-02 2.709823846817016602e-02 1.803140528500080109e-02 9.050222486257553101e-02 -4.355799034237861633e-02 7.530483882874250412e-03 1.829035580158233643e-02 -9.032391011714935303e-02 2.134853415191173553e-02 1.175206713378429413e-02 -1.065733749419450760e-02 -7.026982307434082031e-02 7.361357659101486206e-02 3.653907403349876404e-02 4.732136800885200500e-02 2.068288996815681458e-02 3.830154240131378174e-02 -2.386203408241271973e-02 7.953564077615737915e-02 4.507365822792053223e-02 5.570680275559425354e-02 5.655397102236747742e-02 1.856659539043903351e-02 6.318043172359466553e-02 -3.826012834906578064e-02 4.879424721002578735e-02 7.771030813455581665e-02 4.133911430835723877e-02 1.148408725857734680e-01 6.355608254671096802e-02 -3.828924149274826050e-02 6.308715045452117920e-02 -2.908183448016643524e-02 2.875762060284614563e-02 8.593925833702087402e-02 4.266318399459123611e-03 1.272279396653175354e-02 -8.299129083752632141e-03 -8.113306760787963867e-02 -2.157434448599815369e-02 7.209768146276473999e-02 3.658263385295867920e-02 -3.996065631508827209e-02 1.482990849763154984e-02 -2.637450210750102997e-02 -4.176143556833267212e-02 7.135996222496032715e-02 6.799404975026845932e-03 -3.495100885629653931e-02 -1.092645991593599319e-02 -6.266953051090240479e-02 -9.291192144155502319e-02 8.899120986461639404e-02 -1.942430739291012287e-03 2.293251268565654755e-02 3.339636698365211487e-02 -7.347866892814636230e-02 -8.222842216491699219e-02 2.054300345480442047e-02 -2.756964787840843201e-02 -8.632295578718185425e-02 4.742962867021560669e-02 1.480077486485242844e-02 6.174303963780403137e-02 -3.418606519699096680e-02 -3.104463405907154083e-02 2.766544744372367859e-02 3.264279663562774658e-02 1.861313357949256897e-02 -9.961470216512680054e-02 5.648266151547431946e-02 7.297164201736450195e-02 8.531308919191360474e-02 3.673836588859558105e-02 -1.826305058784782887e-03 5.464849621057510376e-02 8.726855367422103882e-02 3.807722032070159912e-02 2.773264236748218536e-02 5.749506503343582153e-02 -8.470541983842849731e-02 -7.611154019832611084e-02 -3.054544515907764435e-02 7.286501675844192505e-02 8.539950847625732422e-02 -9.452627040445804596e-03 -3.036968410015106201e-02 7.458435744047164917e-02 4.002196341753005981e-02 4.620523750782012939e-02 1.431584637612104416e-02 6.169469654560089111e-02 3.332959488034248352e-02 -5.089370161294937134e-02 4.877945035696029663e-02 5.184333026409149170e-02 6.561411172151565552e-02 -7.235225290060043335e-02 -9.857981465756893158e-03 4.976099729537963867e-02 6.475144624710083008e-02 3.484952077269554138e-02 -3.024391271173954010e-02 -4.100788012146949768e-02 -1.546985935419797897e-02 4.754639416933059692e-02 1.903647929430007935e-02 -1.154438499361276627e-02 -5.562676489353179932e-02 4.519229754805564880e-02 9.562852233648300171e-02 1.632819697260856628e-02 5.573435872793197632e-02 -1.308952365070581436e-02 5.267093703150749207e-02 3.587562590837478638e-02 7.042692601680755615e-02 4.348718374967575073e-02 5.320655554533004761e-02 3.287054598331451416e-02 2.292228862643241882e-02 3.354768268764019012e-03 -2.571938745677471161e-02 2.151736291125416756e-03 7.263237982988357544e-02 2.010633237659931183e-02 -5.877528712153434753e-02 -6.553617306053638458e-03 -1.806331682018935680e-03 -2.785185538232326508e-02 -3.111511282622814178e-02 2.564419992268085480e-03 2.412583120167255402e-02 7.085448503494262695e-02 -8.194324560463428497e-03 1.056877374649047852e-01 -3.086597658693790436e-02 3.763102367520332336e-02 1.786136440932750702e-02 -1.877425797283649445e-02 3.062776476144790649e-02 6.280138343572616577e-02 -1.707356423139572144e-02 3.487848863005638123e-02 -5.581756308674812317e-02 -2.742087468504905701e-03 -5.901425704360008240e-02 7.474075257778167725e-02 8.392532169818878174e-02 1.322717592120170593e-02 5.620204284787178040e-02 6.164488196372985840e-02 7.235173135995864868e-02 -4.768610000610351562e-02 -2.105453237891197205e-02 7.839790731668472290e-02 2.071715146303176880e-02 -4.302702471613883972e-02 3.750873357057571411e-02 -4.686614125967025757e-02 -2.987930318340659142e-03 2.521040290594100952e-02 6.005862960591912270e-04 -2.912716381251811981e-02 5.039953067898750305e-02 7.976298779249191284e-02 -7.047518342733383179e-02 -3.669078275561332703e-02 -2.854503504931926727e-02 8.011864125728607178e-02 4.347075894474983215e-02 -4.028258379548788071e-03 -2.440822497010231018e-02 6.996817886829376221e-02 -4.233712702989578247e-02 -1.750580035150051117e-02 2.034844085574150085e-02 8.504574745893478394e-02 9.873560070991516113e-02 8.124694228172302246e-02 4.524556547403335571e-02 1.935804821550846100e-02 -9.688845835626125336e-03 1.908120349980890751e-03 4.096101596951484680e-02 -6.258320808410644531e-02 5.607730150222778320e-02 3.340009599924087524e-02 3.704483062028884888e-02 2.027012221515178680e-02 2.313831262290477753e-02 -1.260167546570301056e-02 7.919704914093017578e-02 3.022502921521663666e-02 4.999848455190658569e-02 6.980326026678085327e-02 -6.461927201598882675e-03 4.811891913414001465e-02 -1.601489633321762085e-02 -4.118365421891212463e-02 5.454027652740478516e-02 5.416590720415115356e-02 -6.906299293041229248e-02 -3.006771765649318695e-02 1.021393574774265289e-02 -3.961371630430221558e-02 5.735566839575767517e-02 -6.607504934072494507e-02 5.525474622845649719e-02 3.338384628295898438e-02 3.956662863492965698e-02 2.277405373752117157e-02 5.247262865304946899e-02 3.423499409109354019e-03 2.656279690563678741e-02 4.547752067446708679e-02 2.312510833144187927e-02 7.174117863178253174e-02 1.351882331073284149e-02 -8.762084692716598511e-02 -1.883590407669544220e-02 -7.074859738349914551e-02 3.984426707029342651e-02 8.457823842763900757e-02 -3.192222490906715393e-02 3.511261567473411560e-02 -6.024254858493804932e-02 8.954443782567977905e-02 8.574643731117248535e-02 2.351204678416252136e-02 1.131231524050235748e-02 4.622179269790649414e-02 -5.553751438856124878e-02 -4.360128659754991531e-03 -1.714549399912357330e-02 3.174414113163948059e-02 7.527050375938415527e-02 8.567049354314804077e-02 8.734209835529327393e-02 3.064379468560218811e-02 5.251142382621765137e-02
-2.986749820411205292e-02 3.505932912230491638e-02 1.764212362468242645e-02 6.333606690168380737e-02 -2.191049009561538696e-01 -3.031777590513229370e-02 -7.001291215419769287e-02 -6.951602548360824585e-02 -3.587744757533073425e-02 -5.650711059570312500e-02 -1.244989559054374695e-01 -1.507082488387823105e-02 -4.775442183017730713e-02 -2.407816052436828613e-02 -4.000989720225334167e-02 -5.243313312530517578e-02 -4.153958335518836975e-02 -4.750521481037139893e-02 -4.700491949915885925e-02 4.278320074081420898e-02 -9.016697295010089874e-03 -1.184362918138504028e-02 -9.260940365493297577e-03 -5.971325561404228210e-02 -3.746324032545089722e-02 5.923101678490638733e-02 -8.001658320426940918e-02 -4.905650019645690918e-02 -1.209101360291242599e-02 -3.520264104008674622e-02 1.633269153535366058e-02 -1.719876192510128021e-02 -4.741370305418968201e-02 1.678136060945689678e-03 -2.443767897784709930e-02 -5.941878631711006165e-02 -4.563985764980316162e-02 2.501628734171390533e-02 -1.981281861662864685e-02 8.302164822816848755e-02 6.733634322881698608e-02 3.546747937798500061e-02 -2.230919711291790009e-02 9.749473072588443756e-03 -8.557862602174282074e-03 7.227031886577606201e-02 -2.761739119887351990e-02 -5.492159351706504822e-02 -3.776582330465316772e-02 -5.647149309515953064e-02 -2.679996192455291748e-03 2.499265782535076141e-02 -2.031809650361537933e-02 -3.997969627380371094e-02 -1.378064695745706558e-02 -1.190325710922479630e-02 6.854031980037689209e-02 -4.811250790953636169e-02 -7.981058955192565918e-02 -4.665134847164154053e-02 -2.435497194528579712e-02 -9.390775859355926514e-02 -4.463705793023109436e-02 -3.747795894742012024e-02 -7.530863583087921143e-02 9.668045677244663239e-03 -6.500004231929779053e-02 -1.249321736395359039e-02 1.418266352266073227e-02 1.689684018492698669e-02 -4.869105666875839233e-02 7.823311537504196167e-02 5.379788111895322800e-03 2.625446394085884094e-02 4.086109623312950134e-02 -4.660937190055847168e-02 3.587402775883674622e-02 -6.301646679639816284e-02 -2.347161434590816498e-02 1.477923151105642319e-02 -3.136182576417922974e-02 7.960727065801620483e-02 -2.918286249041557312e-02 -8.789844810962677002e-03 -4.039021581411361694e-02 -1.199371442198753357e-01 1.766252517700195312e-02 -6.427640467882156372e-02 -4.331664368510246277e-02 1.642393507063388824e-02 7.330889254808425903e-02 1.862466149032115936e-02 -9.779114043340086937e-04 -1.229694485664367676e-02 1.900735311210155487e-03 3.053878806531429291e-02 -3.703856468200683594e-02 5.389764532446861267e-02 7.170809805393218994e-02 9.783418849110603333e-03 5.321861803531646729e-02 -3.958748281002044678e-02 -1.544984895735979080e-02 4.275153949856758118e-02 -2.406082116067409515e-02 -6.025878246873617172e-03 4.198546335101127625e-02 -3.279607743024826050e-02 1.190358866006135941e-02 2.362271584570407867e-02 5.278505012392997742e-02 -4.445692896842956543e-02 1.279238797724246979e-02 -1.135057676583528519e-02 3.628674894571304321e-02 8.357333391904830933e-02 -5.345296859741210938e-02 5.535314232110977173e-02 -2.558701485395431519e-02 9.816646575927734375e-02 1.827517338097095490e-02 -4.277122020721435547e-02 -4.326040670275688171e-02 1.394385378807783127e-02 -3.157418221235275269e-02 -2.413588389754295349e-02 -9.633893147110939026e-03 -3.598017990589141846e-02 -1.491836160421371460e-01 8.067448623478412628e-03 -4.231445863842964172e-02 -4.014678299427032471e-02 1.392331868410110474e-01 -3.372289240360260010e-02 3.029622021131217480e-04 -3.104438818991184235e-02 -2.328945323824882507e-03 1.172953695058822632e-01 6.002045422792434692e-02 -3.504382818937301636e-02 -7.277773320674896240e-02 9.377884864807128906e-02 9.362526983022689819e-02 9.195481985807418823e-02 2.445365302264690399e-02 -4.742929013445973396e-04 -2.267027972266077995e-03 2.350477688014507294e-02 5.930132418870925903e-02 5.041451007127761841e-02 -4.685078933835029602e-02 6.176764518022537231e-02 -4.579254426062107086e-03 5.941379815340042114e-03 -4.839719459414482117e-02 1.643947139382362366e-02 -5.563860014081001282e-02 -4.611455835402011871e-03 6.961738318204879761e-02 7.508557289838790894e-02 -4.306356981396675110e-02 -5.640320852398872375e-02 -6.871239840984344482e-02 -3.391233459115028381e-02 -6.159441173076629639e-02 -1.134764309972524643e-02 9.850140195339918137e-04 -1.292589679360389709e-02 -5.860431864857673645e-02 3.461246937513351440e-02 -3.015031851828098297e-02 5.324816331267356873e-02 -6.397036463022232056e-02 -6.260768510401248932e-03 2.744113095104694366e-02 -4.341661930084228516e-02 -6.097594276070594788e-02 3.447862714529037476e-02 1.364426780492067337e-02 -2.310091629624366760e-02 3.446811065077781677e-02 -1.136049348860979080e-02 -9.399021416902542114e-02 9.891525842249393463e-03 -5.019844695925712585e-02 -9.482981264591217041e-02 8.247781544923782349e-03 -4.048948362469673157e-02 -2.157215401530265808e-02 5.288248881697654724e-02 2.946026250720024109e-02 -3.020536899566650391e-02 3.070937702432274818e-03 -1.543638110160827637e-02 -4.053929075598716736e-02 -3.049990348517894745e-02 -1.700287871062755585e-02 2.032778784632682800e-02 -2.605794742703437805e-02 6.726173311471939087e-02 5.998246371746063232e-02 3.091655485332012177e-02 -5.500645935535430908e-02 -5.390521511435508728e-02 4.327720031142234802e-02 -6.169506534934043884e-02 -3.400227054953575134e-02 -7.797167199896648526e-05 -6.556237488985061646e-02 3.203633800148963928e-02 1.052786633372306824e-01 -6.081677973270416260e-02 -5.643470212817192078e-02 -2.212139405310153961e-02 -5.774292722344398499e-02 -7.889160513877868652e-02 3.735272958874702454e-02 -8.544141799211502075e-02 -3.556636348366737366e-02 -3.891129046678543091e-02 -4.367621615529060364e-02 -6.371109629981219769e-04 3.631072118878364563e-02 -3.040143847465515137e-02 -1.806524395942687988e-02 7.614102959632873535e-02 -1.700574345886707306e-02 2.293816953897476196e-02 -3.147524222731590271e-02 -1.806866750121116638e-02 -4.947465658187866211e-02 -3.084391541779041290e-02 2.493139542639255524e-02 -4.510739073157310486e-02 -2.670729765668511391e-03 -7.804468274116516113e-02 1.080255359411239624e-01 2.276907861232757568e-02 1.019488349556922913e-01 5.599088594317436218e-02 -7.921989262104034424e-02 2.904658578336238861e-02 -1.351094339042901993e-02 -4.282215982675552368e-02 -2.521527744829654694e-02 -3.850840777158737183e-02 -8.776289969682693481e-02 3.436060855165123940e-03 -3.837163373827934265e-02 -1.633703149855136871e-02 2.066691033542156219e-02 2.229313738644123077e-02 1.966069266200065613e-02 -3.374862670898437500e-02 1.830907305702567101e-03 -1.832202263176441193e-02 1.994346827268600464e-02 -8.030090481042861938e-02 -4.305905848741531372e-02 9.300679899752140045e-03 4.567527794279158115e-04 9.201122075319290161e-02 8.644937723875045776e-02 -2.123940363526344299e-02 -2.239803597331047058e-02 -2.062514796853065491e-02 -1.957108825445175171e-02 -2.593865618109703064e-02 6.654047220945358276e-02 -9.106644243001937866e-02 -6.224060431122779846e-02 -2.349098399281501770e-02 -3.989100828766822815e-02 -4.850381985306739807e-02 -6.657406687736511230e-02 -2.124631777405738831e-02 -3.456650301814079285e-02 -5.348887667059898376e-02 8.656816557049751282e-03 2.550634369254112244e-02 2.695062942802906036e-02 3.553148359060287476e-02 4.806148819625377655e-03 -2.455543167889118195e-02 3.581935167312622070e-02 9.263259172439575195e-02 -2.085882276296615601e-01 6.980451289564371109e-03 2.043665945529937744e-02 9.109777212142944336e-02 4.476841539144515991e-03 -1.489795744419097900e-03 6.415055692195892334e-02 -2.118974179029464722e-02 3.347566723823547363e-02 -9.196306020021438599e-02 -4.873822256922721863e-02 -2.943307347595691681e-02 -5.565610155463218689e-02 -3.028761036694049835e-02 8.171391487121582031e-02 2.331763040274381638e-03 -4.446839448064565659e-03 -7.275886833667755127e-02 -1.555720437318086624e-02 1.293711178004741669e-02 8.530282974243164062e-02 6.376575678586959839e-02 -4.050945863127708435e-03 6.059455499053001404e-02 -2.238134294748306274e-02 4.310009535402059555e-04 -3.886440396308898926e-02 -6.323367357254028320e-02 -2.313584461808204651e-02 -3.065911494195461273e-02 1.064647510647773743e-01 -4.289491102099418640e-02 2.033754810690879822e-02 -2.831831015646457672e-02 -2.633505687117576599e-02 9.959855675697326660e-02 4.926878958940505981e-02 -3.019003896042704582e-03 -4.481881111860275269e-02 2.569722943007946014e-02 -1.795840263366699219e-02 -8.306446671485900879e-02 -9.786793962121009827e-03 -8.006399869918823242e-02 1.098021641373634338e-01 5.960984528064727783e-02 -4.575538635253906250e-02 -8.867694996297359467e-03 -2.797021064907312393e-03 -4.563844576478004456e-02 -5.690732225775718689e-02 -9.134846739470958710e-03 -1.181681174784898758e-02 -2.984314039349555969e-02 5.210062488913536072e-03 -9.963674470782279968e-03 -1.758224889636039734e-02 -4.280638694763183594e-02 1.988778822124004364e-02 -7.338390685617923737e-03 -4.720463976263999939e-02 4.063254594802856445e-02 8.577787131071090698e-02 7.231380790472030640e-02 -2.065807022154331207e-02 1.883966289460659027e-02 -1.770972833037376404e-02 4.013551771640777588e-02 1.817024126648902893e-02 1.874225214123725891e-02 3.330745175480842590e-02 -3.602711856365203857e-02 -3.684680163860321045e-02 4.086682572960853577e-02 2.780510298907756805e-02 3.890658915042877197e-02 -7.602235674858093262e-02 -7.111335545778274536e-02 -5.591677501797676086e-02 6.573455780744552612e-02 3.721149265766143799e-02 -2.087733894586563110e-02 2.471075160428881645e-03 -4.472186416387557983e-02 -8.947578258812427521e-03 -5.363863334059715271e-02 5.280169099569320679e-02 -3.440432995557785034e-02 -3.052344173192977905e-02 -3.090949729084968567e-03 -6.552570313215255737e-02 8.168371766805648804e-02 9.683586657047271729e-02 -4.397970065474510193e-02 1.238450966775417328e-02 2.777578867971897125e-02 -8.962011337280273438e-02 -2.134550176560878754e-02 1.888590119779109955e-02 -4.888857901096343994e-02 -3.492806479334831238e-02 -3.556635975837707520e-02 -7.209087908267974854e-02 -6.382220983505249023e-02 -7.771820574998855591e-02 -2.889215759932994843e-02 1.863704994320869446e-02 1.166614703834056854e-02 6.001481041312217712e-02 -3.209079802036285400e-02 -6.575863808393478394e-03 1.075072064995765686e-01 7.294870913028717041e-02 -3.059823997318744659e-02 -1.173017174005508423e-02 1.517876796424388885e-02 -2.245494537055492401e-02 -1.566016674041748047e-02 -4.619282111525535583e-02 -2.991555072367191315e-02 -1.536792144179344177e-02 -5.268606357276439667e-03 1.618363708257675171e-02 2.368130907416343689e-02 -3.952770493924617767e-03 -7.924054563045501709e-02 8.236737549304962158e-02 -5.837735161185264587e-02 -8.153619128279387951e-04 6.082929298281669617e-02 -2.097429521381855011e-02 3.145003691315650940e-02 -5.303703993558883667e-02 -7.444587349891662598e-02 1.049027740955352783e-01 7.989525049924850464e-02 -3.171467408537864685e-02 -1.056481152772903442e-03 6.997053325176239014e-02 -1.635797135531902313e-02 -8.154764771461486816e-02 5.787429213523864746e-02 -2.337272651493549347e-02 -5.420589074492454529e-02 -6.814452260732650757e-02 -1.998825930058956146e-02 -5.847995355725288391e-02 6.798303127288818359e-02 -2.788861468434333801e-02 -8.430626988410949707e-02 -6.115019321441650391e-02 2.117369696497917175e-02 -6.642619520425796509e-02 -6.243113800883293152e-02 -2.710954658687114716e-02 -2.268097363412380219e-02 -3.666157275438308716e-02 1.862558908760547638e-02 4.308749362826347351e-02 8.513221889734268188e-02 7.400102913379669189e-02 -3.547265753149986267e-02 5.514440126717090607e-04 8.069054223597049713e-03 -6.563287228345870972e-02 -4.579042643308639526e-02 8.558420091867446899e-02 2.510321140289306641e-02 -3.853542730212211609e-02 -5.990327894687652588e-02 6.364987697452306747e-03 -1.566336490213871002e-02 -6.947675347328186035e-02 -2.099318429827690125e-02 8.527810871601104736e-02 -8.419471979141235352e-02 -6.837914139032363892e-02 -2.846634946763515472e-02 -1.039446368813514709e-01 -3.271397575736045837e-02 -7.654266804456710815e-02 -4.600501805543899536e-02 1.912216097116470337e-02 -5.225124955177307129e-02 2.392912842333316803e-02 -6.325364112854003906e-02 -7.343064248561859131e-02 -1.585946790874004364e-02 -3.756993263959884644e-02 -5.570149794220924377e-02 5.888526141643524170e-02 -1.827245205640792847e-02 -1.568339578807353973e-02 -6.658849865198135376e-02 1.687826821580529213e-03 -4.501566290855407715e-02 9.801055304706096649e-03 3.544322773814201355e-02 -4.052815958857536316e-03 -5.025078728795051575e-02 -3.802419826388359070e-02 -1.961599476635456085e-02 8.649066090583801270e-02 -8.317896723747253418e-02 -2.153488621115684509e-02 -8.166478015482425690e-03 8.842117153108119965e-03 1.277086092159152031e-03 -7.102008908987045288e-03 -9.613458812236785889e-02 2.524488046765327454e-02 -2.269534952938556671e-02 3.638514550402760506e-03 -7.011064141988754272e-02 1.028443127870559692e-01 8.487619459629058838e-02 -3.266529366374015808e-02 -6.094807293266057968e-03 5.180120468139648438e-02 2.827923931181430817e-02 2.829049713909626007e-02 -1.774664968252182007e-02 -5.233480408787727356e-02 -4.433740302920341492e-02 -6.819391623139381409e-03 -5.338607728481292725e-02
-5.242346320301294327e-03 -1.913303509354591370e-02 -3.816436603665351868e-02 -2.930757962167263031e-02 -4.762677941471338272e-03 1.461449824273586273e-02 -4.394954815506935120e-02 -9.903070516884326935e-03 1.232368033379316330e-02 -3.169265389442443848e-02 -1.536768861114978790e-02 4.114348813891410828e-02 3.887712582945823669e-02 -2.948293229565024376e-03 -3.469987958669662476e-02 -2.045650966465473175e-02 -4.852150566875934601e-03 3.694197628647089005e-03 -3.638006374239921570e-02 -1.470065675675868988e-02 3.072987310588359833e-02 7.447232026606798172e-03 4.063639789819717407e-02 2.718536555767059326e-02 1.066271029412746429e-02 3.743222728371620178e-02 4.105075076222419739e-02 -3.573260828852653503e-02 -7.674118969589471817e-03 -1.865631341934204102e-02 1.822522468864917755e-02 -7.798304781317710876e-03 3.698525950312614441e-02 -5.541278049349784851e-03 1.725340262055397034e-02 2.279733540490269661e-03 -6.995249073952436447e-03 -6.361018400639295578e-03 6.459030788391828537e-03 -1.900141686201095581e-02 2.304762974381446838e-02 4.019025340676307678e-02 2.087307348847389221e-02 -2.997336210682988167e-03 -2.623979561030864716e-02 2.536041662096977234e-02 1.602492667734622955e-02 5.228938069194555283e-03 -6.329713854938745499e-03 5.197986494749784470e-03 9.874954121187329292e-04 -3.460004925727844238e-02 -6.505582015961408615e-03 -1.066901069134473801e-02 -4.256827011704444885e-02 -2.400261349976062775e-02 2.297456376254558563e-02 -9.987881407141685486e-03 -2.959967823699116707e-03 -1.587828807532787323e-02 2.224587462842464447e-02 2.976422570645809174e-02 -2.990087121725082397e-02 1.952647604048252106e-02 -1.610531099140644073e-02 9.341269033029675484e-04 -3.906175121665000916e-02 2.007700875401496887e-02 2.934742951765656471e-03 1.173297688364982605e-02 -4.666783381253480911e-03 -4.394127801060676575e-02 3.104966133832931519e-02 1.543414965271949768e-02 2.271925797685980797e-03 -5.029241088777780533e-03 -3.879316523671150208e-02 3.969555720686912537e-02 2.458637394011020660e-02 -2.822146564722061157e-02 3.007610701024532318e-02 -3.086153417825698853e-02 3.360862284898757935e-02 5.921168718487024307e-03 1.400735229253768921e-02 -3.046221286058425903e-02 -2.338809147477149963e-02 -2.961923927068710327e-02 -3.454302251338958740e-02 -7.321107666939496994e-03 -2.803914435207843781e-02 -2.197280153632164001e-02 9.971080347895622253e-03 2.665602229535579681e-02 -6.077896803617477417e-03 -3.842961043119430542e-02 4.375601559877395630e-02 -5.240533966571092606e-03 9.621140547096729279e-03 9.603454731404781342e-03 -3.757636994123458862e-02 -2.722924575209617615e-02 -2.540654037147760391e-03 -1.102126389741897583e-02 2.825332991778850555e-02 -3.842543810606002808e-02 -4.280700907111167908e-02 2.939225733280181885e-02 1.153317373245954514e-02 6.152776069939136505e-03 -1.728118769824504852e-02 2.622309885919094086e-02 -3.502731397747993469e-02 -3.737726435065269470e-02 -2.615324594080448151e-02 -2.230397053062915802e-02 4.023878648877143860e-02 4.203898459672927856e-02 1.170520205050706863e-02 -1.073526032269001007e-02 -2.504638023674488068e-02 -4.080500453710556030e-02 4.351007565855979919e-02 -2.034138143062591553e-02 2.439786214381456375e-03 9.602237492799758911e-03 3.998484089970588684e-02 2.866122685372829437e-02 -3.589357808232307434e-02 2.488816715776920319e-02 9.354825131595134735e-03 -2.203329652547836304e-02 5.580000113695859909e-03 9.992833249270915985e-03 -3.244885429739952087e-02 -3.781031072139739990e-02 2.520946785807609558e-02 2.079587616026401520e-02 -4.366940411273390055e-04 3.600617870688438416e-02 -4.344615712761878967e-02 4.108277708292007446e-02 1.669201627373695374e-02 4.344407096505165100e-02 6.345197558403015137e-03 -2.710437402129173279e-03 -1.609486527740955353e-02 -2.057247608900070190e-02 1.615894958376884460e-02 2.611987665295600891e-02 -1.072084624320268631e-02 -3.187733516097068787e-02 -4.334497731178998947e-03 -4.399466142058372498e-02 2.279354259371757507e-03 -1.117205992341041565e-02 1.339917816221714020e-02 -3.491034358739852905e-02 4.028121381998062134e-02 1.454654708504676819e-02 -1.939227618277072906e-02 -4.417784139513969421e-02 -7.466651033610105515e-03 -2.718569710850715637e-02 1.240529771894216537e-02 1.729116030037403107e-02 -4.284849762916564941e-02 -4.289915785193443298e-02 1.060446817427873611e-02 -3.857083618640899658e-02 -3.203123575076460838e-03 -4.357691481709480286e-02 -1.913256128318607807e-03 -2.140038274228572845e-02 -2.876548795029520988e-03 3.966025635600090027e-02 3.775886446237564087e-02 3.087954595685005188e-02 3.248303756117820740e-02 4.293575882911682129e-02 3.902859613299369812e-02 -1.320661976933479309e-02 -2.744485810399055481e-02 -4.593063145875930786e-03 6.766644772142171860e-03 -3.556183353066444397e-02 -2.421122975647449493e-02 2.770839200820773840e-04 3.507223725318908691e-02 -1.202848367393016815e-02 3.004696778953075409e-02 -3.643343225121498108e-02 2.403173781931400299e-02 -2.225178666412830353e-02 -2.501054480671882629e-02 6.352578289806842804e-03 3.326467797160148621e-02 -3.027952834963798523e-02 2.107045799493789673e-02 1.283187605440616608e-02 1.093276031315326691e-02 1.179913152009248734e-02 4.408783093094825745e-02 3.315756842494010925e-02 -4.372039064764976501e-02 1.091761441784910858e-04 -1.854399591684341431e-02 1.548915635794401169e-02 -1.379562728106975555e-02 -1.618759334087371826e-02 1.497477496741339564e-04 3.531866893172264099e-02 1.735781133174896240e-02 3.567269071936607361e-02 -4.376296326518058777e-02 -3.649947047233581543e-02 1.007007807493209839e-02 -4.115972667932510376e-02 -2.891267463564872742e-02 -3.822120651602745056e-02 3.774132579565048218e-02 -8.469330146908760071e-03 3.382803127169609070e-02 1.006456185132265091e-02 -6.926728878170251846e-03 -7.131821010261774063e-03 9.500953368842601776e-03 2.535559609532356262e-02 1.891159079968929291e-02 -3.923133015632629395e-02 -2.122515812516212463e-02 -4.385435953736305237e-02 2.575829438865184784e-02 -3.172671794891357422e-02 2.260128408670425415e-02 4.276083409786224365e-02 -3.131357952952384949e-03 -1.270677894353866577e-02 2.541280537843704224e-02 -2.343474328517913818e-02 -2.782686054706573486e-02 -2.439633384346961975e-02 -2.460303716361522675e-02 -5.734552978537976742e-04 -1.570713520050048828e-02 -4.372887685894966125e-02 4.196359962224960327e-02 -8.867512457072734833e-03 3.101111389696598053e-02 4.742468707263469696e-03 -2.734882570803165436e-02 1.542790606617927551e-02 -2.035807631909847260e-02 2.779375389218330383e-02 -6.923926528543233871e-03 -1.067349966615438461e-02 1.001627743244171143e-02 3.445684537291526794e-02 -3.860940923914313316e-03 1.665246114134788513e-02 -3.931752871721982956e-03 3.903030976653099060e-02 9.739609668031334877e-04 4.177929088473320007e-02 1.183987688273191452e-02 -2.403097972273826599e-02 -2.197336964309215546e-02 -1.774724689312279224e-03 1.158417668193578720e-02 -2.900714613497257233e-02 8.183621801435947418e-03 -4.178947582840919495e-02 9.494889527559280396e-03 4.326172173023223877e-02 2.215884253382682800e-02 2.272179722785949707e-02 -2.178606390953063965e-02 4.198563471436500549e-02 2.091407775878906250e-02 -3.395105525851249695e-02 4.349104315042495728e-02 -6.064188666641712189e-03 8.770922198891639709e-03 2.864510565996170044e-02 -1.221120078116655350e-02 -3.659916296601295471e-02 3.880694136023521423e-02 3.020709380507469177e-02 1.142011024057865143e-03 -1.845431397669017315e-03 1.392053440213203430e-02 3.030877374112606049e-02 -3.974105790257453918e-02 -3.055348806083202362e-02 -3.292351216077804565e-02 -3.405017033219337463e-02 2.141541987657546997e-02 3.655856102705001831e-02 3.983839228749275208e-02 3.618352860212326050e-02 -1.970342546701431274e-02 2.156698890030384064e-02 -3.226643428206443787e-02 4.689058288931846619e-03 7.062373217195272446e-03 4.515871405601501465e-03 1.212340407073497772e-02 2.130725979804992676e-02 1.728926971554756165e-02 -9.160000830888748169e-03 5.297769326716661453e-03 -2.090070582926273346e-02 -2.161390380933880806e-03 1.530531700700521469e-02 3.750594332814216614e-02 3.139914944767951965e-02 3.038861416280269623e-02 -7.722551003098487854e-03 1.694255322217941284e-02 4.025100171566009521e-02 3.852975741028785706e-02 1.568520255386829376e-02 -3.476944938302040100e-02 -1.646183244884014130e-02 3.336963430047035217e-02 -2.654376253485679626e-02 3.224494680762290955e-02 -1.863944344222545624e-04 -4.166606813669204712e-02 1.097469683736562729e-02 -4.202227294445037842e-02 -1.792396418750286102e-02 -1.411569584161043167e-02 -2.565878443419933319e-02 9.405875578522682190e-03 -1.378634944558143616e-02 2.978307567536830902e-02 2.251731231808662415e-02 -2.631564438343048096e-02 1.023457152768969536e-03 -4.143865779042243958e-02 1.473875250667333603e-02 -1.018417440354824066e-02 -2.772637829184532166e-02 -8.668194524943828583e-03 -3.377795964479446411e-02 9.100700728595256805e-03 -3.406778350472450256e-02 1.369609218090772629e-02 -3.859757259488105774e-02 3.766747936606407166e-02 3.897881135344505310e-02 -2.986066229641437531e-02 -4.137884825468063354e-02 -1.795762777328491211e-02 -2.254337444901466370e-02 3.829487413167953491e-02 1.392676774412393570e-02 -7.040546741336584091e-03 3.984202817082405090e-02 3.409111499786376953e-02 -1.612675935029983521e-02 -2.168677560985088348e-02 -3.884050622582435608e-02 -2.511083893477916718e-02 -3.367234393954277039e-02 -3.161580860614776611e-02 8.444890379905700684e-03 1.903255842626094818e-02 7.243720814585685730e-03 5.505147390067577362e-03 -3.503614861983805895e-04 -3.138638800010085106e-03 3.608549386262893677e-02 -4.302927479147911072e-02 -1.967875286936759949e-02 -3.790589049458503723e-02 -1.495594065636396408e-02 -4.399283602833747864e-02 -4.336169362068176270e-02 -1.324130129069089890e-02 3.108969517052173615e-02 -3.727604076266288757e-02 1.899113692343235016e-02 4.061112552881240845e-02 1.579035818576812744e-02 9.367284364998340607e-03 -2.934085950255393982e-02 2.533465996384620667e-02 -2.229964919388294220e-02 -6.092885509133338928e-03 2.400138601660728455e-02 1.159686874598264694e-02 -1.184364873915910721e-02 -1.660035178065299988e-02 -6.062381435185670853e-03 -3.188941162079572678e-03 -1.455536112189292908e-02 -8.948660455644130707e-03 -3.799094632267951965e-02 3.802578523755073547e-02 -2.357331104576587677e-03 -2.996285818517208099e-02 -3.605415672063827515e-02 -2.811662666499614716e-02 2.312353625893592834e-02 -2.740092016756534576e-02 2.241425216197967529e-02 3.588310629129409790e-02 2.548830525483936071e-04 -2.875800058245658875e-02 1.600821618922054768e-03 4.092712327837944031e-02 2.004063688218593597e-02 -3.027248941361904144e-02 3.370149433612823486e-02 -1.826067455112934113e-02 -3.193724900484085083e-03 -2.180763334035873413e-02 1.000151503831148148e-02 -4.086900968104600906e-03 3.645133459940552711e-03 -2.837941050529479980e-02 4.202506318688392639e-02 3.653260692954063416e-02 -3.598673269152641296e-02 2.274441905319690704e-02 -2.462830953299999237e-02 -2.471966296434402466e-02 1.713828928768634796e-02 -1.500261854380369186e-02 8.447982370853424072e-03 2.959503792226314545e-02 -2.287390083074569702e-02 -4.093138128519058228e-02 -1.311589870601892471e-02 -1.496579777449369431e-02 -3.348501771688461304e-02 -3.913601860404014587e-02 -1.341775991022586823e-02 -2.698898687958717346e-02 1.080694701522588730e-02 -6.345155416056513786e-04 -1.012598536908626556e-02 -1.147890463471412659e-02 -1.644382439553737640e-02 -3.112040460109710693e-02 4.683094448409974575e-04 -2.887886762619018555e-02 -2.777919871732592583e-03 -3.765268251299858093e-02 -4.771455191075801849e-03 -2.613963326439261436e-03 1.227172929793596268e-02 3.826339915394783020e-02 2.487589232623577118e-02 2.403598837554454803e-02 -1.895280554890632629e-03 1.556525193154811859e-02 -2.357926033437252045e-02 -3.491891548037528992e-02 3.666910529136657715e-02 3.524639084935188293e-02 -4.307346791028976440e-02 -4.103918001055717468e-02 3.364612907171249390e-02 8.392154239118099213e-03 6.954050622880458832e-03 4.316626489162445068e-02 2.095107734203338623e-02 -2.476263232529163361e-02 -2.738465555012226105e-02 1.424271613359451294e-02 4.088614135980606079e-02 1.604042202234268188e-02 2.533124573528766632e-02 -1.827190257608890533e-02 -2.582187764346599579e-02 -1.534903887659311295e-03 -2.584911510348320007e-02 2.790052909404039383e-03 1.359196845442056656e-02 1.355854049324989319e-02 -3.125599026679992676e-02 -4.308025166392326355e-02 -1.339028496295213699e-02 -2.214518189430236816e-02 2.936334535479545593e-02 3.930246829986572266e-02 -9.666922502219676971e-03 -4.174093529582023621e-02 -3.936291858553886414e-02 2.927994169294834137e-02 -1.682583801448345184e-02 3.170032426714897156e-02 -2.724539861083030701e-02 6.845506839454174042e-03 3.011420741677284241e-02 3.436196595430374146e-02 -3.103506937623023987e-02 -2.576813474297523499e-02 1.440952252596616745e-02 -4.375317320227622986e-02 -2.540973946452140808e-02 3.581929951906204224e-02 -1.549735944718122482e-02 -2.637907490134239197e-02 1.899436116218566895e-02 -8.408601395785808563e-03 -3.104179166257381439e-02 -2.342054434120655060e-02 -1.138511765748262405e-02
