-1.623534858226776123e-01 1.299629658460617065e-01 1.421357244253158569e-01 -1.269735097885131836e-01 -1.764509975910186768e-01 -7.261788100004196167e-02 -3.990515600889921188e-03 -1.177155226469039917e-01 -1.508525460958480835e-01 1.040883213281631470e-01 9.590663760900497437e-02 -7.591487467288970947e-02 1.210892349481582642e-01 -9.514997154474258423e-02 8.308720588684082031e-02 1.797289401292800903e-02 6.508289277553558350e-02 -6.457447540014982224e-03 2.138119637966156006e-01 6.341384351253509521e-02 -7.911942899227142334e-02 1.355289369821548462e-01 -1.176937445998191833e-01 2.034835517406463623e-01 -2.082042098045349121e-01 3.199077025055885315e-02 -3.370933234691619873e-02 1.052686348557472229e-01 2.095543593168258667e-01 1.695126146078109741e-01 -1.291129738092422485e-01 1.527039855718612671e-01
-2.750786021351814270e-02 7.199916057288646698e-03 6.845454126596450806e-02 2.047156542539596558e-01 -5.937113612890243530e-02 -9.748379141092300415e-02 -1.459654867649078369e-01 6.292597949504852295e-02 4.132631421089172363e-02 -2.796452306210994720e-02 -7.124880701303482056e-02 2.274359315633773804e-01 8.524675667285919189e-02 -1.856428831815719604e-01 3.416481195017695427e-03 -1.173394247889518738e-01 -1.953450143337249756e-01 1.098117157816886902e-01 -5.524901673197746277e-02 -7.401837408542633057e-02 -1.313840746879577637e-01 -1.570775061845779419e-01 -1.938894838094711304e-01 -4.998899623751640320e-02 2.525188028812408447e-01 1.843080222606658936e-01 -1.403494179248809814e-01 -4.233935847878456116e-02 -5.431840941309928894e-02 2.048513293266296387e-01 -1.229378655552864075e-01 -4.215734452009201050e-02
-3.125611320137977600e-02 1.761689968407154083e-02 2.267346084117889404e-01 7.277006655931472778e-02 1.839513182640075684e-01 3.172403201460838318e-02 -9.125631302595138550e-02 -1.964066922664642334e-01 1.064582243561744690e-01 4.385038092732429504e-02 9.900197619572281837e-04 -1.405941247940063477e-01 5.309467017650604248e-02 -1.101526916027069092e-01 1.977835297584533691e-01 1.781965233385562897e-02 9.381050243973731995e-03 -1.287093609571456909e-01 2.044731751084327698e-02 1.912676095962524414e-01 2.090649604797363281e-01 -1.747130304574966431e-01 -8.971052616834640503e-02 -1.738355457782745361e-01 -1.474899202585220337e-01 -5.301620066165924072e-02 -1.695935614407062531e-02 5.569891259074211121e-02 1.073384936898946762e-02 -4.159368202090263367e-02 -1.528302878141403198e-01 1.099079251289367676e-01
-7.206073030829429626e-03 -7.281217724084854126e-02 -7.614096999168395996e-02 2.167602479457855225e-01 -6.874670833349227905e-02 1.127065941691398621e-01 -2.218662016093730927e-02 7.294731214642524719e-03 1.052396595478057861e-01 1.289441734552383423e-01 -9.677617996931076050e-02 -1.863177567720413208e-01 -2.287566661834716797e-01 -9.836548008024692535e-03 5.047989264130592346e-02 1.728916615247726440e-01 1.075943335890769958e-01 1.709991842508316040e-01 6.501358747482299805e-02 -7.546156644821166992e-02 -3.259336575865745544e-02 -6.896099075675010681e-04 1.116139441728591919e-01 1.686638146638870239e-01 2.532842196524143219e-02 -1.150370091199874878e-01 -8.174127340316772461e-02 1.862608343362808228e-01 -7.836405932903289795e-02 -3.792508505284786224e-03 1.218485832214355469e-01 1.295589059591293335e-01
2.880801260471343994e-01 -6.303197890520095825e-02 4.751835018396377563e-02 1.347769349813461304e-01 1.308050286024808884e-02 -2.443306148052215576e-01 -1.260248273611068726e-01 -1.136990636587142944e-01 1.099658980965614319e-01 2.826586961746215820e-01 -2.146515548229217529e-01 5.889121908694505692e-03 6.683012098073959351e-02 9.391570836305618286e-02 8.813197910785675049e-02 -1.208618804812431335e-01 2.497117817401885986e-01 -2.305995821952819824e-01 -2.546566538512706757e-02 1.082201823592185974e-01 -4.797138646245002747e-02 2.576757967472076416e-01 4.823983833193778992e-02 2.101034075021743774e-01 1.766126900911331177e-01 1.246010884642601013e-01 1.401144266128540039e-01 4.159008339047431946e-02 -2.053984627127647400e-02 -2.485786378383636475e-01 9.033913165330886841e-02 1.318637132644653320e-01
7.723313756287097931e-03 -1.626057475805282593e-01 1.735232770442962646e-01 7.837746292352676392e-02 1.617456227540969849e-01 2.623393535614013672e-01 -1.418428719043731689e-01 -5.366158485412597656e-02 4.777897614985704422e-03 -1.549802348017692566e-02 -1.667719930410385132e-01 2.499967813491821289e-01 -1.444652378559112549e-01 2.266222983598709106e-02 3.828835114836692810e-02 8.285214006900787354e-02 -1.301441043615341187e-01 -1.879472732543945312e-01 1.992702782154083252e-01 1.986772865056991577e-01 -2.361402660608291626e-01 -1.761816889047622681e-01 1.717883534729480743e-02 2.087156847119331360e-02 -1.957963407039642334e-01 8.361811190843582153e-02 1.740468591451644897e-01 -1.710621118545532227e-01 2.426928430795669556e-01 -2.020076513290405273e-01 -4.401881992816925049e-02 -1.204113811254501343e-01
8.269301056861877441e-02 1.027370989322662354e-02 9.858302772045135498e-02 -2.129018306732177734e-01 1.705196052789688110e-01 -6.467851996421813965e-02 -8.139570802450180054e-02 7.267536129802465439e-03 -9.648393094539642334e-02 1.065877079963684082e-01 2.147928029298782349e-01 5.545952916145324707e-02 -1.271273493766784668e-01 -1.175126284360885620e-01 -2.204498797655105591e-01 1.657856442034244537e-02 -2.166007608175277710e-01 -2.497414201498031616e-01 -7.187420129776000977e-02 -3.604993820190429688e-01 -1.858657225966453552e-03 6.206315755844116211e-02 2.655883729457855225e-01 -4.942904692143201828e-03 1.986722946166992188e-01 2.139371354132890701e-03 1.294896006584167480e-01 1.445473432540893555e-01 1.483169496059417725e-01 1.645473837852478027e-01 -1.229245290160179138e-01 1.409222036600112915e-01
