-9.028024971485137939e-02 2.616151422262191772e-02 -6.902045570313930511e-04 2.702182531356811523e-02 -5.297210067510604858e-02 3.320226818323135376e-02 -1.220856830477714539e-01 -8.119446784257888794e-02 -1.868342906236648560e-01 6.971655040979385376e-02 2.225210424512624741e-03 -5.682081356644630432e-02 -1.659917384386062622e-01 2.009818702936172485e-01 -1.215795204043388367e-01 -1.501756906509399414e-01 -1.121805012226104736e-01 -1.880453079938888550e-01 3.257567435503005981e-02 -4.283129051327705383e-02 -1.814948767423629761e-02 -2.284777350723743439e-02 1.556833386421203613e-01 1.381560713052749634e-01 -1.572564393281936646e-01 -5.488473549485206604e-02 -5.268722027540206909e-02 3.017115592956542969e-02 1.477046012878417969e-01 -7.573198527097702026e-02 -7.307668682187795639e-03 -1.041750237345695496e-01 6.616195291280746460e-02 -2.093981392681598663e-02 1.402092128992080688e-01 -1.078568696975708008e-01 -9.690294414758682251e-02 1.322806626558303833e-01 6.748065352439880371e-02 -1.478055119514465332e-01 1.145674511790275574e-01 -1.639596074819564819e-01 1.950879842042922974e-01 -1.233729720115661621e-01 1.889253966510295868e-02 -1.745446175336837769e-01 1.869233250617980957e-01 -1.294837296009063721e-01 -5.342444404959678650e-02 -8.595933020114898682e-02 1.264028698205947876e-01 -7.101096957921981812e-02 -9.453864395618438721e-02 9.334868937730789185e-02 2.451983047649264336e-03 -7.216490805149078369e-02 -1.908355206251144409e-02 -3.899833187460899353e-02 1.020886655896902084e-02 -9.040400385856628418e-03 -1.301890006288886070e-03 -3.600167483091354370e-02 7.653772830963134766e-02 1.398709267377853394e-01
-8.928962051868438721e-02 -3.082622401416301727e-02 -3.261767327785491943e-02 9.589904546737670898e-02 8.240331709384918213e-02 7.060127705335617065e-02 -7.386325299739837646e-02 -7.964505814015865326e-03 8.339715003967285156e-02 1.019697338342666626e-01 8.069876581430435181e-02 -1.047566458582878113e-01 -7.703406363725662231e-02 -9.229581058025360107e-02 -8.572623133659362793e-02 -5.412036180496215820e-02 -3.628261387348175049e-02 -9.245882928371429443e-02 6.104952841997146606e-02 4.122452437877655029e-02 -6.083548069000244141e-03 -2.764278277754783630e-02 9.200429916381835938e-02 8.474256843328475952e-02 -1.083334758877754211e-01 -6.343618780374526978e-02 5.486127734184265137e-02 -1.270289719104766846e-01 6.150987744331359863e-02 -2.036266028881072998e-02 -6.315021216869354248e-02 2.292080968618392944e-02 2.290826290845870972e-02 1.460177358239889145e-02 2.547666430473327637e-02 7.786858081817626953e-02 -1.955565810203552246e-02 4.430437833070755005e-02 8.166977763175964355e-02 5.086112394928932190e-02 -6.253574788570404053e-02 -4.317516088485717773e-02 -1.190523803234100342e-02 -4.255309700965881348e-02 -9.261313080787658691e-02 -2.650941908359527588e-02 6.909209769219160080e-03 7.325605303049087524e-02 -1.890321448445320129e-02 8.163346350193023682e-02 -9.804263710975646973e-03 -3.274807333946228027e-02 -8.747974783182144165e-02 -6.442648172378540039e-02 1.554754376411437988e-02 -8.540472388267517090e-02 2.131517976522445679e-02 7.202203571796417236e-02 -1.130260825157165527e-01 8.550164103507995605e-02 -5.255793035030364990e-02 -3.586531803011894226e-02 3.911419771611690521e-03 7.114070001989603043e-03
-1.424053162336349487e-01 1.048901025205850601e-02 -8.032371848821640015e-02 -2.746338583528995514e-02 5.424869805574417114e-02 -1.235838457942008972e-01 7.491414994001388550e-02 2.263891696929931641e-02 1.800552755594253540e-02 -6.471895147114992142e-03 5.963011458516120911e-02 -1.138264685869216919e-01 -8.377920836210250854e-02 1.066106371581554413e-02 -5.477634072303771973e-02 5.269600823521614075e-02 1.447146534919738770e-01 6.456767022609710693e-02 -7.826062291860580444e-02 5.637187138199806213e-02 -1.220980137586593628e-01 3.486017230898141861e-03 -1.165934503078460693e-01 -3.542000427842140198e-02 7.488031685352325439e-02 -9.164018929004669189e-02 6.366608291864395142e-02 3.730693459510803223e-02 6.115715578198432922e-02 -4.376911371946334839e-02 2.659314312040805817e-02 1.175324544310569763e-01 5.283882468938827515e-02 -5.615136772394180298e-02 -8.714580535888671875e-02 4.155431687831878662e-02 -2.534032240509986877e-02 -1.149881184101104736e-01 6.433182954788208008e-02 -8.471870422363281250e-02 -5.256968364119529724e-02 -6.908110342919826508e-03 7.688020914793014526e-02 -6.166346371173858643e-02 9.552916884422302246e-02 8.659773319959640503e-02 9.589002281427383423e-02 -3.184054419398307800e-02 1.291321665048599243e-01 1.096467524766921997e-01 1.196510195732116699e-01 1.407741755247116089e-01 -3.273544460535049438e-02 -9.373091161251068115e-03 2.360697649419307709e-02 1.447531580924987793e-02 1.070226877927780151e-01 5.742147564888000488e-02 -1.064699068665504456e-01 4.924166202545166016e-02 6.392761319875717163e-02 -1.430836170911788940e-01 2.866988629102706909e-02 8.894471079111099243e-02
1.396307200193405151e-01 7.296726573258638382e-03 -5.214643198996782303e-03 -1.726177148520946503e-02 1.486405879259109497e-01 1.530596241354942322e-02 -1.063388139009475708e-01 2.422440797090530396e-02 -5.847926437854766846e-02 -8.286452293395996094e-02 1.919210851192474365e-01 7.569880038499832153e-02 1.281595975160598755e-01 9.766177088022232056e-02 -9.602222591638565063e-02 -1.169953681528568268e-02 9.450031071901321411e-02 3.817569464445114136e-02 1.432665139436721802e-01 -6.885502487421035767e-02 -9.575691074132919312e-02 -2.933705225586891174e-02 1.417074501514434814e-01 -7.179887592792510986e-02 -2.864834619686007500e-03 1.125969141721725464e-01 4.776928201317787170e-02 1.450062543153762817e-01 1.115801185369491577e-01 -9.775274246931076050e-02 9.808183461427688599e-02 -1.160894706845283508e-01 1.370398998260498047e-01 1.422910839319229126e-01 1.853040419518947601e-02 -8.640694431960582733e-03 -8.745520561933517456e-02 -3.892503678798675537e-02 8.106255531311035156e-02 -4.371342808008193970e-02 1.050485745072364807e-01 -1.511570066213607788e-01 -9.220656007528305054e-02 -5.983467400074005127e-02 -1.554183214902877808e-01 -8.052698522806167603e-02 -2.908643148839473724e-02 1.499126702547073364e-01 -1.202030852437019348e-01 -9.454604983329772949e-02 -1.710942015051841736e-02 -1.522053480148315430e-01 -1.527024954557418823e-01 -1.858382076025009155e-01 9.073662012815475464e-02 -1.172209307551383972e-01 -9.627957828342914581e-03 5.468343943357467651e-02 -1.181205436587333679e-01 -1.322522908449172974e-01 8.429659903049468994e-02 2.206055968999862671e-01 -1.748052537441253662e-01 6.009155884385108948e-02
-8.184017241001129150e-02 -2.054790109395980835e-01 -1.401136964559555054e-01 -1.276459991931915283e-01 1.079645827412605286e-01 -1.518272161483764648e-01 1.549102813005447388e-01 1.223560348153114319e-01 1.545832585543394089e-02 7.724829949438571930e-03 -9.655748307704925537e-02 -8.349823206663131714e-02 1.203836649656295776e-01 5.315406247973442078e-02 -9.779985249042510986e-02 -1.359350532293319702e-01 3.098449110984802246e-02 6.127768382430076599e-02 -1.722322553396224976e-01 -1.475101560354232788e-01 -7.668052613735198975e-02 -6.410354375839233398e-02 -4.730331897735595703e-02 1.725979298353195190e-01 1.951883286237716675e-01 1.775321066379547119e-01 1.321928761899471283e-02 9.802001714706420898e-02 1.271880604326725006e-02 1.568821668624877930e-01 -1.569492667913436890e-01 1.065841838717460632e-01 3.287723660469055176e-02 4.825937375426292419e-02 -1.165200099349021912e-01 8.690117299556732178e-02 7.657554000616073608e-02 2.551298029720783234e-02 -1.005551069974899292e-01 1.730740815401077271e-01 1.893765926361083984e-01 -7.589659187942743301e-03 -4.364602640271186829e-02 -8.922939002513885498e-02 -8.221023529767990112e-02 1.901640146970748901e-01 1.366498023271560669e-01 -1.056005284190177917e-01 1.299979388713836670e-01 -7.808189094066619873e-02 1.385225951671600342e-01 8.544422686100006104e-02 8.343497663736343384e-02 8.400142192840576172e-02 1.083429306745529175e-01 3.280514385551214218e-03 1.160154026001691818e-02 -8.595832623541355133e-03 8.929839730262756348e-02 9.208167344331741333e-02 1.289633065462112427e-01 -4.933209158480167389e-03 5.929791927337646484e-02 1.432795226573944092e-01
-1.018502488732337952e-01 -3.872182592749595642e-02 1.072543021291494370e-02 9.375915676355361938e-02 1.565877497196197510e-01 1.364093422889709473e-01 -6.838785856962203979e-02 9.633495658636093140e-02 -3.409816697239875793e-02 9.865561127662658691e-02 5.106218904256820679e-02 1.265121847391128540e-01 5.927181616425514221e-02 -1.668517589569091797e-01 2.474944666028022766e-02 2.564190514385700226e-02 8.921212702989578247e-02 1.635544449090957642e-01 1.704164743423461914e-01 5.912441015243530273e-02 -3.244834393262863159e-02 -1.169776096940040588e-01 5.902642011642456055e-02 6.473805755376815796e-02 -1.146962717175483704e-01 1.577875316143035889e-01 -7.643359899520874023e-02 -1.307422369718551636e-01 -1.698620915412902832e-01 9.431271813809871674e-03 1.560251712799072266e-01 1.828714460134506226e-01 1.010653078556060791e-01 4.994532465934753418e-02 -7.071094959974288940e-02 -1.529666502028703690e-02 -9.528206661343574524e-03 4.504023585468530655e-03 -6.407488882541656494e-02 7.657359540462493896e-02 3.436725214123725891e-02 1.870548129081726074e-01 7.428506761789321899e-02 -1.162983477115631104e-02 -1.708984673023223877e-01 2.302680164575576782e-01 -3.957981243729591370e-02 -1.265811640769243240e-02 -1.093625724315643311e-01 -7.649008184671401978e-02 4.902475327253341675e-02 -1.119984090328216553e-01 -1.060965657234191895e-02 1.644614636898040771e-01 7.540807127952575684e-02 -5.438485369086265564e-02 1.346402615308761597e-01 8.017892390489578247e-02 1.373669058084487915e-01 9.960855543613433838e-02 9.866674244403839111e-02 -1.291111409664154053e-01 -2.344926074147224426e-02 5.024667829275131226e-02
-3.227778896689414978e-02 8.055826276540756226e-02 5.011780187487602234e-02 1.079480722546577454e-01 -1.304771155118942261e-01 -4.462058842182159424e-02 1.071487739682197571e-02 -1.191687881946563721e-01 1.122002303600311279e-01 -6.704935431480407715e-02 -8.230251073837280273e-02 1.743178963661193848e-01 -4.936008900403976440e-02 4.937812685966491699e-02 5.585405975580215454e-02 3.295342996716499329e-02 1.303274929523468018e-01 -1.121889948844909668e-01 6.147740781307220459e-02 1.025198623538017273e-01 1.178502589464187622e-01 2.719428203999996185e-02 4.383672028779983521e-02 -5.637546256184577942e-02 -1.697762161493301392e-01 -5.451535340398550034e-03 8.133227936923503876e-03 1.138667017221450806e-01 6.601451337337493896e-02 1.232943311333656311e-01 1.588372290134429932e-01 1.796827167272567749e-01 8.247260749340057373e-02 8.170464634895324707e-02 6.447485834360122681e-02 -3.234824910759925842e-02 1.024532988667488098e-01 1.729344278573989868e-01 1.131425350904464722e-01 1.129848510026931763e-01 -1.164507344365119934e-01 -4.189356416463851929e-02 -4.891030117869377136e-02 -2.907611429691314697e-02 1.743190139532089233e-01 6.740167737007141113e-02 -9.825184009969234467e-03 3.556143864989280701e-02 1.236432492733001709e-01 5.607464537024497986e-02 -1.141726896166801453e-01 2.216449193656444550e-02 3.679110109806060791e-02 1.438615620136260986e-01 -1.389336436986923218e-01 1.645535230636596680e-03 1.499461531639099121e-01 -7.378425449132919312e-02 -6.406150758266448975e-02 -7.973317801952362061e-02 6.581018120050430298e-02 -3.999260812997817993e-02 1.456492394208908081e-01 1.466877907514572144e-01
7.502462714910507202e-02 1.609912961721420288e-01 1.464532017707824707e-01 2.293850481510162354e-02 -9.406680613756179810e-02 7.086811959743499756e-02 -1.182489842176437378e-01 1.468431502580642700e-01 -1.286124587059020996e-01 1.196968629956245422e-01 4.808146506547927856e-02 9.335485845804214478e-02 8.915252238512039185e-02 -5.271994322538375854e-02 4.318080469965934753e-02 1.417241990566253662e-01 -4.616465792059898376e-02 -2.547878213226795197e-02 -4.451940208673477173e-02 1.232744939625263214e-02 1.260039955377578735e-01 -1.250213980674743652e-01 8.160016685724258423e-02 -1.987569220364093781e-02 -1.577628552913665771e-01 -7.221600413322448730e-02 6.544385850429534912e-02 1.242645978927612305e-01 4.913887381553649902e-02 1.318091154098510742e-01 -1.395268645137548447e-02 1.023495346307754517e-01 5.633292347192764282e-02 1.424391288310289383e-02 -1.015846058726310730e-01 5.306162685155868530e-02 6.201831251382827759e-02 1.156408190727233887e-01 -8.189275860786437988e-03 -6.991343945264816284e-02 1.443194895982742310e-01 1.909641623497009277e-01 1.003331914544105530e-01 7.274115085601806641e-02 1.029758527874946594e-01 7.553084939718246460e-02 1.457552909851074219e-01 -2.933347225189208984e-02 1.580461710691452026e-01 -6.201795116066932678e-02 -1.665715426206588745e-01 -8.377519994974136353e-02 -4.196715727448463440e-02 -9.766206145286560059e-03 1.334275305271148682e-01 -6.717434525489807129e-02 -3.808138892054557800e-02 -1.208869963884353638e-01 -6.900364905595779419e-02 5.454792827367782593e-02 -9.484606981277465820e-02 -1.823108643293380737e-01 2.781559713184833527e-02 6.913975626230239868e-02
7.316547632217407227e-02 -3.791178762912750244e-02 -6.428100168704986572e-02 -5.002459883689880371e-02 -1.219715401530265808e-01 -1.299462001770734787e-02 8.564752340316772461e-02 1.094616279006004333e-01 -6.105775386095046997e-02 -2.060838043689727783e-02 6.917263567447662354e-02 -4.658194258809089661e-02 -1.146564334630966187e-01 -1.011577695608139038e-01 -1.014111191034317017e-01 1.039562970399856567e-01 3.078803792595863342e-02 -1.063092947006225586e-01 -9.403049945831298828e-02 9.036111086606979370e-02 -1.166993379592895508e-01 3.688905388116836548e-02 8.767431974411010742e-02 1.073615774512290955e-01 3.955652192234992981e-02 -1.302128285169601440e-01 7.510392367839813232e-02 3.300662338733673096e-02 -5.849175155162811279e-02 -8.523981273174285889e-02 7.239747047424316406e-02 3.655987977981567383e-02 -2.402656525373458862e-02 -5.963204056024551392e-02 -1.019281148910522461e-02 -4.767546057701110840e-02 -6.228130683302879333e-02 6.146014481782913208e-02 -7.727475464344024658e-02 1.155589967966079712e-01 -6.640096008777618408e-02 -1.028793156147003174e-01 -1.016217321157455444e-01 -8.631615340709686279e-02 -9.047449380159378052e-02 8.559627830982208252e-02 1.634017378091812134e-02 -1.280728131532669067e-01 -1.198548972606658936e-01 8.362233638763427734e-04 -6.574423611164093018e-02 1.358809228986501694e-02 6.278202682733535767e-02 -1.252525835298001766e-03 -8.103308081626892090e-02 3.046287596225738525e-02 3.625452890992164612e-02 8.201312273740768433e-02 -1.145780384540557861e-01 5.090595781803131104e-02 7.358756382018327713e-03 1.116069257259368896e-01 -3.756633400917053223e-02 -9.459402412176132202e-02
5.437729880213737488e-03 3.169013187289237976e-02 6.517978757619857788e-02 -8.217262476682662964e-02 -1.879563555121421814e-02 -5.624045059084892273e-02 5.131972953677177429e-02 1.091370508074760437e-01 5.357705801725387573e-02 -1.977623403072357178e-01 2.841814607381820679e-02 -7.550938427448272705e-02 1.975741088390350342e-01 8.423884212970733643e-02 -5.177238956093788147e-02 3.332806285470724106e-03 1.134956181049346924e-01 -1.539855170994997025e-02 -1.270018219947814941e-01 -1.978676021099090576e-01 -3.704299917444586754e-03 1.455762237310409546e-01 -6.650269031524658203e-02 -1.094279512763023376e-01 2.059859782457351685e-01 1.430454403162002563e-01 2.722724527120590210e-02 -7.154982537031173706e-02 1.277142483741044998e-02 1.318725347518920898e-01 -9.141302853822708130e-02 5.775514245033264160e-02 1.288192421197891235e-01 -2.514824457466602325e-02 9.097438305616378784e-03 7.107555121183395386e-02 3.079320304095745087e-02 8.186233043670654297e-02 4.860845208168029785e-02 -5.046799778938293457e-02 -6.552346795797348022e-02 -2.671198686584830284e-03 -1.331760138273239136e-01 -8.750498294830322266e-02 4.432800039649009705e-02 -8.295693248510360718e-02 -7.568604499101638794e-02 -9.340060874819755554e-03 1.375294011086225510e-02 -7.012403011322021484e-02 3.681465983390808105e-02 -1.086051203310489655e-02 1.265624910593032837e-01 -5.871181562542915344e-02 -7.242938131093978882e-02 -5.363287404179573059e-02 2.484075352549552917e-02 -5.665909964591264725e-03 1.752275675535202026e-01 8.976396173238754272e-02 -4.718807339668273926e-02 1.585348397493362427e-01 1.330719441175460815e-01 -8.011671900749206543e-02
-1.624279469251632690e-01 2.368530491366982460e-03 6.222830712795257568e-02 -1.186084523797035217e-01 2.524771913886070251e-02 6.616420112550258636e-03 1.971069024875760078e-03 -5.446584895253181458e-02 -1.969192177057266235e-03 8.212454617023468018e-02 -1.279645115137100220e-01 -1.823237165808677673e-02 -1.023904457688331604e-01 -8.062510937452316284e-02 5.981333181262016296e-02 -1.196748018264770508e-01 -8.792085200548171997e-02 1.301998198032379150e-01 4.442416131496429443e-02 1.705784499645233154e-01 1.461135447025299072e-01 1.516834497451782227e-01 -1.559936553239822388e-01 1.666666269302368164e-01 -8.359978348016738892e-02 -1.022340208292007446e-01 7.006019353866577148e-02 3.724721074104309082e-02 7.492603361606597900e-02 1.544501930475234985e-01 -4.144798149354755878e-04 1.639239490032196045e-02 -1.057319566607475281e-01 -5.424313247203826904e-02 -2.876388840377330780e-02 -6.109919026494026184e-02 2.584063820540904999e-02 -5.302365869283676147e-02 -4.706133902072906494e-02 1.570132523775100708e-01 -1.222404763102531433e-01 1.288811564445495605e-01 2.476630546152591705e-02 1.003641337156295776e-01 1.412571370601654053e-01 7.345002889633178711e-02 3.956621512770652771e-02 1.497699916362762451e-01 -3.904592245817184448e-02 -6.897978484630584717e-02 4.499489814043045044e-02 -5.925343930721282959e-02 -3.430214151740074158e-02 1.586185693740844727e-01 -5.718603730201721191e-02 8.913780003786087036e-02 9.040865302085876465e-02 -8.545833081007003784e-02 -1.032828912138938904e-01 -1.071332842111587524e-01 6.898878514766693115e-02 -1.731678694486618042e-01 1.502061262726783752e-02 1.204790845513343811e-01
-6.088109686970710754e-02 -1.291262060403823853e-01 1.417020559310913086e-01 -5.001035332679748535e-02 8.505873382091522217e-02 2.257365919649600983e-02 5.230274796485900879e-02 1.158826872706413269e-01 -5.717691499739885330e-03 3.731132950633764267e-03 7.071824371814727783e-02 6.655920296907424927e-02 8.004099875688552856e-02 1.683982461690902710e-01 -8.859281241893768311e-02 -6.255488097667694092e-02 -9.101060032844543457e-02 -6.209539715200662613e-03 -5.194466188549995422e-02 -2.135731652379035950e-02 -3.713739104568958282e-03 4.137833043932914734e-02 3.274518623948097229e-02 -5.771582480520009995e-03 1.328248977661132812e-01 1.228031739592552185e-01 1.322269886732101440e-01 3.071995638310909271e-02 1.312948912382125854e-01 -4.794496297836303711e-02 1.453614532947540283e-01 -3.650138899683952332e-02 -1.321760099381208420e-02 1.207389775663614273e-02 5.611206591129302979e-02 -2.249239757657051086e-02 5.292184278368949890e-02 9.951288998126983643e-02 9.322892129421234131e-02 4.629934579133987427e-02 9.298396110534667969e-02 7.179095596075057983e-02 1.444021463394165039e-01 -1.218712329864501953e-02 1.813473552465438843e-02 1.928916573524475098e-01 -5.835887789726257324e-02 -1.576106250286102295e-01 1.774982362985610962e-02 -1.091178972274065018e-02 9.462594240903854370e-02 6.830874830484390259e-02 6.025727465748786926e-02 -1.026695147156715393e-01 1.588033139705657959e-01 2.439940534532070160e-02 1.673907041549682617e-01 5.619385838508605957e-02 4.752252250909805298e-02 1.901595592498779297e-01 -1.179742887616157532e-01 1.422384753823280334e-02 -2.070717886090278625e-02 1.300352960824966431e-01
-5.462902039289474487e-02 1.613865494728088379e-01 -6.616429984569549561e-02 5.114479735493659973e-02 7.069277018308639526e-02 2.510228566825389862e-02 -1.609707833267748356e-03 -1.190838962793350220e-01 9.514763206243515015e-02 -9.107863530516624451e-03 9.845183044672012329e-02 -6.068406254053115845e-02 2.489467151463031769e-02 8.072073012590408325e-02 -6.477487832307815552e-02 1.264975070953369141e-01 1.514965444803237915e-01 1.281785219907760620e-01 7.900029420852661133e-03 6.126877665519714355e-02 7.552853226661682129e-02 1.649518609046936035e-01 1.715661287307739258e-01 -5.656446795910596848e-03 1.695732176303863525e-01 -9.325794875621795654e-02 6.626600865274667740e-03 2.396047115325927734e-02 1.942853331565856934e-01 -3.419071435928344727e-02 3.534603863954544067e-02 -1.264955550432205200e-01 -1.376518756151199341e-01 -7.584758102893829346e-02 1.706237345933914185e-01 6.856590509414672852e-02 1.101730689406394958e-01 1.804200410842895508e-01 5.984658002853393555e-02 1.942847296595573425e-02 -5.172163620591163635e-02 -7.943199574947357178e-02 3.791967779397964478e-02 1.238561123609542847e-01 1.093795672059059143e-01 3.573501482605934143e-03 1.439578682184219360e-01 1.265000086277723312e-02 -3.766271471977233887e-02 -7.314077019691467285e-02 -1.601167321205139160e-01 7.930035144090652466e-02 -9.028785675764083862e-02 1.647972874343395233e-02 5.391179025173187256e-02 -3.266447782516479492e-02 1.430350169539451599e-02 4.224099218845367432e-02 -1.098509728908538818e-01 -1.538207083940505981e-01 1.050854027271270752e-01 3.018354810774326324e-02 -3.681374341249465942e-02 1.077149212360382080e-01
-7.532180845737457275e-02 9.407770633697509766e-02 1.250083893537521362e-01 1.028942242264747620e-01 -9.529993683099746704e-02 1.865122467279434204e-01 6.872615776956081390e-04 -4.252388700842857361e-02 1.146935597062110901e-01 -1.070164889097213745e-01 -4.543517157435417175e-02 1.497939378023147583e-01 1.732746213674545288e-01 1.473540812730789185e-01 -1.055154204368591309e-01 1.881775259971618652e-01 1.220038905739784241e-01 1.448187530040740967e-01 -1.075499877333641052e-01 -3.952195122838020325e-02 1.219784393906593323e-01 -1.679956614971160889e-01 -3.954351320862770081e-02 -9.491669386625289917e-02 1.158516947180032730e-02 -2.399565093219280243e-02 -5.016661435365676880e-02 -8.433391898870468140e-02 -2.156441472470760345e-02 4.906872287392616272e-02 9.938253462314605713e-02 3.853664919734001160e-02 1.711851507425308228e-01 5.745267868041992188e-02 -1.271139979362487793e-01 3.418384864926338196e-02 2.692747628316283226e-03 1.050067320466041565e-01 3.931567072868347168e-03 1.605251058936119080e-02 -1.645562006160616875e-03 -1.611595004796981812e-01 -9.275371581315994263e-02 9.581002593040466309e-02 3.873388469219207764e-02 4.207110777497291565e-02 3.000134043395519257e-02 9.360435605049133301e-02 1.294806003570556641e-01 8.847510814666748047e-02 -1.048310101032257080e-01 -6.550450623035430908e-02 2.509705722332000732e-02 -1.218235194683074951e-01 -1.103124246001243591e-01 5.132006853818893433e-02 1.311914324760437012e-01 3.390755504369735718e-02 -1.368890106678009033e-01 -8.661665022373199463e-02 -3.374331444501876831e-02 6.339885294437408447e-02 -5.100573226809501648e-02 1.101716160774230957e-01
8.192305266857147217e-02 7.366009801626205444e-02 -1.236455142498016357e-01 4.144045524299144745e-03 1.170359775424003601e-01 -1.066600307822227478e-01 -1.042636558413505554e-01 -1.912520080804824829e-02 1.406813412904739380e-01 -1.331655681133270264e-01 1.064430698752403259e-01 3.122602775692939758e-02 8.731859922409057617e-02 -4.662771522998809814e-02 -9.763335436582565308e-02 -5.962268635630607605e-02 1.695277243852615356e-01 -1.357402745634317398e-02 2.005342096090316772e-01 -1.031879782676696777e-01 1.560954283922910690e-02 8.947619050741195679e-02 1.552113592624664307e-01 6.229165941476821899e-02 1.469059586524963379e-01 8.805543929338455200e-02 1.094634532928466797e-01 -1.773278973996639252e-02 1.238516718149185181e-01 -9.390542656183242798e-02 1.808786764740943909e-02 6.011407449841499329e-02 -7.966309040784835815e-02 5.673753097653388977e-02 5.166562274098396301e-03 5.662651360034942627e-02 -1.668149828910827637e-01 -9.266190975904464722e-02 -4.185937345027923584e-02 1.524605602025985718e-02 8.534644544124603271e-02 1.023140363395214081e-02 9.415247291326522827e-02 1.644234359264373779e-02 -6.017132475972175598e-02 -2.217403054237365723e-02 -1.034803688526153564e-01 1.818264722824096680e-01 -1.392462700605392456e-01 1.208523958921432495e-01 -7.353699207305908203e-02 1.291593462228775024e-01 -1.409273501485586166e-02 4.049525305163115263e-04 -5.394697189331054688e-02 -4.241135716438293457e-02 -1.020526885986328125e-01 5.677148699760437012e-02 4.307866841554641724e-02 -3.628403693437576294e-02 1.401597857475280762e-01 1.675387620925903320e-01 -1.288023591041564941e-01 7.129801064729690552e-02
-7.627692818641662598e-02 1.466831564903259277e-02 5.251155793666839600e-02 1.068348437547683716e-01 -8.392569422721862793e-02 -8.838263899087905884e-02 -1.228835135698318481e-01 -1.315834522247314453e-01 -1.122434735298156738e-01 -2.598171681165695190e-02 1.240751147270202637e-01 -4.435916990041732788e-02 9.951699525117874146e-02 5.063197761774063110e-02 -4.803530499339103699e-02 -1.094712466001510620e-01 2.280787937343120575e-02 -6.836904585361480713e-02 -7.378837466239929199e-02 2.668115496635437012e-02 2.559693157672882080e-02 3.001019358634948730e-02 5.032396316528320312e-02 -7.156780362129211426e-02 -7.690094411373138428e-02 5.280890688300132751e-02 6.387849152088165283e-02 9.408191591501235962e-02 1.174283027648925781e-02 6.128166988492012024e-02 4.941918700933456421e-02 -3.067090641707181931e-03 -1.233420297503471375e-01 -4.753937944769859314e-02 -1.212329566478729248e-01 -4.329964518547058105e-03 -1.016581729054450989e-01 -4.788893833756446838e-02 -3.554740548133850098e-02 -9.946549683809280396e-02 -4.483490437269210815e-02 -1.710847020149230957e-02 2.949665486812591553e-02 2.247659862041473389e-02 -4.563869535923004150e-02 6.459999084472656250e-02 -8.381416648626327515e-02 -3.390337154269218445e-02 -2.261981368064880371e-02 3.421254456043243408e-02 9.291835129261016846e-02 -6.069657974876463413e-04 3.725729137659072876e-02 5.536060407757759094e-02 -8.006453514099121094e-02 -1.939295232295989990e-02 -1.372568905353546143e-01 4.283642768859863281e-02 6.610865145921707153e-02 4.850795865058898926e-02 -5.722734332084655762e-02 3.566965460777282715e-02 -1.276187896728515625e-01 6.685610115528106689e-02
-1.198823228478431702e-01 3.898711875081062317e-03 1.331392824649810791e-01 5.659079924225807190e-02 4.338674712926149368e-03 6.524696946144104004e-02 -1.328454017639160156e-01 -1.983516104519367218e-02 1.336814910173416138e-01 -1.515008211135864258e-01 5.656163021922111511e-02 -2.420379221439361572e-02 1.417309194803237915e-01 -9.869127720594406128e-02 -3.756958246231079102e-02 3.614992648363113403e-02 1.732266694307327271e-01 7.037714123725891113e-02 8.918901532888412476e-02 -1.458467990159988403e-01 3.826910164207220078e-03 3.481917083263397217e-02 1.151520237326622009e-01 -6.712692975997924805e-02 1.792591996490955353e-02 -8.663892000913619995e-02 2.206219546496868134e-02 6.403391063213348389e-02 -1.284554004669189453e-01 4.202252253890037537e-02 4.628437012434005737e-02 1.539027988910675049e-01 1.259012520313262939e-01 -5.961327254772186279e-02 -9.863273054361343384e-02 6.359302997589111328e-02 5.242763832211494446e-02 -1.076746266335248947e-02 -1.007761359214782715e-01 1.433938592672348022e-01 -8.113482594490051270e-02 -6.432496011257171631e-02 -1.076167002320289612e-01 9.180365502834320068e-02 7.974071055650711060e-02 -9.997843950986862183e-02 -1.098608691245317459e-02 6.248880550265312195e-02 -6.375844031572341919e-02 -5.907778162509202957e-03 -7.199187576770782471e-02 1.467201411724090576e-01 1.321969088166952133e-02 -1.309731304645538330e-01 1.892414689064025879e-02 2.184794982895255089e-03 2.811982110142707825e-02 -1.603916287422180176e-02 -1.681213378906250000e-01 -6.878771632909774780e-02 3.376107662916183472e-02 1.067155823111534119e-01 -8.661648631095886230e-02 -4.021232575178146362e-02
1.369119733572006226e-01 5.111739411950111389e-02 1.426948457956314087e-01 -1.110773086547851562e-01 -3.890218213200569153e-02 9.641399979591369629e-02 -5.096562579274177551e-02 3.842018917202949524e-02 1.397006511688232422e-01 1.482332497835159302e-01 1.445288956165313721e-01 7.212489098310470581e-02 -1.144467145204544067e-01 -4.000674560666084290e-02 6.731468439102172852e-02 -4.678695648908615112e-02 -7.128833979368209839e-02 5.018822103738784790e-02 1.350446641445159912e-01 1.856479942798614502e-01 -1.063796654343605042e-01 5.385539308190345764e-02 1.401776075363159180e-01 -6.820097565650939941e-02 -3.773367777466773987e-02 6.978218257427215576e-02 1.103122532367706299e-01 1.371278613805770874e-01 8.650025725364685059e-02 -1.561834067106246948e-01 1.056501921266317368e-02 1.316320151090621948e-01 8.645513444207608700e-04 1.401137001812458038e-02 -9.231488406658172607e-02 -7.306718081235885620e-02 -1.392169147729873657e-01 -2.426556870341300964e-02 4.769057035446166992e-02 -5.952828004956245422e-02 6.734204292297363281e-02 -1.559706628322601318e-01 -1.179130375385284424e-01 1.034712493419647217e-01 2.021246589720249176e-02 -3.216124698519706726e-02 -9.612804651260375977e-02 1.869417726993560791e-01 -7.909668982028961182e-02 -5.758764222264289856e-02 -1.368888020515441895e-01 1.001448482275009155e-01 -1.478184908628463745e-01 1.976276338100433350e-01 1.331482231616973877e-01 -2.180579304695129395e-02 -3.287265077233314514e-02 1.039254665374755859e-01 -1.987062245607376099e-01 -1.892493218183517456e-01 1.579743921756744385e-01 -1.696926541626453400e-02 1.283809840679168701e-01 -2.593260630965232849e-02
3.336284309625625610e-02 -1.084675639867782593e-01 1.106792166829109192e-01 4.842545464634895325e-02 1.132196858525276184e-01 9.011770039796829224e-02 -8.967360109090805054e-02 -6.933375447988510132e-02 -1.566251367330551147e-01 2.787433937191963196e-02 -2.548244595527648926e-02 9.897136688232421875e-02 1.746053546667098999e-01 -4.265476763248443604e-02 -4.813767224550247192e-02 -1.308462116867303848e-02 1.171171665191650391e-01 1.343414634466171265e-01 1.612648069858551025e-01 4.467174038290977478e-02 1.149547025561332703e-01 -1.872025080956518650e-03 1.012397482991218567e-01 -1.530600637197494507e-01 5.368961766362190247e-02 -3.274964913725852966e-02 -4.650823771953582764e-02 2.121015451848506927e-02 1.257094591856002808e-01 -7.301581650972366333e-02 -5.015095695853233337e-02 5.812824144959449768e-02 1.312811672687530518e-01 -9.323394298553466797e-02 2.541105635464191437e-02 8.862850069999694824e-02 1.424250751733779907e-02 -1.139211002737283707e-02 7.462923228740692139e-02 1.031681802123785019e-02 -6.250341981649398804e-02 -3.941637650132179260e-02 1.433805376291275024e-01 -9.075628221035003662e-02 7.913185283541679382e-03 7.687994837760925293e-02 -1.728468239307403564e-01 1.199338361620903015e-01 -9.463958442211151123e-02 6.734503805637359619e-02 -4.917474463582038879e-02 3.342759609222412109e-02 1.180893853306770325e-01 8.739617466926574707e-02 1.155692115426063538e-01 4.458190128207206726e-02 6.437445431947708130e-02 9.068723022937774658e-02 5.583439022302627563e-02 4.140067845582962036e-02 -8.710388094186782837e-02 -9.591989219188690186e-02 -9.022646397352218628e-02 -3.953883051872253418e-02
4.695126414299011230e-02 -1.018518358469009399e-01 -5.263487994670867920e-02 2.411223575472831726e-02 -2.210564725100994110e-02 -3.296154737472534180e-01 -1.751630450598895550e-03 -8.912685513496398926e-02 -3.705208376049995422e-02 2.157736383378505707e-02 2.819402217864990234e-01 -1.294819712638854980e-01 -1.291523128747940063e-01 -4.711654037237167358e-02 -1.824623718857765198e-02 -7.727137207984924316e-02 8.827660232782363892e-03 6.471089273691177368e-02 2.706051804125308990e-02 -5.978611484169960022e-02 -7.246226817369461060e-02 -3.056405857205390930e-02 2.460513412952423096e-01 2.896749414503574371e-02 3.772311508655548096e-01 -2.540052682161331177e-02 8.952457457780838013e-02 6.233268231153488159e-02 3.668795526027679443e-01 6.178198382258415222e-02 -1.274589598178863525e-01 -1.154720485210418701e-01 -1.686313450336456299e-01 -1.048270892351865768e-02 1.473473608493804932e-01 -1.149445772171020508e-02 -6.700519919395446777e-01 -1.299366801977157593e-01 1.144391000270843506e-01 2.158784493803977966e-02 1.366046816110610962e-01 4.906611517071723938e-02 1.119147837162017822e-01 2.279658615589141846e-02 -1.602206528186798096e-01 5.842141108587384224e-04 7.562416791915893555e-02 5.702274851500988007e-03 6.648383289575576782e-02 -3.173246979713439941e-03 2.448448538780212402e-01 -5.345143005251884460e-02 4.667990282177925110e-02 -6.197251379489898682e-02 1.867247163318097591e-03 8.576428890228271484e-02 8.417336270213127136e-03 -1.331455074250698090e-02 -1.604892760515213013e-01 -3.469132483005523682e-01 2.546831667423248291e-01 -1.388079486787319183e-03 1.148387789726257324e-03 2.409092523157596588e-02
5.960321053862571716e-02 1.262286007404327393e-01 2.743742195889353752e-03 -5.121918395161628723e-02 -8.241152763366699219e-02 1.040514558553695679e-01 -2.541834488511085510e-03 -5.075390264391899109e-02 -1.358146220445632935e-02 -1.410963200032711029e-02 4.597562551498413086e-02 3.833553940057754517e-02 -2.675575762987136841e-02 -5.272680893540382385e-03 1.988324224948883057e-01 -2.584030106663703918e-02 1.484263986349105835e-01 -1.546312868595123291e-01 -1.551808975636959076e-02 1.821245551109313965e-01 -9.131014347076416016e-03 1.568191945552825928e-01 5.243320390582084656e-02 1.744890660047531128e-01 6.071845535188913345e-03 1.299453154206275940e-02 -1.217951327562332153e-01 7.562115788459777832e-02 -1.002359613776206970e-01 1.532175391912460327e-01 -4.446772113442420959e-02 1.909488290548324585e-01 -3.200332447886466980e-02 1.546980142593383789e-01 -2.267264761030673981e-03 -4.710534587502479553e-03 -8.099788427352905273e-02 1.028267517685890198e-01 9.765307605266571045e-02 -2.374686300754547119e-02 8.444123715162277222e-02 -2.090870775282382965e-02 -7.150541245937347412e-02 5.130665004253387451e-02 1.940264254808425903e-01 -1.216033026576042175e-01 1.180230155587196350e-01 1.094764918088912964e-01 1.409580558538436890e-01 -1.300800442695617676e-01 -1.059086844325065613e-01 1.719279289245605469e-01 -3.573999926447868347e-02 -3.233522642403841019e-03 -1.839277446269989014e-01 1.081800833344459534e-01 -8.238540589809417725e-02 -1.349011361598968506e-01 -1.386242210865020752e-01 -1.505561266094446182e-02 1.535734683275222778e-01 -2.729248255491256714e-02 9.302417933940887451e-02 1.733942925930023193e-01
-6.956820189952850342e-02 -3.168541565537452698e-02 1.310702264308929443e-01 -8.584615588188171387e-02 2.703626081347465515e-02 1.272969543933868408e-01 4.794315621256828308e-02 -1.346037089824676514e-01 -1.254991739988327026e-01 -9.393745101988315582e-03 -1.593897789716720581e-01 -7.289513200521469116e-02 -5.760259181261062622e-02 2.719289995729923248e-02 -6.579099595546722412e-02 4.257618263363838196e-02 6.268562749028205872e-03 -9.187907725572586060e-02 1.023887991905212402e-01 -8.573964238166809082e-02 -1.357723027467727661e-01 6.295350939035415649e-02 8.225104957818984985e-02 -9.759210050106048584e-02 1.001480966806411743e-01 -1.193764284253120422e-01 1.654032617807388306e-02 5.777752771973609924e-02 -9.732897579669952393e-02 7.819516211748123169e-02 1.645810008049011230e-01 -1.442450284957885742e-01 9.147634357213973999e-02 -7.694166898727416992e-02 6.703333556652069092e-02 7.207210361957550049e-02 1.482726782560348511e-01 1.050021275877952576e-01 1.147237420082092285e-02 1.038338914513587952e-01 1.242817342281341553e-01 -7.401380687952041626e-02 6.559788435697555542e-02 9.019565582275390625e-02 1.789753586053848267e-01 -1.446074694395065308e-01 5.379888787865638733e-02 1.511423885822296143e-01 -1.569053158164024353e-02 1.474326942116022110e-02 4.159087687730789185e-02 1.691925525665283203e-01 -4.516887292265892029e-02 -1.153936833143234253e-01 -7.386042922735214233e-02 5.722735449671745300e-02 3.057568334043025970e-02 -1.499207690358161926e-02 5.167100206017494202e-02 -6.692484766244888306e-02 -1.232070177793502808e-01 2.167848646640777588e-01 1.899240016937255859e-01 -1.550708618015050888e-02
2.882168069481849670e-02 2.715471014380455017e-02 8.322749286890029907e-02 -1.756103038787841797e-01 8.517120033502578735e-02 1.457293480634689331e-01 1.845267415046691895e-01 1.007206290960311890e-01 -7.949057221412658691e-02 -1.306970268487930298e-01 -1.616912335157394409e-02 8.948732167482376099e-02 -3.470702096819877625e-02 -1.073283478617668152e-01 -1.103108525276184082e-01 -1.519461423158645630e-01 -3.713699057698249817e-02 -5.377289280295372009e-02 -3.625686839222908020e-02 6.966912187635898590e-04 1.207737158983945847e-02 -3.226337023079395294e-03 -9.591943025588989258e-02 7.663509249687194824e-02 6.521017104387283325e-02 -6.956870108842849731e-02 1.418803632259368896e-01 -7.083290722221136093e-03 3.216261789202690125e-02 -7.102504605427384377e-04 7.132367789745330811e-02 1.114383935928344727e-01 -5.884696915745735168e-02 -3.564734756946563721e-02 4.576161131262779236e-02 -9.439123421907424927e-02 1.521572917699813843e-01 -2.160028181970119476e-02 1.163341403007507324e-01 1.603343635797500610e-01 -7.455936074256896973e-02 -7.689274847507476807e-02 -3.455046936869621277e-02 -5.736531317234039307e-02 5.466532334685325623e-02 1.100803017616271973e-01 -8.885090053081512451e-02 -4.799663648009300232e-02 7.757840305566787720e-02 -6.256880611181259155e-02 1.403365097939968109e-02 -1.296700444072484970e-02 1.070680655539035797e-02 2.791115641593933105e-02 4.938439279794692993e-02 -8.187862485647201538e-02 -1.795316115021705627e-02 -1.804106384515762329e-01 -7.808262854814529419e-02 -1.197507325559854507e-02 -2.887281589210033417e-02 -8.801420778036117554e-02 1.638108491897583008e-01 -7.291080057621002197e-02
5.763619672507047653e-03 1.202443316578865051e-01 7.012253999710083008e-02 -2.398468367755413055e-02 -9.576120227575302124e-02 3.267716988921165466e-02 -1.210323199629783630e-01 -7.993148267269134521e-02 -1.357145309448242188e-01 -1.045767441391944885e-01 -2.256198553368449211e-03 9.015758521854877472e-03 1.127109974622726440e-01 7.789144665002822876e-02 -4.946699738502502441e-02 8.422222919762134552e-03 6.803147494792938232e-02 1.239600926637649536e-01 1.052670031785964966e-01 -4.056370630860328674e-02 -1.032063663005828857e-01 9.117674082517623901e-02 1.044182255864143372e-01 -5.793067067861557007e-02 1.285146474838256836e-01 9.765159338712692261e-02 -6.480757892131805420e-02 6.657650321722030640e-02 -1.189079359173774719e-01 3.521173819899559021e-02 7.614108175039291382e-02 -1.830677092075347900e-01 1.299485117197036743e-01 5.383267626166343689e-02 -6.246351823210716248e-02 2.682826109230518341e-02 1.712509393692016602e-01 7.907425612211227417e-02 -9.666331112384796143e-02 1.474823802709579468e-02 -3.590262681245803833e-02 -9.660959243774414062e-02 -7.191562652587890625e-02 9.141509234905242920e-02 2.540744654834270477e-02 -2.942507341504096985e-02 -3.067876584827899933e-02 -3.197716176509857178e-02 -6.458588689565658569e-02 -5.838953331112861633e-02 -6.528526544570922852e-02 -4.650357738137245178e-02 8.901575952768325806e-02 5.221220850944519043e-02 2.358183450996875763e-02 9.335269778966903687e-02 1.722408682107925415e-01 2.346197888255119324e-02 1.705311238765716553e-01 1.035532876849174500e-01 -1.521693468093872070e-01 2.293963730335235596e-01 4.492365941405296326e-02 -1.545112431049346924e-01
5.885625630617141724e-02 2.087603509426116943e-01 1.651340276002883911e-01 7.422336842864751816e-03 4.824381694197654724e-02 5.628149211406707764e-02 -1.515017598867416382e-01 1.628057658672332764e-02 -1.323880255222320557e-01 5.060438811779022217e-02 -3.564012935385107994e-03 -4.186928272247314453e-02 4.742164537310600281e-02 5.301775038242340088e-02 -6.009832024574279785e-02 -1.759075000882148743e-02 -1.473229229450225830e-01 4.518060758709907532e-02 1.646695844829082489e-02 -8.705488592386245728e-02 4.610389843583106995e-02 5.031645298004150391e-02 4.123220592737197876e-02 2.256064675748348236e-02 -4.434394463896751404e-02 -4.382008686661720276e-02 1.378455162048339844e-01 -1.512959320098161697e-02 -7.902701199054718018e-02 -4.534462839365005493e-02 -1.737084425985813141e-02 -1.056324392557144165e-01 1.699254512786865234e-01 8.024226874113082886e-02 -8.804830908775329590e-02 -2.695685625076293945e-02 1.785127371549606323e-01 8.193582296371459961e-03 -7.103420794010162354e-02 6.134246289730072021e-02 1.334202587604522705e-01 -1.568908095359802246e-01 -5.231531709432601929e-02 1.109137833118438721e-01 5.434253439307212830e-02 -1.245042979717254639e-01 -9.317474812269210815e-02 1.642970182001590729e-02 6.159944832324981689e-02 -8.409540355205535889e-02 -1.142560690641403198e-01 -9.804423898458480835e-02 -4.908066242933273315e-02 -1.305026859045028687e-01 -2.035554312169551849e-02 7.538107037544250488e-02 7.227134774439036846e-04 1.424258761107921600e-02 4.506051167845726013e-02 -6.974386423826217651e-02 6.834255903959274292e-02 7.819098979234695435e-02 2.345992624759674072e-01 1.415124386548995972e-01
2.390020899474620819e-02 -9.938634186983108521e-02 1.190538797527551651e-02 -7.574850320816040039e-02 1.103912740945816040e-01 -1.531031727790832520e-01 -3.284130245447158813e-02 1.562150865793228149e-01 -1.881309412419795990e-02 2.956672385334968567e-02 -4.078702256083488464e-02 9.980522841215133667e-02 -1.365819424390792847e-01 5.483857914805412292e-02 9.011380374431610107e-02 -7.906256616115570068e-02 -8.936062455177307129e-02 5.410365760326385498e-03 -1.819273680448532104e-01 1.169398799538612366e-01 2.648863196372985840e-02 7.341178506612777710e-02 6.393398344516754150e-02 -3.257396072149276733e-02 -3.390321135520935059e-02 -4.734424501657485962e-02 9.916207939386367798e-02 3.525049239397048950e-02 2.573530003428459167e-02 -8.138987421989440918e-02 6.938094645738601685e-02 -1.210621818900108337e-01 -1.203214675188064575e-01 1.462685167789459229e-01 1.296118944883346558e-01 -1.116497069597244263e-01 1.516174897551536560e-02 -2.062712301267310977e-04 9.248593449592590332e-02 -9.445047378540039062e-02 -6.319610774517059326e-02 8.841665461659431458e-03 1.500125825405120850e-01 5.797238647937774658e-02 4.876428842544555664e-02 4.493379220366477966e-02 -4.059969913214445114e-03 -1.067083030939102173e-01 -3.167188912630081177e-02 -2.280111610889434814e-02 1.605437099933624268e-01 7.739138323813676834e-03 -6.767763197422027588e-02 -4.475031793117523193e-02 5.753609165549278259e-02 -6.595776975154876709e-02 -1.110383123159408569e-01 -1.060268282890319824e-01 6.846804171800613403e-03 -1.481649558991193771e-02 -4.355393722653388977e-02 -1.228647679090499878e-01 -7.629729062318801880e-02 1.085295081138610840e-01
1.241290941834449768e-02 5.791923403739929199e-02 -7.548230886459350586e-02 9.955453872680664062e-02 -1.335180085152387619e-02 3.924291208386421204e-02 4.376754164695739746e-03 -1.449365727603435516e-02 -9.859402477741241455e-02 -6.979777663946151733e-02 1.025670915842056274e-01 -1.077165529131889343e-01 -1.077232584357261658e-01 -9.385055303573608398e-02 -4.481650516390800476e-02 -3.519507870078086853e-02 5.452137812972068787e-02 -6.653625518083572388e-02 4.647651314735412598e-02 7.849001884460449219e-02 -4.118990898132324219e-02 -1.949630118906497955e-02 1.243848502635955811e-01 -1.054022163152694702e-01 9.563386440277099609e-02 1.646667718887329102e-02 1.218938380479812622e-01 -1.456152833998203278e-02 -2.276705950498580933e-02 1.995247602462768555e-02 5.382120609283447266e-02 -2.138942480087280273e-02 -6.095989048480987549e-02 5.908874794840812683e-02 -1.083371788263320923e-01 1.453937496989965439e-02 4.558334872126579285e-02 -5.497840419411659241e-02 -1.201157271862030029e-02 -2.264364808797836304e-02 3.571305191144347191e-03 1.008800715208053589e-01 9.353231638669967651e-02 1.364098489284515381e-02 -2.936695516109466553e-02 3.847661614418029785e-02 -1.038060635328292847e-01 7.006257772445678711e-03 -8.553476631641387939e-02 5.502654612064361572e-02 4.567660763859748840e-02 1.412637182511389256e-03 -1.109139546751976013e-01 -1.128743737936019897e-01 6.838747113943099976e-02 -7.516574859619140625e-02 -8.138239383697509766e-02 -3.556701168417930603e-02 -3.295658528804779053e-02 -2.918420732021331787e-02 4.338734317570924759e-03 -6.438940763473510742e-03 9.961661696434020996e-02 1.862241886556148529e-02
9.016070514917373657e-02 1.325632035732269287e-01 1.579745560884475708e-01 -1.188528165221214294e-01 -9.328618645668029785e-02 7.990114390850067139e-02 5.663600564002990723e-02 -9.529945254325866699e-02 -7.090051472187042236e-02 -1.774904690682888031e-02 1.150103658437728882e-01 -1.612832844257354736e-01 1.131114438176155090e-01 -1.669546030461788177e-02 -1.311465352773666382e-01 6.200664862990379333e-02 2.714789472520351410e-02 1.668698154389858246e-02 7.782159745693206787e-02 -1.156682595610618591e-01 -2.132969908416271210e-02 1.629658192396163940e-01 -1.546443998813629150e-01 5.986125767230987549e-02 7.231739163398742676e-02 1.330633996985852718e-03 -3.532699495553970337e-02 1.379260122776031494e-01 -1.001822799444198608e-01 1.181028112769126892e-01 -4.853955283761024475e-02 9.477840363979339600e-02 1.330045163631439209e-01 9.416316449642181396e-02 -9.077941626310348511e-02 -9.251087903976440430e-02 -9.032309986650943756e-03 -7.334259897470474243e-02 -5.727696418762207031e-02 8.339344710111618042e-02 1.429892629384994507e-01 -7.825409621000289917e-02 -1.829488277435302734e-01 1.041783392429351807e-02 1.329173743724822998e-01 1.322395503520965576e-01 -9.442879259586334229e-02 9.805667400360107422e-02 1.306235194206237793e-01 -1.008505374193191528e-01 2.590650320053100586e-02 -1.835611648857593536e-02 -4.092425853013992310e-02 3.738486766815185547e-02 -1.383460015058517456e-01 1.268929429352283478e-02 -8.710122667253017426e-03 -5.287799984216690063e-02 1.490045785903930664e-01 5.661896616220474243e-02 3.464854136109352112e-02 1.619283854961395264e-01 1.123069152235984802e-01 -1.154178231954574585e-01
-8.336745202541351318e-02 -6.696443259716033936e-02 1.058775708079338074e-01 -1.391355842351913452e-01 1.239313557744026184e-01 -6.435147672891616821e-02 2.068980038166046143e-01 1.175929307937622070e-01 1.329775899648666382e-01 -5.463162064552307129e-02 -1.950706690549850464e-01 1.002923352643847466e-03 -1.167246513068675995e-02 -9.169839322566986084e-03 -1.725373119115829468e-01 4.798129200935363770e-02 5.430913530290126801e-03 1.970507502555847168e-01 -9.338327497243881226e-02 1.241190284490585327e-01 3.064115159213542938e-02 -1.051895841956138611e-01 -2.047818452119827271e-01 1.623713225126266479e-02 -2.396121621131896973e-02 1.201827749609947205e-01 1.285561472177505493e-01 -9.964073449373245239e-02 -1.067570373415946960e-01 -1.180362403392791748e-01 1.566369831562042236e-01 1.603014394640922546e-02 -4.150713235139846802e-02 -1.439946293830871582e-01 -1.488835513591766357e-01 -1.186015307903289795e-01 2.352835610508918762e-02 -1.053940281271934509e-01 -4.389160871505737305e-02 1.803974434733390808e-02 -2.154946513473987579e-02 -1.956703700125217438e-02 1.029195711016654968e-01 -7.039806246757507324e-02 7.869544625282287598e-02 3.237843513488769531e-02 4.867005348205566406e-02 -2.064620517194271088e-02 8.410023897886276245e-02 7.774691283702850342e-02 1.426047384738922119e-01 1.061817258596420288e-01 1.505579203367233276e-01 5.754387006163597107e-02 7.435137778520584106e-02 -2.488698996603488922e-02 1.626721024513244629e-01 1.294247955083847046e-01 -4.219213966280221939e-03 1.336830556392669678e-01 1.342195570468902588e-01 -1.018141955137252808e-01 -1.430936604738235474e-01 -1.065474525094032288e-01
1.933851093053817749e-01 1.350953578948974609e-01 1.476161181926727295e-01 -1.171798631548881531e-01 9.074400179088115692e-03 -7.819699496030807495e-02 5.008901003748178482e-03 -8.656225353479385376e-02 5.387128889560699463e-02 2.000861614942550659e-01 2.250302024185657501e-02 -1.516636312007904053e-01 -6.816340237855911255e-02 -1.516558676958084106e-01 -9.760144352912902832e-02 -1.656389534473419189e-01 -4.273806512355804443e-02 1.505687385797500610e-01 5.006026104092597961e-02 1.852310150861740112e-01 4.560738056898117065e-02 1.743232309818267822e-01 -9.606770426034927368e-02 -2.096430771052837372e-02 -9.987554699182510376e-02 1.521868407726287842e-01 1.152747645974159241e-01 7.811983674764633179e-02 5.797958746552467346e-02 -1.161590144038200378e-01 8.042325824499130249e-02 2.056095190346240997e-02 9.984636306762695312e-02 -2.077404782176017761e-02 -8.128908276557922363e-02 1.124367211014032364e-02 8.802404254674911499e-02 -1.058455482125282288e-01 8.327066898345947266e-03 -6.642071530222892761e-03 -1.076740026473999023e-01 1.873727142810821533e-01 -6.537077575922012329e-02 -1.168414503335952759e-01 7.710862159729003906e-02 1.854531615972518921e-01 1.732517927885055542e-01 6.559357047080993652e-02 -5.950612947344779968e-03 2.653843164443969727e-02 -1.822764575481414795e-01 1.630177497863769531e-01 -9.510903805494308472e-02 9.627099335193634033e-02 1.171742901206016541e-01 8.881129324436187744e-02 1.041736006736755371e-01 1.437983810901641846e-01 9.053591638803482056e-02 1.625235565006732941e-02 -1.541461050510406494e-01 -2.073178291320800781e-01 6.370203942060470581e-02 1.515639573335647583e-01
-6.780534982681274414e-03 6.233063340187072754e-02 1.024646759033203125e-01 -9.864866733551025391e-02 4.527986049652099609e-02 3.535541892051696777e-02 -4.786819219589233398e-02 -8.423629403114318848e-02 -8.119679987430572510e-02 -1.070823222398757935e-01 -9.658567607402801514e-02 -1.613157987594604492e-02 -9.911446273326873779e-02 -3.346896171569824219e-02 -2.175928652286529541e-02 1.118458807468414307e-02 6.752654910087585449e-03 5.733340978622436523e-02 -4.176259040832519531e-02 -2.056679129600524902e-02 -3.291487693786621094e-03 -1.183626353740692139e-01 2.449911832809448242e-02 1.161195933818817139e-01 -1.857440173625946045e-02 -8.493636548519134521e-02 1.401484012603759766e-02 -4.865315556526184082e-02 3.867897391319274902e-02 -2.854327857494354248e-02 -3.651449084281921387e-02 1.211496889591217041e-01 -4.231643676757812500e-02 -7.375727593898773193e-02 1.763333380222320557e-02 1.219178438186645508e-01 -9.779545664787292480e-02 1.099234819412231445e-02 -1.006942093372344971e-01 -8.130235970020294189e-02 -5.439351499080657959e-02 -1.233093887567520142e-01 -9.917348623275756836e-03 -6.020605564117431641e-02 -1.161984652280807495e-01 3.521434962749481201e-02 -4.432237148284912109e-02 -1.121786832809448242e-01 -2.515396475791931152e-02 1.703722774982452393e-02 6.814096868038177490e-02 -3.834559023380279541e-02 1.327273249626159668e-02 -6.313276290893554688e-02 6.816966831684112549e-02 9.206250309944152832e-02 -1.247531920671463013e-01 3.781406581401824951e-02 -8.344317972660064697e-02 -6.980623304843902588e-02 5.537119507789611816e-02 -1.193591058254241943e-01 -5.609497427940368652e-02 -1.255221664905548096e-02
3.967903181910514832e-02 1.630601882934570312e-01 3.810684382915496826e-02 -3.462475165724754333e-02 -8.280287683010101318e-02 5.572647228837013245e-02 1.426597386598587036e-01 1.961559243500232697e-02 -4.437560588121414185e-02 -1.671835780143737793e-01 -7.413889467716217041e-02 -4.908940941095352173e-02 1.499762088060379028e-01 9.091733023524284363e-03 -1.348734647035598755e-01 1.059802696108818054e-01 5.367457401007413864e-03 -1.063458174467086792e-01 -7.739188149571418762e-04 -1.153068691492080688e-01 -1.520984619855880737e-01 1.260175108909606934e-01 6.906566023826599121e-02 -4.205854982137680054e-02 1.053401157259941101e-01 1.701798588037490845e-01 -1.402636617422103882e-01 1.735700815916061401e-01 -4.426755011081695557e-03 9.982427209615707397e-02 -1.747411489486694336e-02 9.222056716680526733e-02 2.019760012626647949e-02 6.089149042963981628e-02 -4.656655713915824890e-02 1.112036257982254028e-01 1.345557421445846558e-01 -8.058069646358489990e-02 -1.036485284566879272e-01 1.173756718635559082e-01 -2.856596838682889938e-04 -1.311504989862442017e-01 -1.477506905794143677e-01 7.261157035827636719e-03 3.952718526124954224e-02 -8.575838804244995117e-02 -4.966238141059875488e-02 1.106366142630577087e-01 8.252376317977905273e-02 5.684623122215270996e-02 -4.086094349622726440e-02 1.357971038669347763e-02 5.434159655123949051e-03 -2.752497419714927673e-02 -8.788177371025085449e-02 -4.394030198454856873e-02 -1.104795634746551514e-01 -3.030831180512905121e-02 1.779472082853317261e-01 4.323624074459075928e-02 1.233439333736896515e-02 1.012749895453453064e-01 2.018007487058639526e-01 -6.445351988077163696e-02
