8.509606868028640747e-02 -5.167409181594848633e-01 -1.314542591571807861e-01 -5.288371443748474121e-01
-1.843457072973251343e-01 -4.335637688636779785e-01 -3.580245003104209900e-02 -7.138952612876892090e-02
1.376911848783493042e-01 5.583498477935791016e-01 -4.591270983219146729e-01 -6.295821070671081543e-02
-3.273812308907508850e-02 5.820870399475097656e-01 1.866158843040466309e-01 -1.071341708302497864e-02
2.724598348140716553e-01 -3.391145467758178711e-01 -2.126223891973495483e-01 -8.132433891296386719e-02
2.787608504295349121e-01 3.062569908797740936e-02 -5.118154883384704590e-01 -3.194629251956939697e-01
-2.990754246711730957e-01 -1.377935707569122314e-01 -5.297995805740356445e-01 2.587347328662872314e-01
3.140803873538970947e-01 -2.981088757514953613e-01 -1.656551659107208252e-01 -3.655000627040863037e-01
-2.803345620632171631e-01 -3.328128159046173096e-01 -7.844132930040359497e-02 3.547520637512207031e-01
1.941381543874740601e-01 2.664217054843902588e-01 -4.632953107357025146e-01 4.507408440113067627e-01
3.962731063365936279e-01 -5.198768973350524902e-01 -4.011231660842895508e-01 -2.841567993164062500e-01
6.621422618627548218e-02 -5.437639355659484863e-01 -2.698861360549926758e-01 2.472972720861434937e-01
-4.617603123188018799e-01 2.162988334894180298e-01 -1.134280785918235779e-01 4.547616243362426758e-01
3.033224046230316162e-01 5.275814533233642578e-01 -9.875571727752685547e-02 -7.771250326186418533e-03
-5.470970273017883301e-01 -2.182417809963226318e-01 -5.414078831672668457e-01 -8.688252419233322144e-02
-3.989699482917785645e-01 2.080547623336315155e-02 3.930606245994567871e-01 5.138019323348999023e-01
1.250088065862655640e-01 3.590328618884086609e-02 -3.403073251247406006e-01 8.925007423385977745e-04
-1.707537844777107239e-02 -1.246078908443450928e-01 -5.490949749946594238e-01 2.000940442085266113e-01
4.322950839996337891e-01 3.713225722312927246e-01 -1.323542743921279907e-01 3.212372362613677979e-01
-2.905245423316955566e-01 2.110275477170944214e-01 4.112493097782135010e-01 -3.043468892574310303e-01
2.097699195146560669e-01 -5.372627377510070801e-01 3.419131636619567871e-01 3.738678395748138428e-01
5.010371804237365723e-01 1.706048250198364258e-01 1.510414481163024902e-01 2.832396030426025391e-01
5.355463624000549316e-01 5.415981411933898926e-01 -4.201041758060455322e-01 5.555936694145202637e-01
3.744561374187469482e-01 1.142193600535392761e-01 5.056096315383911133e-01 -2.503352463245391846e-01
1.219516396522521973e-01 -4.083967804908752441e-01 -3.264797031879425049e-01 5.468878746032714844e-01
1.570337265729904175e-02 -2.873442471027374268e-01 4.653146266937255859e-01 -3.899772167205810547e-01
3.241641819477081299e-01 -2.937995195388793945e-01 -1.876260638236999512e-01 -5.343337059020996094e-01
3.518294095993041992e-01 2.526813745498657227e-01 2.356664389371871948e-01 1.378940492868423462e-01
-4.299479424953460693e-01 3.065919280052185059e-01 4.906828105449676514e-01 5.092847943305969238e-01
2.216076701879501343e-01 6.356968730688095093e-02 3.787695169448852539e-01 1.111611053347587585e-01
5.765468627214431763e-02 -1.178866773843765259e-01 3.062593638896942139e-01 2.241997122764587402e-01
-2.435170859098434448e-01 5.122284889221191406e-01 -1.583593040704727173e-01 5.143042802810668945e-01
-2.893603742122650146e-01 -4.256296157836914062e-01 -9.779702126979827881e-02 3.463999032974243164e-01
3.612647950649261475e-01 2.175760222598910332e-03 -4.737188220024108887e-01 -2.951069772243499756e-01
-2.500742077827453613e-01 -4.833135008811950684e-01 4.335142299532890320e-02 6.912281364202499390e-02
3.121694624423980713e-01 2.209412306547164917e-01 4.133657813072204590e-01 2.292219996452331543e-01
-4.840127825736999512e-01 -2.394227385520935059e-01 -2.621500194072723389e-01 2.452465593814849854e-01
-3.538531661033630371e-01 4.218184053897857666e-01 3.672959506511688232e-01 3.848784863948822021e-01
6.944795697927474976e-02 -4.881640076637268066e-01 4.664384424686431885e-01 -1.502802222967147827e-01
-1.809611320495605469e-01 3.721384704113006592e-01 4.831174015998840332e-01 -5.145118236541748047e-01
9.936599433422088623e-02 3.565596938133239746e-01 3.140489459037780762e-01 -5.487345457077026367e-01
-5.403339266777038574e-01 2.793785631656646729e-01 -6.976947188377380371e-02 -3.494975864887237549e-01
-2.711242437362670898e-01 4.071060568094253540e-02 -1.250747889280319214e-01 2.738318145275115967e-01
3.554625809192657471e-01 -5.232495069503784180e-01 -4.086562693119049072e-01 -2.112105637788772583e-01
3.668352365493774414e-01 -1.723003387451171875e-01 1.930408924818038940e-01 4.186367690563201904e-01
-3.198853135108947754e-01 -9.809828549623489380e-02 5.647192001342773438e-01 -5.153930187225341797e-01
-2.414870113134384155e-01 -5.507322549819946289e-01 -3.686707913875579834e-01 -3.004445135593414307e-01
5.553005933761596680e-01 -1.928747147321701050e-01 4.389826357364654541e-01 -7.597985863685607910e-02
7.880779355764389038e-02 1.460129022598266602e-01 5.588132739067077637e-01 5.341016650199890137e-01
4.308602213859558105e-01 3.803545236587524414e-01 -2.516248822212219238e-01 2.594493627548217773e-01
2.812748849391937256e-01 3.067521750926971436e-01 -4.135316237807273865e-02 -2.953801453113555908e-01
1.578182727098464966e-02 5.380525588989257812e-01 2.411386072635650635e-01 4.515067115426063538e-02
-5.226157307624816895e-01 3.165213167667388916e-01 -5.602594017982482910e-01 -5.400737747550010681e-02
1.856969147920608521e-01 -5.674540996551513672e-01 5.376180261373519897e-02 4.454382956027984619e-01
-1.705827564001083374e-01 -1.516449600458145142e-01 -5.204732418060302734e-01 -1.468488872051239014e-01
5.496711730957031250e-01 -1.482475697994232178e-01 3.587847650051116943e-01 1.525445431470870972e-01
-8.754336088895797729e-02 2.458249777555465698e-01 4.594556614756584167e-02 -1.738898903131484985e-01
1.706669628620147705e-01 2.370074205100536346e-02 5.594502091407775879e-01 4.116992056369781494e-01
-4.990141093730926514e-01 -2.242994308471679688e-01 -5.811416506767272949e-01 3.175091147422790527e-01
4.872625470161437988e-01 -3.454064726829528809e-01 1.105957925319671631e-01 -2.959078550338745117e-01
1.871234476566314697e-01 -1.396169885993003845e-02 -3.476268649101257324e-01 -1.337425708770751953e-01
2.922567129135131836e-01 7.524416595697402954e-02 3.517329692840576172e-01 -2.314354330301284790e-01
4.798670113086700439e-02 -4.835828021168708801e-02 4.716543555259704590e-01 4.854832887649536133e-01
1.388315856456756592e-01 2.876571379601955414e-02 -3.489344716072082520e-01 -4.545462131500244141e-01
4.948064088821411133e-01 3.373297303915023804e-02 -2.668853998184204102e-01 -5.561943650245666504e-01
-2.936221361160278320e-01 -9.421674907207489014e-02 1.365963220596313477e-01 9.728562831878662109e-02
8.374170213937759399e-02 -1.158852428197860718e-01 3.198662698268890381e-01 3.158452808856964111e-01
3.957466036081314087e-02 2.358952350914478302e-02 -3.019877672195434570e-01 3.915038704872131348e-01
-5.419721603393554688e-01 -2.127122282981872559e-01 -2.424215674400329590e-01 -2.476604580879211426e-01
7.950827479362487793e-02 -5.079885721206665039e-01 4.147666990756988525e-01 4.018051028251647949e-01
5.409544110298156738e-01 -3.879849612712860107e-01 -1.406195610761642456e-01 1.585042923688888550e-01
-2.706082761287689209e-01 4.505912959575653076e-01 -1.640281677246093750e-01 -1.838427782058715820e-01
8.978892117738723755e-02 -5.495929718017578125e-01 -6.331223249435424805e-02 5.373009443283081055e-01
-5.298671722412109375e-01 7.952824980020523071e-02 3.046821951866149902e-01 5.035242997109889984e-03
9.281326830387115479e-02 1.020765304565429688e-01 -4.036287367343902588e-01 -5.419874191284179688e-01
3.282491564750671387e-01 -4.775554835796356201e-01 6.106950715184211731e-02 5.591010451316833496e-01
-3.704003989696502686e-01 5.983247607946395874e-02 -3.472759723663330078e-01 -2.821426689624786377e-01
2.434542924165725708e-01 -4.076128900051116943e-01 -5.213484168052673340e-01 1.775987446308135986e-01
4.220974743366241455e-01 3.366497457027435303e-01 3.309653103351593018e-01 -4.591109231114387512e-02
-4.320329427719116211e-02 5.691100955009460449e-01 9.870658069849014282e-02 1.382025033235549927e-01
4.654228985309600830e-01 4.456573724746704102e-01 1.622767597436904907e-01 2.506555318832397461e-01
1.143066659569740295e-01 5.711281672120094299e-02 5.450520515441894531e-01 -3.555887639522552490e-01
9.422779083251953125e-02 1.692829728126525879e-01 -3.676873445510864258e-02 9.511125087738037109e-02
5.285034179687500000e-01 4.564065337181091309e-01 5.044311881065368652e-01 -5.098718404769897461e-01
-4.524159133434295654e-01 8.290444314479827881e-02 6.096199527382850647e-02 4.373278617858886719e-01
3.167619705200195312e-01 -3.860038816928863525e-01 -4.946838319301605225e-01 -4.877902567386627197e-01
5.504698753356933594e-01 -5.456216931343078613e-01 -1.892069578170776367e-01 1.920353472232818604e-01
2.985005676746368408e-01 1.632046550512313843e-01 -5.478007346391677856e-02 4.946085512638092041e-01
-2.892745733261108398e-01 2.183851301670074463e-01 -4.822249114513397217e-01 -3.305714130401611328e-01
4.858264029026031494e-01 -4.070574343204498291e-01 1.454571336507797241e-01 3.583252429962158203e-01
-5.327332019805908203e-01 4.701766371726989746e-01 -5.422367453575134277e-01 -5.269734859466552734e-01
2.828730046749114990e-01 1.899372041225433350e-01 1.206968799233436584e-01 3.991714715957641602e-01
2.009832412004470825e-01 -3.771827556192874908e-03 -3.773294985294342041e-01 -2.191693931818008423e-01
-2.580253481864929199e-01 2.963975965976715088e-01 1.342304646968841553e-01 4.582267403602600098e-01
-1.556538641452789307e-01 2.775829732418060303e-01 2.574091851711273193e-01 5.425429940223693848e-01
4.173228144645690918e-02 2.705317689105868340e-03 -4.122805893421173096e-01 -5.722945332527160645e-01
2.654271721839904785e-01 2.636967003345489502e-01 5.057661533355712891e-01 5.185015201568603516e-01
2.538187801837921143e-01 2.535924874246120453e-02 4.327616989612579346e-01 -5.148606300354003906e-01
-2.709644436836242676e-01 6.641880422830581665e-02 -2.892609126865863800e-02 -1.537651270627975464e-01
3.750894367694854736e-01 -3.242782354354858398e-01 -5.665779113769531250e-01 1.876955181360244751e-01
-9.369184821844100952e-02 -1.793067753314971924e-01 3.829524666070938110e-02 -5.250649452209472656e-01
-1.852177232503890991e-01 2.547742426395416260e-01 -2.309419512748718262e-01 1.675214320421218872e-01
7.474900782108306885e-02 5.392957925796508789e-01 -2.176671475172042847e-01 4.775000810623168945e-01
-3.787488043308258057e-01 4.978168904781341553e-01 3.343848884105682373e-01 -5.294826626777648926e-01
4.005846381187438965e-01 -1.962589770555496216e-01 2.736295163631439209e-01 -4.610085189342498779e-01
-1.273580193519592285e-01 -1.055673733353614807e-01 -2.167635560035705566e-01 -2.387004643678665161e-01
-3.676031827926635742e-01 8.273015171289443970e-02 2.532541453838348389e-01 3.482401072978973389e-01
-1.752805411815643311e-01 5.113509893417358398e-01 -2.657665312290191650e-01 2.836199998855590820e-01
-1.803680360317230225e-01 -3.681876659393310547e-01 -5.495041608810424805e-01 -4.875228106975555420e-01
-2.191956900060176849e-02 3.427864015102386475e-01 -4.849580228328704834e-01 7.534024119377136230e-02
3.236991167068481445e-01 4.683153927326202393e-01 2.166520953178405762e-01 -5.698586702346801758e-01
-1.385695934295654297e-01 5.233252644538879395e-01 4.413593411445617676e-01 5.265082120895385742e-01
3.987785801291465759e-02 -1.433586180210113525e-01 -5.450043082237243652e-01 4.548681676387786865e-01
-3.629154562950134277e-01 2.124483138322830200e-01 4.196125864982604980e-01 4.393596053123474121e-01
-4.270998239517211914e-01 3.470229208469390869e-01 5.507920384407043457e-01 -3.274876475334167480e-01
-3.645789027214050293e-01 5.485956072807312012e-01 1.699514687061309814e-01 -5.274682044982910156e-01
2.780583798885345459e-01 2.775248885154724121e-01 -1.248643323779106140e-01 1.477838903665542603e-01
-5.419787764549255371e-01 -8.798996359109878540e-02 2.926843464374542236e-01 -2.896310687065124512e-01
-2.557346224784851074e-02 -4.300360381603240967e-01 3.034751117229461670e-01 4.863688349723815918e-01
-2.176437377929687500e-01 3.025095462799072266e-01 2.079139202833175659e-01 -3.091866970062255859e-01
-4.389130324125289917e-02 -5.403530597686767578e-01 -2.054224610328674316e-01 5.714954137802124023e-01
2.677379250526428223e-01 -2.530934214591979980e-01 -5.372304096817970276e-02 -1.383777409791946411e-01
4.419274330139160156e-01 -2.711661756038665771e-01 -2.848294079303741455e-01 5.344498753547668457e-01
-3.314271271228790283e-01 -3.853935301303863525e-01 -3.492220640182495117e-01 5.229251384735107422e-01
4.020973443984985352e-01 -4.939288496971130371e-01 -6.979124993085861206e-02 4.575818777084350586e-02
5.027372390031814575e-02 -3.361998796463012695e-01 -1.029076874256134033e-01 3.714795410633087158e-01
4.867541193962097168e-01 3.686214387416839600e-01 -2.212671749293804169e-02 -5.104705095291137695e-01
-1.405370980501174927e-02 -1.503579169511795044e-01 4.693514406681060791e-01 4.446749687194824219e-01
2.114733010530471802e-01 -1.687080413103103638e-01 -1.533926129341125488e-01 -3.366675972938537598e-01
-3.443441092967987061e-01 -4.190070629119873047e-01 -3.500765264034271240e-01 -4.976735413074493408e-01
3.945386707782745361e-01 1.221676319837570190e-01 2.949199974536895752e-01 3.330811159685254097e-03
-5.617917180061340332e-01 -2.495433688163757324e-01 2.892442643642425537e-01 1.333985477685928345e-01
-2.342913597822189331e-01 2.923426926136016846e-01 7.675234973430633545e-02 -3.275476396083831787e-01
-1.393899619579315186e-01 -2.384241521358489990e-01 -2.687647342681884766e-01 -3.688978552818298340e-01
-6.591508537530899048e-02 4.970173537731170654e-01 -5.773897767066955566e-01 4.265044927597045898e-01
5.490780472755432129e-01 3.197567760944366455e-01 -4.140497446060180664e-01 -1.840920746326446533e-01
2.116854488849639893e-01 5.309135317802429199e-01 5.234624743461608887e-01 2.748298943042755127e-01
-4.159216582775115967e-01 1.066385731101036072e-01 2.462191879749298096e-01 -3.335955739021301270e-01
-4.965807795524597168e-01 2.727012038230895996e-01 -3.885299861431121826e-01 -3.070742189884185791e-01
4.327842295169830322e-01 -5.274847745895385742e-01 1.804594695568084717e-01 2.354243695735931396e-01
4.482676088809967041e-01 -3.389193117618560791e-01 1.297412961721420288e-01 -4.492103159427642822e-01
-3.517906665802001953e-01 -5.068296194076538086e-01 5.018703341484069824e-01 -4.978692829608917236e-01
-1.229820773005485535e-01 4.775365293025970459e-01 5.307625979185104370e-02 -1.398356556892395020e-01
-5.566287040710449219e-01 3.039695620536804199e-01 -6.212697923183441162e-02 -5.127965211868286133e-01
-5.635088682174682617e-01 5.251358747482299805e-01 2.423987165093421936e-02 -5.068851113319396973e-01
-1.889928281307220459e-01 -7.780842483043670654e-02 9.480796754360198975e-02 2.955665588378906250e-01
-2.411647886037826538e-01 -3.585002124309539795e-01 -1.051621809601783752e-01 4.955552220344543457e-01
-5.450870394706726074e-01 -4.179586172103881836e-01 2.981298863887786865e-01 2.778188586235046387e-01
1.730673909187316895e-01 4.220308363437652588e-01 4.392770230770111084e-01 -3.988695442676544189e-01
-5.349428653717041016e-01 -4.413594603538513184e-01 3.606162071228027344e-01 -5.810153484344482422e-01
1.373820304870605469e-01 -3.864287734031677246e-01 -3.009858429431915283e-01 -3.245318830013275146e-01
-4.845451414585113525e-01 -2.837721705436706543e-01 3.990536928176879883e-01 -3.422405719757080078e-01
3.034664988517761230e-01 -5.587831139564514160e-01 4.851514697074890137e-01 -3.474524617195129395e-01
-3.405137658119201660e-01 -5.273439288139343262e-01 -3.341344594955444336e-01 -2.254937738180160522e-01
-1.014031767845153809e-01 2.751128971576690674e-01 -4.374321699142456055e-01 3.282415270805358887e-01
1.357223391532897949e-01 -3.912751004099845886e-02 1.776725351810455322e-01 -2.986772656440734863e-01
2.481592595577239990e-01 -2.325224429368972778e-01 -6.606213748455047607e-02 -1.537344604730606079e-01
-4.016617238521575928e-01 -4.360807538032531738e-01 -4.915238022804260254e-01 -4.833737313747406006e-01
-5.090987682342529297e-01 -1.669812202453613281e-01 -3.457026481628417969e-01 -1.454662680625915527e-01
-4.065017700195312500e-01 -3.347402811050415039e-01 -1.875813156366348267e-01 -4.065022170543670654e-01
2.456697523593902588e-01 -4.909680187702178955e-01 -1.619157344102859497e-01 -2.722086310386657715e-01
9.011337906122207642e-02 -5.722315907478332520e-01 -5.274978876113891602e-01 -1.643405407667160034e-01
-2.306841313838958740e-01 -2.012734562158584595e-01 2.417662739753723145e-01 4.420859515666961670e-01
-3.045527040958404541e-01 -9.955156594514846802e-02 -4.323671758174896240e-01 -2.968840897083282471e-01
4.106967449188232422e-01 1.512588709592819214e-01 2.854818403720855713e-01 4.554463922977447510e-01
-4.275337159633636475e-01 2.514645159244537354e-01 5.290123820304870605e-01 4.287393391132354736e-01
3.812563419342041016e-02 -3.553687036037445068e-01 -3.586785495281219482e-01 -4.465836286544799805e-01
1.183692812919616699e-01 3.470424115657806396e-01 -5.219388008117675781e-01 1.920929253101348877e-01
3.556876480579376221e-01 -5.114124417304992676e-01 -5.602365732192993164e-01 -1.530482620000839233e-02
-5.421435236930847168e-01 -1.788897812366485596e-01 -5.732607245445251465e-01 -2.785833477973937988e-01
5.390632152557373047e-01 1.340026855468750000e-01 2.533640563488006592e-01 1.964547038078308105e-01
-4.980695247650146484e-02 1.259109377861022949e-01 4.387147724628448486e-01 4.260227084159851074e-02
5.205664634704589844e-01 -4.112021923065185547e-01 4.091104269027709961e-01 1.599576473236083984e-01
-2.642923295497894287e-01 4.591075778007507324e-01 -2.910286746919155121e-02 1.647046655416488647e-01
1.526363492012023926e-01 3.056419193744659424e-01 1.472335904836654663e-01 -1.991344839334487915e-01
5.554345846176147461e-01 -2.034777998924255371e-01 -3.564046323299407959e-01 -4.557076990604400635e-01
-2.982508838176727295e-01 6.460626423358917236e-02 -4.321225285530090332e-01 3.316673338413238525e-01
-5.193291902542114258e-01 1.061413884162902832e-01 4.417335391044616699e-01 2.162004560232162476e-01
-1.249012574553489685e-01 4.978967308998107910e-01 -4.148295819759368896e-01 3.505548834800720215e-01
-1.944792568683624268e-01 3.663809895515441895e-01 -1.156709864735603333e-01 4.690153896808624268e-01
1.379417479038238525e-01 -7.284200936555862427e-02 5.112439393997192383e-01 -3.729102611541748047e-01
4.975632131099700928e-01 -5.290455818176269531e-01 1.555462479591369629e-01 4.898198544979095459e-01
4.562218189239501953e-01 1.450953334569931030e-01 3.542327284812927246e-01 3.068413138389587402e-01
-8.943516016006469727e-02 5.470392294228076935e-03 4.732230901718139648e-01 3.944916427135467529e-01
2.926733791828155518e-01 -5.343638062477111816e-01 -4.893113374710083008e-01 -4.427018761634826660e-01
2.514076828956604004e-01 -5.192042589187622070e-01 -4.327060282230377197e-01 -3.793361783027648926e-01
-1.124033471569418907e-03 5.264796018600463867e-01 -4.032411798834800720e-02 1.345165669918060303e-01
-1.631539463996887207e-01 -2.026000022888183594e-01 -1.433021426200866699e-01 3.677901625633239746e-01
4.727656766772270203e-02 5.303319692611694336e-01 3.738858401775360107e-01 2.262032628059387207e-01
-4.782053232192993164e-01 4.086841642856597900e-01 -7.897979766130447388e-02 1.524339988827705383e-02
-5.685427784919738770e-01 4.798187911510467529e-01 3.174291253089904785e-01 -2.639344632625579834e-01
5.485394597053527832e-01 -2.313564121723175049e-01 2.990939021110534668e-01 5.623850226402282715e-01
-3.662761151790618896e-01 -4.643993973731994629e-01 -4.460143744945526123e-01 -2.248407006263732910e-01
4.788499176502227783e-01 3.829830586910247803e-01 -5.008997321128845215e-01 4.185429811477661133e-01
3.508293926715850830e-01 -3.680539727210998535e-01 -5.188637375831604004e-01 5.667976737022399902e-01
3.156901299953460693e-01 2.125253826379776001e-01 -1.639458388090133667e-01 2.851777672767639160e-01
3.494559526443481445e-01 3.818585574626922607e-01 -5.398678183555603027e-01 3.429165482521057129e-01
-5.060472488403320312e-01 3.683429658412933350e-01 -4.411916434764862061e-02 -2.390824556350708008e-01
3.812103271484375000e-01 2.228115797042846680e-01 -4.632090330123901367e-01 1.450943760573863983e-02
-5.677178502082824707e-01 5.333492755889892578e-01 -4.645067155361175537e-01 -3.554327487945556641e-01
-2.963552474975585938e-01 2.164848744869232178e-01 1.925725489854812622e-02 -1.821472942829132080e-01
-4.704059958457946777e-01 1.674442589282989502e-01 2.526868879795074463e-01 1.484496593475341797e-01
9.097744524478912354e-02 2.329907864332199097e-01 4.356904327869415283e-01 4.701268970966339111e-01
1.965532600879669189e-01 -5.185347199440002441e-01 8.345562964677810669e-02 4.905915558338165283e-01
-2.630484104156494141e-01 1.355220228433609009e-01 3.633473813533782959e-01 -3.299172222614288330e-01
4.453862607479095459e-01 3.331049680709838867e-01 2.520389854907989502e-01 1.761967837810516357e-01
-1.887054592370986938e-01 5.116031169891357422e-01 -4.389916658401489258e-01 2.683559954166412354e-01
2.187055349349975586e-01 -2.215421795845031738e-01 -8.246339857578277588e-02 -2.029846012592315674e-01
3.508861362934112549e-01 -3.131969273090362549e-01 3.239246308803558350e-01 2.587729692459106445e-01
-5.313146114349365234e-02 -4.573141690343618393e-03 4.928852021694183350e-01 -3.679976463317871094e-01
-4.174024462699890137e-01 5.581181645393371582e-01 -6.065421551465988159e-02 -4.425413012504577637e-01
-5.396285057067871094e-01 -3.947435319423675537e-01 -4.291359782218933105e-01 1.466252505779266357e-01
3.079188466072082520e-01 2.450992166996002197e-01 4.706794619560241699e-01 1.801401674747467041e-01
-3.373897671699523926e-01 2.377374470233917236e-01 -8.207762986421585083e-02 4.188508689403533936e-01
5.186791419982910156e-01 -7.982304692268371582e-02 1.253392696380615234e-01 -3.672539591789245605e-01
5.562819242477416992e-01 -5.023090243339538574e-01 -1.335952281951904297e-01 -5.276707410812377930e-01
-1.690349876880645752e-01 -1.013574600219726562e-01 -4.545633792877197266e-01 -4.916597306728363037e-01
1.368829160928726196e-01 3.332176208496093750e-01 2.847187817096710205e-01 4.501264095306396484e-01
-1.180051267147064209e-01 -3.444533944129943848e-01 1.330687552690505981e-01 3.730489909648895264e-01
4.384044706821441650e-01 -1.354109197854995728e-01 -4.581215381622314453e-01 1.409236192703247070e-01
1.417134255170822144e-01 -1.368425488471984863e-01 -5.317057967185974121e-01 -3.665031790733337402e-01
5.786462426185607910e-01 -4.984876886010169983e-02 -1.788331419229507446e-01 4.629301726818084717e-01
-5.032726526260375977e-01 -1.013445761054754257e-02 5.032726526260375977e-01 4.873143732547760010e-01
-1.101833358407020569e-01 -4.528775811195373535e-01 1.335911601781845093e-01 2.136759012937545776e-01
4.573189318180084229e-01 1.672091633081436157e-01 1.437669396400451660e-01 1.114506050944328308e-01
-5.658688545227050781e-01 4.623703658580780029e-01 -2.586714625358581543e-01 -3.412598967552185059e-01
-3.030203878879547119e-01 -5.074720978736877441e-01 -4.547938704490661621e-01 -2.263776808977127075e-01
-3.965583741664886475e-01 -7.448430359363555908e-02 3.965583443641662598e-01 -3.220743238925933838e-01
-3.659506440162658691e-01 4.264073669910430908e-01 2.595614790916442871e-01 2.732606530189514160e-01
-4.534284770488739014e-01 1.853595376014709473e-01 6.313267350196838379e-02 2.879843115806579590e-01
1.328833401203155518e-01 3.646629452705383301e-01 3.403470665216445923e-02 3.682369291782379150e-01
-2.912619113922119141e-01 2.857449948787689209e-01 2.028828859329223633e-01 4.591032862663269043e-01
-4.701525270938873291e-01 -3.530254364013671875e-01 -2.959613502025604248e-01 -4.290408492088317871e-01
-5.168933048844337463e-02 1.175896376371383667e-01 4.088257849216461182e-01 4.133307039737701416e-01
-5.791574716567993164e-02 1.056751608848571777e-01 7.572013139724731445e-02 5.808037519454956055e-02
4.460075199604034424e-01 4.845448434352874756e-01 -4.278709292411804199e-01 3.565322458744049072e-01
-1.765356063842773438e-01 4.016629457473754883e-01 -1.727636009454727173e-01 -5.793496966361999512e-01
-4.155800938606262207e-01 -5.370674729347229004e-01 5.331214070320129395e-01 -5.152748525142669678e-02
-5.152307152748107910e-01 3.546760678291320801e-01 2.433515340089797974e-01 -5.428118705749511719e-01
3.765980899333953857e-02 4.741339087486267090e-01 6.304702907800674438e-02 -1.722054034471511841e-01
3.168065547943115234e-01 -3.719524741172790527e-01 -3.795558512210845947e-01 1.921990215778350830e-01
3.601639270782470703e-01 -3.050915300846099854e-01 -1.214548498392105103e-01 -2.346596866846084595e-01
-1.387441903352737427e-01 -5.228512287139892578e-01 3.914234638214111328e-01 -2.172456681728363037e-01
-1.391667686402797699e-02 -3.464229702949523926e-01 -5.491601824760437012e-01 -1.151471212506294250e-01
-1.766535043716430664e-01 -5.043305754661560059e-01 2.772416770458221436e-01 -3.341737091541290283e-01
-2.127984315156936646e-01 1.247218325734138489e-01 -5.553982257843017578e-01 5.705732107162475586e-02
1.385448426008224487e-01 -4.306544959545135498e-01 -1.568063199520111084e-01 -3.070447444915771484e-01
-3.160045742988586426e-01 3.714162707328796387e-01 2.382065206766128540e-01 4.389566183090209961e-01
-4.717794358730316162e-01 3.338150382041931152e-01 -3.903172314167022705e-01 2.115675657987594604e-01
1.782236248254776001e-01 -4.604119062423706055e-01 -1.196854487061500549e-01 3.359443247318267822e-01
1.024796068668365479e-01 2.319162338972091675e-01 4.208627641201019287e-01 -3.759390413761138916e-01
-2.008983045816421509e-01 -5.341971516609191895e-01 1.921199262142181396e-01 1.050015166401863098e-01
-2.517909407615661621e-01 5.407555699348449707e-01 -2.854715883731842041e-01 -5.771744623780250549e-02
-2.460618764162063599e-01 -3.425177633762359619e-01 -1.649630367755889893e-01 4.288283288478851318e-01
2.950223162770271301e-02 -5.114732980728149414e-01 4.288571774959564209e-01 -6.614889949560165405e-02
8.015240728855133057e-02 2.254892289638519287e-01 -3.162219002842903137e-02 2.167387306690216064e-01
-4.175784885883331299e-01 -4.198481142520904541e-01 1.594447642564773560e-01 2.334733456373214722e-01
5.587174892425537109e-01 3.568983972072601318e-01 -4.831720590591430664e-01 -5.296673178672790527e-01
5.144919753074645996e-01 -2.583513855934143066e-01 -3.757386803627014160e-01 -3.887735307216644287e-01
-4.789723753929138184e-01 4.623445868492126465e-01 -2.059456706047058105e-01 1.646814309060573578e-02
-5.477955341339111328e-01 -4.418549239635467529e-01 -4.760352373123168945e-01 1.668560802936553955e-01
-4.280914962291717529e-01 5.136865377426147461e-01 -1.973231136798858643e-01 -4.324714243412017822e-01
-3.857332468032836914e-01 -8.416810631752014160e-02 2.133637815713882446e-01 -6.776361167430877686e-02
4.483641684055328369e-01 3.408601880073547363e-01 3.737555742263793945e-01 -2.783571183681488037e-01
4.648879766464233398e-01 3.583929538726806641e-01 -1.363532245159149170e-01 -1.140279769897460938e-01
-4.635446071624755859e-01 -4.560055434703826904e-01 -4.957712590694427490e-01 -1.771223694086074829e-01
-5.407282710075378418e-01 2.331496477127075195e-01 -4.771437346935272217e-01 2.943578734993934631e-02
3.238059580326080322e-01 -4.240169227123260498e-01 3.158190548419952393e-01 -2.140309810638427734e-01
-5.373654365539550781e-01 3.552094101905822754e-01 2.935828268527984619e-01 -2.417219616472721100e-02
3.077058494091033936e-01 2.094803154468536377e-01 -8.367587625980377197e-02 1.481015533208847046e-01
-2.989095151424407959e-01 -3.208189606666564941e-01 -4.526210129261016846e-01 -2.754031419754028320e-01
2.479282468557357788e-01 6.600214540958404541e-02 4.060107767581939697e-01 -1.248433142900466919e-01
3.610235750675201416e-01 9.085645526647567749e-02 -2.061373144388198853e-01 3.533693850040435791e-01
1.862129122018814087e-01 1.939693987369537354e-01 -4.032431542873382568e-01 1.289546489715576172e-01
-3.017509877681732178e-01 4.110317826271057129e-01 -1.641493141651153564e-01 2.839677035808563232e-01
-1.586075872182846069e-01 -3.658377826213836670e-01 1.013544201850891113e-01 -2.770309746265411377e-01
2.218676358461380005e-01 -1.294863969087600708e-01 -2.416286319494247437e-01 1.933183372020721436e-01
-4.151924699544906616e-02 -4.071316495537757874e-02 -5.456487536430358887e-01 -5.726621747016906738e-01
-1.717437654733657837e-01 -1.314639206975698471e-02 3.841544985771179199e-01 3.598950207233428955e-01
3.156764507293701172e-01 2.933378219604492188e-01 4.514510035514831543e-01 -2.076981067657470703e-01
-3.761826157569885254e-01 -1.924686320126056671e-02 4.449395239353179932e-01 -5.434454679489135742e-01
9.970038384199142456e-02 -2.501940131187438965e-01 3.046099543571472168e-01 -1.898578107357025146e-01
-3.717159330844879150e-01 -3.181520700454711914e-01 3.003132641315460205e-01 3.302641212940216064e-01
-2.808382213115692139e-01 -3.742214441299438477e-01 -4.155038297176361084e-01 -3.897042870521545410e-01
-2.341008335351943970e-01 -2.063125073909759521e-01 -2.923340201377868652e-01 -3.722465038299560547e-01
-2.090132087469100952e-01 2.795411944389343262e-01 2.731430828571319580e-01 -2.787728309631347656e-01
3.367277681827545166e-01 -2.641002237796783447e-01 1.041386723518371582e-01 -3.335817456245422363e-01
4.205166995525360107e-01 1.588466018438339233e-02 -2.408901154994964600e-01 5.723796486854553223e-01
-4.111462831497192383e-02 3.435254096984863281e-03 1.394070386886596680e-01 2.035531401634216309e-01
-4.249377548694610596e-01 1.575255990028381348e-01 -3.329943716526031494e-01 -2.371622174978256226e-01
2.526683211326599121e-01 -4.062470495700836182e-01 -5.549740046262741089e-02 -4.893204867839813232e-01
-2.587610483169555664e-01 -2.031787782907485962e-01 -4.608700871467590332e-01 -1.923214048147201538e-01
-7.303334027528762817e-02 -3.010432720184326172e-01 -1.982128322124481201e-01 -4.090317785739898682e-01
1.118357330560684204e-01 -1.333961635828018188e-01 3.702557981014251709e-01 3.832996487617492676e-01
-5.516913533210754395e-01 1.072141826152801514e-01 -1.733106076717376709e-01 -5.090045332908630371e-01
5.340495109558105469e-01 -2.418884821236133575e-02 2.842316329479217529e-01 1.844063401222229004e-01
-1.618993468582630157e-03 -5.012710094451904297e-01 -2.675636112689971924e-01 1.105305030941963196e-01
3.606716692447662354e-01 2.233364880084991455e-01 -1.075207814574241638e-01 -1.030131652951240540e-01
-4.103192090988159180e-01 4.522029459476470947e-01 -4.569493234157562256e-01 2.452691495418548584e-01
7.776924222707748413e-02 2.065493315458297729e-01 -1.916749626398086548e-01 2.962419986724853516e-01
-3.655550181865692139e-01 3.614423274993896484e-01 2.001870125532150269e-01 -3.674712479114532471e-01
-2.345701009035110474e-01 3.439508378505706787e-01 3.869428932666778564e-01 2.217608094215393066e-01
5.139148831367492676e-01 -1.065490096807479858e-01 -3.554248511791229248e-01 -1.667830199003219604e-01
-4.511987268924713135e-01 -4.133273959159851074e-01 4.197120666503906250e-01 4.157620370388031006e-01
-3.105905055999755859e-01 -4.686247184872627258e-02 -1.558209955692291260e-01 3.100625872611999512e-01
1.666604727506637573e-01 2.333668805658817291e-02 -4.661583006381988525e-01 -4.273447990417480469e-01
-4.869968891143798828e-01 2.671687901020050049e-01 5.020063519477844238e-01 -4.992818534374237061e-01
-2.865519523620605469e-01 -2.291589081287384033e-01 -1.829012930393218994e-01 -3.881670236587524414e-01
-3.093703687191009521e-01 -5.157640576362609863e-01 -1.516014039516448975e-01 5.049213767051696777e-01
-5.558604001998901367e-01 2.663042247295379639e-01 4.629209339618682861e-01 3.683115839958190918e-01
2.508659958839416504e-01 -3.265497460961341858e-02 1.318518370389938354e-01 3.827179670333862305e-01
2.573155760765075684e-01 3.033516705036163330e-01 2.801954150199890137e-01 -4.010545015335083008e-01
2.793124020099639893e-01 -3.358480632305145264e-01 2.041682153940200806e-01 -3.352809250354766846e-01
3.981879055500030518e-01 3.076400160789489746e-01 5.552730560302734375e-01 4.760118424892425537e-01
-3.699489235877990723e-01 -1.235099732875823975e-01 -1.381723284721374512e-01 1.278515756130218506e-01
2.334356606006622314e-01 3.544953465461730957e-01 1.765509545803070068e-01 5.301670432090759277e-01
-5.588389039039611816e-01 -6.903013586997985840e-02 6.296246498823165894e-02 -4.968243539333343506e-01
-2.425104379653930664e-01 2.310309559106826782e-01 -3.839136362075805664e-01 4.747973978519439697e-01
1.687007257714867592e-03 -6.562765687704086304e-02 2.956262528896331787e-01 2.377040982246398926e-01
-2.020379602909088135e-01 1.129114553332328796e-01 4.596704244613647461e-01 4.994229376316070557e-01
-4.739458262920379639e-01 -5.515153408050537109e-01 3.032658696174621582e-01 3.876346349716186523e-01
-2.977099716663360596e-01 1.281660646200180054e-01 3.006129264831542969e-01 -5.540494918823242188e-01
-2.765969336032867432e-01 -2.042151242494583130e-01 3.845266103744506836e-01 7.973388582468032837e-02
5.260031819343566895e-01 3.598018586635589600e-01 -2.778907120227813721e-01 -3.060948550701141357e-01
1.210312992334365845e-01 -4.874963760375976562e-01 2.283814996480941772e-01 5.629650354385375977e-01
6.562277674674987793e-02 -3.312582969665527344e-01 3.209087848663330078e-01 -4.614146351814270020e-01
-5.000619888305664062e-01 4.825044572353363037e-01 -9.805560111999511719e-02 4.889215230941772461e-01
-3.538487553596496582e-01 2.194683104753494263e-01 2.712578177452087402e-01 5.557202696800231934e-01
5.403467416763305664e-01 2.636919543147087097e-02 4.024253785610198975e-01 2.783460319042205811e-01
5.349436998367309570e-01 -3.173014819622039795e-01 4.870574772357940674e-01 3.534343466162681580e-02
-1.879634708166122437e-01 -1.922910213470458984e-01 3.087164759635925293e-01 -1.779143661260604858e-01
-4.126204848289489746e-01 -4.492464661598205566e-01 5.157525539398193359e-01 -2.081646323204040527e-01
3.820342123508453369e-01 3.300562500953674316e-01 4.675238430500030518e-01 -2.706729769706726074e-01
-5.173362493515014648e-01 -3.298658728599548340e-01 -3.320226669311523438e-01 -4.830298721790313721e-01
-4.935730993747711182e-02 -3.474915921688079834e-01 -5.890835821628570557e-02 -3.716078698635101318e-01
2.165618836879730225e-01 2.591327065601944923e-03 3.487159609794616699e-01 2.395835369825363159e-01
7.649092376232147217e-02 2.584860324859619141e-01 4.169561266899108887e-01 3.442140519618988037e-01
3.503460586071014404e-01 1.964445412158966064e-01 -3.102375268936157227e-01 2.343805432319641113e-01
4.509435594081878662e-01 -2.065808475017547607e-01 -3.980572223663330078e-01 -5.720429867506027222e-02
2.144736051559448242e-02 -4.017710685729980469e-03 1.259112358093261719e-02 7.460874319076538086e-02
-5.184110999107360840e-01 -3.743449971079826355e-02 5.040544271469116211e-01 1.945415139198303223e-01
3.193176090717315674e-01 1.291902065277099609e-01 -8.274998515844345093e-02 -4.458475708961486816e-01
5.649566650390625000e-01 2.180934883654117584e-02 -3.587623834609985352e-01 -4.793557524681091309e-01
4.940596520900726318e-01 -4.660989642143249512e-01 -2.493988955393433571e-03 -5.332421064376831055e-01
-3.090187609195709229e-01 5.308486893773078918e-02 -3.037742376327514648e-01 -3.060446381568908691e-01
-3.043600618839263916e-01 -4.140366315841674805e-01 -3.080615997314453125e-01 -3.805302977561950684e-01
8.510360121726989746e-02 4.514472484588623047e-01 -2.892529368400573730e-01 -3.888018131256103516e-01
-1.492362022399902344e-01 -1.440335959196090698e-01 -5.635401010513305664e-01 -4.219414293766021729e-01
-3.562368452548980713e-01 5.685974955558776855e-01 -1.185331791639328003e-01 -3.891394436359405518e-01
-2.225287258625030518e-01 1.161202937364578247e-01 2.228097468614578247e-01 -4.735074341297149658e-01
3.647863864898681641e-01 -3.936844170093536377e-01 3.466527163982391357e-01 -4.588124155998229980e-01
-5.129338502883911133e-01 3.514961898326873779e-02 4.942257106304168701e-01 4.928946197032928467e-01
-4.472178518772125244e-01 -2.093131840229034424e-01 3.485385477542877197e-01 2.553916871547698975e-01
1.143402606248855591e-01 -5.213024020195007324e-01 5.053796768188476562e-01 -5.075244307518005371e-01
9.832492470741271973e-02 2.845928966999053955e-01 -5.778384208679199219e-01 4.250763654708862305e-01
-2.631175518035888672e-01 2.309700101613998413e-01 -5.783120989799499512e-01 -5.787497758865356445e-01
-2.279104888439178467e-01 -8.564365096390247345e-03 3.544103205204010010e-01 -2.910715639591217041e-01
1.595534682273864746e-01 -1.551412045955657959e-02 1.505100578069686890e-01 2.001591920852661133e-01
5.026373267173767090e-01 -3.808991611003875732e-01 -2.080852091312408447e-01 -1.255055218935012817e-01
1.784493625164031982e-01 2.843932509422302246e-01 2.477844357490539551e-01 -3.744454979896545410e-01
2.854605615139007568e-01 -5.613062977790832520e-01 -4.281130805611610413e-02 2.174145430326461792e-01
-2.852150201797485352e-01 4.729492962360382080e-01 -4.239386916160583496e-01 -3.990422487258911133e-01
-3.372549712657928467e-01 -7.564812898635864258e-02 -4.573146700859069824e-01 4.874875843524932861e-01
5.229026079177856445e-01 -2.424142807722091675e-01 -5.185641050338745117e-01 5.118637531995773315e-02
4.743775352835655212e-03 4.421030580997467041e-01 4.127094447612762451e-01 4.191941916942596436e-01
-6.532026827335357666e-02 -1.015045791864395142e-01 3.452589362859725952e-02 -4.465361237525939941e-01
3.376429378986358643e-01 -3.840539157390594482e-01 3.610816597938537598e-01 -4.960954487323760986e-01
3.036086261272430420e-01 2.300266474485397339e-01 -5.173259973526000977e-01 -7.666066288948059082e-02
-1.415579020977020264e-01 -5.628936290740966797e-01 4.701520204544067383e-01 2.737729549407958984e-01
-2.841754853725433350e-01 -5.522623062133789062e-01 -4.082975387573242188e-01 3.283638507127761841e-02
-5.370705127716064453e-01 -1.200938746333122253e-01 -1.464498788118362427e-01 5.510680079460144043e-01
5.200905203819274902e-01 1.480362564325332642e-01 4.635390937328338623e-01 -2.561010420322418213e-01
-5.651463866233825684e-01 -2.475171089172363281e-01 5.276161432266235352e-01 -3.759573101997375488e-01
5.049549341201782227e-01 -6.646531075239181519e-02 2.490559220314025879e-01 2.426277846097946167e-01
6.341513246297836304e-02 -4.585733711719512939e-01 2.153164446353912354e-01 3.141830265522003174e-01
3.012766689062118530e-02 2.312009930610656738e-01 3.334010243415832520e-01 2.486293464899063110e-01
4.688560068607330322e-01 2.816826701164245605e-01 -2.856373488903045654e-01 3.080737292766571045e-01
-2.034628242254257202e-01 1.744851171970367432e-01 4.108890593051910400e-01 -1.916172653436660767e-01
-3.445994555950164795e-01 -1.746473461389541626e-01 9.819258749485015869e-02 -5.002578496932983398e-01
6.621781736612319946e-03 -1.753589361906051636e-01 2.656427323818206787e-01 3.188224434852600098e-01
-4.304110705852508545e-01 3.615725934505462646e-01 -4.855070710182189941e-01 -2.046743780374526978e-01
-1.564687043428421021e-01 3.550591766834259033e-01 -2.280769199132919312e-01 8.458713442087173462e-02
1.455502957105636597e-01 -5.414544343948364258e-01 -4.257298409938812256e-01 3.482890427112579346e-01
3.186850547790527344e-01 -1.354251056909561157e-01 -6.340391933917999268e-02 -5.247157216072082520e-01
3.029822707176208496e-01 4.298557639122009277e-01 5.337358117103576660e-01 1.742512732744216919e-01
-1.441201269626617432e-01 -3.383369371294975281e-02 -3.638388514518737793e-01 2.389832884073257446e-01
-1.743173152208328247e-01 1.502671986818313599e-01 -4.574791491031646729e-01 2.277141362428665161e-01
5.195111036300659180e-01 3.707590326666831970e-02 3.598893880844116211e-01 -5.543484091758728027e-01
1.226809322834014893e-01 3.349154889583587646e-01 2.244706600904464722e-01 1.771512925624847412e-01
2.809180915355682373e-01 2.586201727390289307e-01 -1.774574220180511475e-01 -2.621506750583648682e-01
4.674052894115447998e-01 2.972537092864513397e-02 -7.054851157590746880e-04 -1.126690804958343506e-01
5.032772421836853027e-01 -2.902810461819171906e-02 -4.293308258056640625e-01 -2.668409347534179688e-01
4.709808230400085449e-01 5.582341551780700684e-01 4.993096590042114258e-01 -2.476726770401000977e-01
2.048083692789077759e-01 -5.297918319702148438e-01 3.442477434873580933e-02 2.086844593286514282e-01
-3.254010081291198730e-01 2.676923274993896484e-01 5.263203382492065430e-01 -5.577895641326904297e-01
2.280473113059997559e-01 -2.735910713672637939e-01 -2.289692759513854980e-01 7.074087858200073242e-02
-2.617473900318145752e-01 1.098640784621238708e-01 -4.562316238880157471e-01 3.210939764976501465e-01
-2.470051199197769165e-01 2.119040489196777344e-01 3.092442750930786133e-01 -1.000204235315322876e-01
-5.530613064765930176e-01 1.375866234302520752e-01 5.189281329512596130e-02 -2.192457616329193115e-01
4.561543464660644531e-03 -3.148998022079467773e-01 -3.838455080986022949e-01 4.983354210853576660e-01
5.637840628623962402e-01 -2.358542084693908691e-01 4.402334094047546387e-01 4.906041920185089111e-01
-3.492745161056518555e-01 -3.009414970874786377e-01 -1.538138389587402344e-01 2.153029292821884155e-01
4.061637520790100098e-01 9.415540099143981934e-02 -1.093537360429763794e-01 4.235870838165283203e-01
1.972255557775497437e-01 -2.864398956298828125e-01 -5.580983161926269531e-01 3.978277146816253662e-01
-4.597392380237579346e-01 -4.574970304965972900e-01 -5.128814578056335449e-01 6.117777433246374130e-03
1.077900901436805725e-01 4.200558066368103027e-01 5.107461214065551758e-01 1.346102207899093628e-01
1.547242254018783569e-01 1.373396813869476318e-01 -1.547168195247650146e-01 2.785820960998535156e-01
5.132879018783569336e-01 -4.334181547164916992e-01 -1.336884126067161560e-02 4.149407148361206055e-01
9.078264236450195312e-03 9.697735309600830078e-03 -2.267122864723205566e-01 8.461260795593261719e-02
5.227929949760437012e-01 4.976476728916168213e-01 -1.718949228525161743e-01 -4.940296113491058350e-01
-1.349945925176143646e-02 -2.673995494842529297e-01 3.280607163906097412e-01 -1.354344785213470459e-01
4.203862845897674561e-01 -1.795144379138946533e-01 1.655622571706771851e-01 -3.853550553321838379e-01
6.711670756340026855e-02 4.979327023029327393e-01 2.923391461372375488e-01 -4.857074022293090820e-01
4.531193077564239502e-01 2.917776703834533691e-01 -5.967682600021362305e-02 4.701876938343048096e-01
4.315034747123718262e-01 -3.392016589641571045e-01 -8.790699392557144165e-02 2.590270340442657471e-01
-5.115363597869873047e-01 -2.681072056293487549e-01 3.638784885406494141e-01 -4.395385384559631348e-01
-2.100499123334884644e-01 2.292551845312118530e-02 1.399174481630325317e-01 5.689580440521240234e-01
-4.203814864158630371e-01 -5.556528568267822266e-01 4.598442912101745605e-01 -3.997758328914642334e-01
2.609987258911132812e-01 2.338247895240783691e-01 -4.118139743804931641e-01 -5.929811671376228333e-02
4.549997746944427490e-01 4.571247994899749756e-01 -2.128777951002120972e-01 -2.988010942935943604e-01
-9.326662123203277588e-02 -2.016656994819641113e-01 5.569980144500732422e-01 -2.627916634082794189e-01
-7.159361988306045532e-02 -2.662721574306488037e-01 2.099782973527908325e-01 -4.315226078033447266e-01
7.265238463878631592e-02 -1.333543565124273300e-03 -2.874096333980560303e-01 5.719876289367675781e-01
3.374272286891937256e-01 3.181529939174652100e-01 -3.479048609733581543e-01 2.269431650638580322e-01
-5.177863836288452148e-01 -9.324369952082633972e-03 3.564768284559249878e-02 -2.022881060838699341e-01
-2.880042195320129395e-01 2.336052209138870239e-01 5.381844639778137207e-01 5.000872015953063965e-01
3.873255848884582520e-01 4.072814881801605225e-01 -1.275365613400936127e-02 3.836583197116851807e-01
-3.715802133083343506e-01 3.858607709407806396e-01 5.688758492469787598e-01 -4.891048669815063477e-01
-4.033741950988769531e-01 -2.421678900718688965e-01 6.322512030601501465e-02 1.334055513143539429e-01
5.029620528221130371e-01 -1.992075294256210327e-01 4.975321590900421143e-01 -1.754511445760726929e-01
-3.243506252765655518e-01 2.752275764942169189e-01 1.556881666183471680e-01 5.009088516235351562e-01
5.294939875602722168e-01 -5.060446262359619141e-01 5.481731891632080078e-01 -1.856805980205535889e-01
-4.269036352634429932e-01 -1.836286336183547974e-01 -5.633288621902465820e-01 -4.239214956760406494e-01
-1.306580007076263428e-01 4.968464076519012451e-01 8.198427408933639526e-02 -1.975313061848282814e-03
3.075410723686218262e-01 -4.538518935441970825e-02 5.108927488327026367e-01 -5.640168674290180206e-03
4.823101758956909180e-01 -1.349278539419174194e-01 2.523577213287353516e-01 1.763101965188980103e-01
7.917603850364685059e-02 -2.344358563423156738e-01 -3.233075737953186035e-01 3.809952437877655029e-01
-4.872661530971527100e-01 -2.910658717155456543e-01 4.958189725875854492e-01 1.714022904634475708e-01
-5.060681700706481934e-01 -4.627377390861511230e-01 -3.866169229149818420e-02 3.132165670394897461e-01
3.244800567626953125e-01 -4.534655809402465820e-01 5.413479804992675781e-01 3.083429634571075439e-01
2.895124852657318115e-01 -3.037534356117248535e-01 -3.941913843154907227e-01 2.804332040250301361e-02
3.821634054183959961e-01 -2.100615203380584717e-01 -3.930079340934753418e-01 1.497320681810379028e-01
-1.508223861455917358e-01 -5.468584895133972168e-01 -2.952041029930114746e-01 -2.653428614139556885e-01
-3.385473415255546570e-02 -4.802271127700805664e-01 2.849972844123840332e-01 -4.213475286960601807e-01
-5.686820149421691895e-01 5.340900421142578125e-01 -3.508855402469635010e-01 -3.808934092521667480e-01
-4.456050992012023926e-01 -1.461300104856491089e-01 3.865424394607543945e-01 5.131366848945617676e-02
-5.431723594665527344e-01 5.128420591354370117e-01 2.754783332347869873e-01 -3.814524710178375244e-01
3.575735986232757568e-01 -2.684929668903350830e-01 -2.983872592449188232e-01 -5.278152823448181152e-01
4.525788724422454834e-01 4.635920375585556030e-02 -3.433158993721008301e-01 -5.146370530128479004e-01
1.898840516805648804e-01 5.652560293674468994e-02 -4.636556208133697510e-01 3.297172486782073975e-01
-2.916485965251922607e-01 -1.769253611564636230e-01 -2.615617513656616211e-01 -4.671385884284973145e-02
-4.278237521648406982e-01 -3.675821721553802490e-01 -4.048509001731872559e-01 5.630091428756713867e-01
-1.492169946432113647e-01 5.825107693672180176e-01 -2.603302299976348877e-01 -2.284960299730300903e-01
5.783288180828094482e-02 3.122053444385528564e-01 4.039477705955505371e-01 -1.289671659469604492e-01
-2.187461853027343750e-01 -3.511086702346801758e-01 -3.949777781963348389e-01 4.707241058349609375e-01
5.241177678108215332e-01 -3.422704041004180908e-01 2.621850967407226562e-01 9.000503271818161011e-02
-2.130855470895767212e-01 4.640408754348754883e-01 5.445843338966369629e-01 1.891556978225708008e-01
3.791145384311676025e-01 2.806789577007293701e-01 3.548635244369506836e-01 1.120591014623641968e-01
5.174632743000984192e-02 -5.703734159469604492e-01 -5.085607767105102539e-01 1.041593849658966064e-01
-1.992529183626174927e-01 -1.367967873811721802e-01 -3.961341679096221924e-01 -3.319843411445617676e-01
-4.177160263061523438e-01 -4.873346388339996338e-01 -3.664395809173583984e-01 -5.305914282798767090e-01
-5.357498526573181152e-01 -6.420312821865081787e-02 -2.419638186693191528e-01 2.848428189754486084e-01
3.002627752721309662e-02 4.897310435771942139e-01 7.007631659507751465e-02 4.439276158809661865e-01
-2.883973717689514160e-01 2.307765632867813110e-01 -2.370322346687316895e-01 2.185873836278915405e-01
-4.021159410476684570e-01 9.710413217544555664e-02 -1.294859647750854492e-01 3.445437550544738770e-01
6.445944309234619141e-02 -1.415117084980010986e-01 -2.947126626968383789e-01 5.160480141639709473e-01
-2.441234588623046875e-01 -4.208654165267944336e-03 -5.131978392601013184e-01 5.039572715759277344e-01
-3.440145850181579590e-01 -2.232678532600402832e-01 5.825878679752349854e-02 4.352078735828399658e-01
-3.113885819911956787e-01 -5.633667111396789551e-02 -5.536515116691589355e-01 -4.839895367622375488e-01
4.584084749221801758e-01 2.229251414537429810e-01 6.794974952936172485e-02 4.180494844913482666e-01
-4.890030026435852051e-01 4.179727137088775635e-01 3.225687742233276367e-01 -1.327426135540008545e-01
4.912596344947814941e-01 -2.190164476633071899e-01 -1.932078041136264801e-02 -3.388966917991638184e-01
3.600314259529113770e-01 -4.931953251361846924e-01 -3.289800584316253662e-01 -1.288231462240219116e-01
-3.983628749847412109e-01 -4.526120722293853760e-01 1.237387359142303467e-01 -6.724712997674942017e-02
1.568529903888702393e-01 -5.101798176765441895e-01 4.846027195453643799e-01 -3.083953075110912323e-02
-3.252758383750915527e-01 -3.735485076904296875e-01 -1.867095530033111572e-01 1.931761503219604492e-01
-2.129892408847808838e-01 -2.459509372711181641e-01 5.106796622276306152e-01 -1.211837157607078552e-01
5.562320947647094727e-01 -9.289460722357034683e-04 -5.292182564735412598e-01 -5.070356279611587524e-02
-3.110732138156890869e-01 -3.217357099056243896e-01 4.727906286716461182e-01 1.361672729253768921e-01
-3.349933326244354248e-01 -5.402211546897888184e-01 -3.871084451675415039e-01 3.127901256084442139e-01
2.345358878374099731e-01 -2.473649680614471436e-01 3.658913820981979370e-02 5.312680602073669434e-01
4.766100049018859863e-01 1.664042174816131592e-01 -5.364788770675659180e-01 -4.490353465080261230e-01
4.951652884483337402e-01 -4.818370044231414795e-01 5.354526042938232422e-01 1.127212643623352051e-01
4.690107703208923340e-01 -4.005412459373474121e-01 6.809560209512710571e-02 8.922193944454193115e-02
-4.035069644451141357e-01 -4.343747496604919434e-01 -1.792246252298355103e-01 3.773360550403594971e-01
1.774204969406127930e-01 3.463760614395141602e-01 2.060140371322631836e-01 4.147539138793945312e-01
3.461711406707763672e-01 -3.825182318687438965e-01 2.817440927028656006e-01 -2.478573769330978394e-01
4.489184916019439697e-01 4.640450179576873779e-01 -5.737577080726623535e-01 -4.756852388381958008e-01
-2.198550105094909668e-01 5.324486494064331055e-01 4.328721463680267334e-01 -2.677863538265228271e-01
-2.582976520061492920e-01 2.079465053975582123e-02 -2.005719244480133057e-01 3.626199960708618164e-01
1.402877122163772583e-01 4.050627052783966064e-01 5.438032150268554688e-01 4.764102101325988770e-01
-5.636515617370605469e-01 -3.181191980838775635e-01 -2.222948521375656128e-01 -4.152398109436035156e-01
-5.106926560401916504e-01 -3.355238437652587891e-01 4.604179263114929199e-01 -9.907483309507369995e-02
4.304857552051544189e-01 -4.756598174571990967e-01 -2.610293924808502197e-01 1.955440342426300049e-01
5.590924024581909180e-01 6.804291158914566040e-03 -2.374982535839080811e-01 1.311015039682388306e-01
-3.659286201000213623e-01 2.583912611007690430e-01 -1.972039341926574707e-01 4.402131140232086182e-01
-2.806817293167114258e-01 -2.590652108192443848e-01 3.397337198257446289e-01 -5.415074825286865234e-01
-4.167841672897338867e-01 -3.726901412010192871e-01 5.479325652122497559e-01 3.427773714065551758e-01
4.322556555271148682e-01 1.846393644809722900e-01 -4.515815973281860352e-01 -4.408387839794158936e-01
4.281164705753326416e-02 -3.189522922039031982e-01 -4.602882564067840576e-01 -3.934157788753509521e-01
-1.692605167627334595e-01 2.658038139343261719e-01 5.173245668411254883e-01 -1.767423152923583984e-01
-4.179547429084777832e-01 1.591320335865020752e-01 3.933411836624145508e-01 -4.684937894344329834e-01
5.040426254272460938e-01 -2.396548688411712646e-01 2.655770182609558105e-01 3.545254468917846680e-02
-3.814329206943511963e-01 -5.586917996406555176e-01 -2.099867165088653564e-02 2.477841973304748535e-01
3.821576833724975586e-01 -4.863030835986137390e-02 8.762960135936737061e-02 3.772539198398590088e-01
-4.178752899169921875e-01 4.807331785559654236e-02 1.357589662075042725e-01 1.297716945409774780e-01
-2.461403608322143555e-02 -9.875035285949707031e-02 -9.600973129272460938e-02 -6.238222122192382812e-04
-4.818157479166984558e-02 -3.153322339057922363e-01 -5.787835121154785156e-01 3.669624403119087219e-02
-5.032941699028015137e-01 3.645990416407585144e-02 -5.013356208801269531e-01 1.858711987733840942e-01
3.162561953067779541e-01 -1.051039397716522217e-01 5.237254500389099121e-01 -4.238894283771514893e-01
-2.121181041002273560e-01 -4.441499114036560059e-01 7.626943755894899368e-03 3.230382502079010010e-01
4.128322303295135498e-01 5.376964211463928223e-01 -2.317482829093933105e-01 -9.552470408380031586e-03
